SVM-light Version V6.02
0 # kernel type
3 # kernel parameter -d 
1 # kernel parameter -g 
1 # kernel parameter -s 
1 # kernel parameter -r 
empty# kernel parameter -u 
101625 # highest feature index 
18457 # number of training documents 
1581 # number of support vectors plus 1 
0.0054124141 # threshold b, each following line is a SV (starting with alpha*y)
0.00029607117759991585792533896892564 18:1 21:1 23:1 28:1 30:1 773:1 2274:1 4043:1 5245:1 9502:1 10494:1 10498:1 10499:1 10573:1 10575:1 10582:1 10773:1 10774:1 11142:1 11381:1 11402:1 12992:1 13738:1 13860:1 13879:1 14047:1 14048:1 14215:1 14219:1 15069:1 15285:1 15888:1 16060:1 16068:1 17832:1 20417:1 21602:1 21750:1 23823:1 25384:1 26561:1 26790:1 26909:1 27313:1 27427:1 28075:1 28084:1 28916:1 28948:1 32188:1 32273:1 32943:1 33377:1 33476:1 33685:1 33849:1 34795:1 35911:1 38172:1 38390:1 40537:1 41175:1 41279:1 41608:1 42000:1 42061:1 42136:1 43843:1 44498:1 46318:1 48084:1 48203:1 49185:1 49907:1 50748:1 51552:1 51917:1 52061:1 52237:1 54762:1 56549:1 57497:1 58167:1 59557:1 59765:1 61015:1 61193:1 62393:1 63148:1 63279:1 64008:1 66044:1 67106:1 67382:1 67439:1 67618:1 67814:1 68581:1 68818:1 73549:1 73733:1 74165:1 74171:1 75224:1 75756:1 75900:1 75911:1 75945:1 76028:1 77644:1 78334:1 79637:1 81576:1 82117:1 82710:1 83055:1 83717:1 83784:1 84210:1 84878:1 87052:1 88747:1 89053:1 89214:1 89968:1 90055:1 90260:1 90267:1 90285:1 90448:1 90470:1 90568:1 90586:1 90647:1 90691:1 90693:1 90720:1 90820:1 90857:1 91439:1 92735:1 97545:1 98160:1 98166:1 98464:1 98976:1 99160:1 99357:1 100328:1 100609:1 100642:1 #
-0.00017582498370737634175650643264532 17:1 10499:1 10574:1 10575:1 12992:1 15069:1 22442:1 25109:1 28277:1 28333:1 30231:1 31071:1 31652:1 33396:1 34177:1 35909:1 41279:1 46318:1 50466:1 52237:1 58222:1 60229:1 60912:1 60929:1 64358:1 64811:1 65251:1 66174:1 66844:1 72832:1 73561:1 74365:1 77101:1 85401:1 87221:1 88424:1 89096:1 97629:1 100609:1 #
-0.0033563808912157686720201255070606 10574:1 10575:1 10582:1 24198:1 38194:1 46318:1 60771:1 72046:1 72608:1 78152:1 #
-0.0014697417991142080681554737964234 17:1 10574:1 10575:1 10582:1 17832:1 22264:1 27860:1 100609:1 #
0.0005560677279013480703295790874563 27:1 29:1 10494:1 10573:1 10575:1 15069:1 36840:1 44375:1 53116:1 57407:1 57580:1 65158:1 65685:1 76804:1 77792:1 86896:1 100395:1 #
0.0020498139383816524859704966132767 29:1 30:1 10494:1 10573:1 10575:1 10582:1 13738:1 14215:1 14360:1 28021:1 41279:1 42508:1 53826:1 56664:1 58161:1 61032:1 61433:1 70082:1 76804:1 86689:1 93235:1 97175:1 98731:1 #
-0.0025262058291936643691921737797657 17:1 10574:1 10575:1 43489:1 69386:1 89214:1 90448:1 #
-6.97299754748710815064477452907e-05 17:1 19:1 28:1 29:1 30:1 31:1 4238:1 8842:1 9176:1 9570:1 10499:1 10574:1 10575:1 13415:1 13860:1 15456:1 17832:1 19637:1 20250:1 20988:1 25541:1 26080:1 27909:1 32718:1 33377:1 34196:1 35483:1 36098:1 36716:1 42061:1 46529:1 48354:1 50588:1 51552:1 56130:1 57472:1 57580:1 64242:1 65772:1 66044:1 66271:1 66518:1 67598:1 67954:1 68553:1 69860:1 76332:1 78391:1 82469:1 89738:1 90720:1 91439:1 94971:1 95179:1 98985:1 100642:1 #
-4.9797707608967363055417487682774e-05 24:1 25:1 28:1 29:1 30:1 32:1 225:1 413:1 587:1 773:1 1108:1 1797:1 2140:1 2873:1 3131:1 3718:1 6095:1 6186:1 6611:1 9247:1 10494:1 10496:1 10498:1 10574:1 10575:1 10576:1 10578:1 11572:1 15888:1 26080:1 30122:1 31750:1 37555:1 39516:1 41175:1 41177:1 41279:1 42061:1 45705:1 46434:1 47467:1 51549:1 53720:1 59310:1 61433:1 64811:1 67106:1 68245:1 70694:1 76767:1 76969:1 77095:1 77165:1 79025:1 82437:1 82986:1 89270:1 90470:1 91439:1 92184:1 92907:1 94271:1 94880:1 97419:1 98177:1 #
2.2291133640395970928749225237198e-05 20:1 24:1 25:1 28:1 29:1 30:1 31:1 225:1 4043:1 4044:1 6095:1 7968:1 7969:1 9502:1 10494:1 10573:1 10575:1 10582:1 10638:1 10652:1 10916:1 13243:1 13738:1 13860:1 13974:1 15069:1 15672:1 15735:1 16336:1 17252:1 17832:1 18964:1 19339:1 19913:1 20715:1 21602:1 21750:1 22094:1 22243:1 22852:1 23106:1 23823:1 26991:1 28277:1 29405:1 29407:1 30212:1 30231:1 30252:1 30778:1 31168:1 31170:1 34395:1 35401:1 38697:1 38974:1 39232:1 40369:1 40379:1 40900:1 40984:1 41279:1 41301:1 42061:1 43004:1 44220:1 44312:1 46318:1 47429:1 49185:1 49601:1 49907:1 50284:1 52061:1 52195:1 52237:1 52308:1 53292:1 55796:1 55800:1 56155:1 57420:1 57943:1 58172:1 58341:1 58910:1 59018:1 59359:1 59411:1 61458:1 62215:1 64813:1 65147:1 66044:1 66174:1 67106:1 67598:1 67927:1 68053:1 68480:1 68672:1 69143:1 69815:1 70653:1 71926:1 72046:1 72828:1 73018:1 73327:1 73647:1 74001:1 74461:1 74634:1 74840:1 75142:1 75146:1 75224:1 76835:1 78006:1 78400:1 78438:1 78487:1 78488:1 78592:1 82450:1 84210:1 84265:1 84406:1 85186:1 85670:1 86756:1 88325:1 89214:1 90448:1 90470:1 90543:1 90586:1 90710:1 90720:1 90857:1 91439:1 91478:1 92263:1 93192:1 94287:1 94534:1 94634:1 94786:1 95933:1 96785:1 96828:1 97175:1 97771:1 98270:1 98464:1 98731:1 99210:1 #
-0.0091427984194730888001245716623089 30:1 10494:1 10574:1 10575:1 16027:1 33436:1 40258:1 72046:1 76804:1 76835:1 90470:1 100642:1 #
-0.0019336898929189921553933872999664 30:1 31:1 773:1 2274:1 9501:1 10574:1 10575:1 11399:1 18712:1 24689:1 32380:1 39580:1 41279:1 46929:1 50528:1 62087:1 63149:1 63550:1 65131:1 71857:1 78890:1 85245:1 89066:1 91849:1 93901:1 #
-0.0091427984194730888001245716623089 10574:1 10575:1 #
-0.00055587817974745551939663723572949 29:1 10494:1 10574:1 10575:1 10756:1 10758:1 15454:1 18121:1 31832:1 38025:1 41802:1 42244:1 43177:1 44279:1 46125:1 54168:1 55544:1 56898:1 58857:1 63712:1 82570:1 83943:1 95928:1 96759:1 97927:1 100928:1 #
-0.0020466113511343653370844197780798 23:1 25:1 10494:1 10499:1 10574:1 10575:1 10849:1 11542:1 25670:1 44388:1 45203:1 48444:1 50901:1 52237:1 64896:1 76804:1 80871:1 85154:1 89815:1 98095:1 #
0.00082462545268861678956356930925153 17:1 18:1 21:1 23:1 26:1 28:1 29:1 30:1 1190:1 1541:1 1614:1 1837:1 2038:1 2263:1 3270:1 3484:1 4043:1 4633:1 5245:1 5696:1 7535:1 7969:1 8842:1 9501:1 10494:1 10499:1 10573:1 10575:1 10582:1 10849:1 12237:1 12238:1 12334:1 12565:1 12992:1 13738:1 13860:1 14194:1 14425:1 15069:1 15888:1 16512:1 17329:1 17832:1 17906:1 17909:1 17926:1 18040:1 18645:1 18985:1 19174:1 19287:1 20030:1 20168:1 21602:1 22264:1 22675:1 22770:1 23120:1 23387:1 24798:1 25407:1 25958:1 26114:1 28084:1 28277:1 29753:1 30143:1 30576:1 31415:1 32188:1 32509:1 32863:1 33377:1 33478:1 33617:1 33700:1 34395:1 34945:1 35626:1 35696:1 36691:1 37842:1 38172:1 38209:1 38218:1 39051:1 39151:1 39193:1 39484:1 39485:1 39773:1 40232:1 40622:1 41588:1 41608:1 41618:1 42061:1 42508:1 43533:1 43894:1 44388:1 45083:1 45113:1 45374:1 45773:1 46047:1 46227:1 46318:1 46562:1 46903:1 46929:1 47110:1 47462:1 47959:1 48864:1 49185:1 49520:1 49779:1 49782:1 49907:1 52061:1 52237:1 55081:1 55095:1 56397:1 56911:1 56932:1 57321:1 57652:1 58213:1 58222:1 58343:1 58421:1 58441:1 59204:1 59205:1 59554:1 59901:1 60809:1 61200:1 61893:1 62216:1 62732:1 62853:1 62885:1 62901:1 63020:1 63063:1 63298:1 63678:1 64008:1 64131:1 64557:1 65959:1 66044:1 66081:1 67106:1 67439:1 67598:1 67618:1 67700:1 67886:1 68053:1 68581:1 68727:1 69815:1 69837:1 69838:1 70598:1 71164:1 71857:1 72046:1 74178:1 74456:1 74869:1 75091:1 76020:1 76835:1 76870:1 76920:1 77601:1 78664:1 80871:1 81131:1 82469:1 82604:1 82710:1 83255:1 83388:1 83806:1 84437:1 84486:1 85472:1 85644:1 85979:1 87585:1 87595:1 88255:1 89053:1 89262:1 90426:1 90448:1 90470:1 90586:1 90624:1 90647:1 90720:1 90788:1 90820:1 91439:1 91478:1 91653:1 92735:1 93151:1 97221:1 97419:1 97545:1 97629:1 97661:1 97801:1 97802:1 97805:1 97868:1 98095:1 98140:1 98270:1 98280:1 98464:1 98707:1 98731:1 98757:1 98966:1 98971:1 98978:1 98980:1 99067:1 99073:1 99210:1 99365:1 100338:1 100609:1 100642:1 101625:1 #
-0.00054252399945522154257881997097002 17:1 20:1 29:1 30:1 31:1 1350:1 1542:1 1773:1 2141:1 2276:1 3718:1 4285:1 6705:1 7247:1 7535:1 7969:1 8158:1 9563:1 10494:1 10574:1 10575:1 13397:1 13651:1 14865:1 14951:1 16483:1 18319:1 18679:1 24833:1 25861:1 26080:1 32155:1 34234:1 40400:1 42508:1 48390:1 49185:1 49907:1 52237:1 63678:1 64466:1 64811:1 67106:1 68553:1 71992:1 74414:1 75142:1 76479:1 82437:1 83693:1 85443:1 85499:1 91478:1 92113:1 93655:1 98095:1 98349:1 98464:1 100546:1 100609:1 100673:1 101272:1 #
0.00025891881022385633982080266335402 18:1 24:1 25:1 28:1 29:1 30:1 5245:1 5798:1 5975:1 9008:1 10494:1 10572:1 10573:1 10575:1 10582:1 10849:1 11069:1 11522:1 11565:1 11871:1 12187:1 12992:1 13283:1 13738:1 13860:1 14407:1 15069:1 15456:1 16389:1 17832:1 18014:1 18122:1 18245:1 20988:1 21833:1 22264:1 22297:1 23842:1 24070:1 25702:1 26080:1 26204:1 26533:1 26991:1 26993:1 27035:1 27833:1 30576:1 32616:1 33377:1 33476:1 34788:1 34893:1 35445:1 35878:1 37551:1 38209:1 38506:1 38754:1 38763:1 40349:1 41175:1 41279:1 41813:1 42297:1 42318:1 43533:1 45638:1 46227:1 46318:1 47242:1 49185:1 49782:1 49907:1 51421:1 52061:1 52237:1 52308:1 53826:1 54048:1 56932:1 57580:1 57606:1 57607:1 58580:1 59156:1 59310:1 59423:1 61433:1 62096:1 64008:1 65147:1 65685:1 66044:1 66174:1 67106:1 67382:1 67598:1 68581:1 68727:1 68976:1 69252:1 70227:1 72351:1 72828:1 73596:1 74028:1 74248:1 75179:1 76048:1 76812:1 77094:1 77095:1 78391:1 78520:1 78615:1 79031:1 82718:1 84210:1 84232:1 84298:1 86648:1 86723:1 87733:1 87785:1 87788:1 87793:1 90335:1 90435:1 90448:1 90470:1 90720:1 91095:1 91439:1 92791:1 93273:1 93287:1 94806:1 94911:1 95821:1 95933:1 96310:1 96775:1 97312:1 98464:1 98731:1 98750:1 98757:1 99059:1 99076:1 99531:1 100609:1 100642:1 #
-0.00035191256896857040642467850943831 17:1 20:1 26:1 29:1 30:1 32:1 9849:1 10574:1 10575:1 10582:1 15888:1 21658:1 33754:1 37950:1 42573:1 48864:1 52237:1 57394:1 70553:1 76124:1 95179:1 #
-0.001042248381784264751881430299818 10494:1 10574:1 10575:1 15888:1 16311:1 16466:1 21704:1 24481:1 43964:1 48152:1 48864:1 49375:1 56664:1 64131:1 67140:1 67186:1 68245:1 69425:1 78465:1 90720:1 91653:1 92028:1 97463:1 97471:1 97629:1 100642:1 #
0.00076211188824944155108948029564431 17:1 29:1 1029:1 1190:1 4044:1 5245:1 10494:1 10573:1 10575:1 12992:1 15069:1 18930:1 41279:1 47914:1 49907:1 53364:1 54640:1 58769:1 63063:1 63621:1 67126:1 69733:1 82825:1 86739:1 90402:1 90470:1 91439:1 92911:1 94831:1 98270:1 99076:1 #
-0.00011245094857917012354242558558326 28:1 29:1 30:1 10499:1 10574:1 10575:1 10849:1 13860:1 15069:1 17832:1 18557:1 20030:1 21564:1 33377:1 34018:1 34788:1 35447:1 36683:1 41279:1 43886:1 48864:1 49185:1 49907:1 50153:1 50640:1 51552:1 51683:1 51729:1 52061:1 52237:1 55081:1 57586:1 59408:1 59423:1 60398:1 60809:1 62947:1 63836:1 64008:1 67674:1 67700:1 68487:1 69992:1 70522:1 71868:1 77693:1 79080:1 81095:1 82275:1 84232:1 84378:1 85979:1 87389:1 87758:1 87765:1 90448:1 90470:1 91095:1 91439:1 95254:1 96404:1 96440:1 96467:1 97312:1 97463:1 97545:1 97732:1 98140:1 98166:1 98464:1 100609:1 100642:1 #
-0.0025075652878717232148464422181178 29:1 10574:1 10575:1 26572:1 26654:1 31076:1 51036:1 66064:1 #
0.0004293160510522843692840511131692 23:1 26:1 28:1 29:1 30:1 31:1 773:1 774:1 1029:1 1190:1 1350:1 1521:1 1541:1 1697:1 1837:1 1949:1 2038:1 2140:1 2273:1 2274:1 2275:1 2291:1 3020:1 3270:1 3606:1 3718:1 3885:1 3966:1 4043:1 4168:1 4285:1 4373:1 4521:1 4894:1 5007:1 5106:1 5245:1 5246:1 5342:1 5603:1 5975:1 6095:1 7061:1 7968:1 8056:1 8842:1 10494:1 10498:1 10499:1 10572:1 10573:1 10575:1 10576:1 10578:1 10582:1 10789:1 10849:1 11433:1 11503:1 12217:1 12219:1 12992:1 13170:1 13243:1 13347:1 13362:1 13738:1 13860:1 14017:1 15069:1 15456:1 16624:1 17467:1 17832:1 17926:1 18014:1 18040:1 18122:1 18894:1 19145:1 19976:1 20085:1 20298:1 20892:1 20961:1 21602:1 21750:1 22201:1 22766:1 22770:1 24297:1 24508:1 25384:1 26080:1 26127:1 26153:1 26167:1 26533:1 26720:1 27916:1 27989:1 28277:1 28348:1 28349:1 28709:1 29793:1 30231:1 30252:1 30443:1 31033:1 31190:1 31631:1 31635:1 31791:1 31830:1 32206:1 33023:1 33377:1 33516:1 33617:1 33849:1 34871:1 34875:1 36496:1 37187:1 37807:1 38172:1 38194:1 38204:1 38209:1 38218:1 38323:1 38622:1 38858:1 39051:1 39352:1 39526:1 39531:1 39695:1 40279:1 40400:1 40736:1 41279:1 41512:1 41983:1 42061:1 42469:1 42508:1 42635:1 43004:1 43306:1 43717:1 43888:1 44251:1 44388:1 44835:1 44841:1 45782:1 45911:1 46227:1 46318:1 46465:1 46468:1 46562:1 46603:1 46621:1 47429:1 47782:1 47953:1 48390:1 48864:1 49185:1 49508:1 49528:1 49907:1 51244:1 52061:1 52069:1 52237:1 52603:1 52659:1 52937:1 52980:1 53342:1 55030:1 55049:1 55081:1 55928:1 56295:1 56953:1 57668:1 57762:1 58421:1 58423:1 58723:1 59156:1 59355:1 60092:1 60306:1 60398:1 60771:1 61013:1 61433:1 61733:1 61893:1 62354:1 62390:1 63148:1 63298:1 63401:1 64131:1 64827:1 65015:1 65130:1 65685:1 66044:1 66081:1 66429:1 67106:1 67140:1 67216:1 67598:1 67618:1 68245:1 68727:1 69241:1 69786:1 70598:1 70706:1 70795:1 71209:1 71899:1 71917:1 72194:1 72815:1 72832:1 74641:1 74785:1 75900:1 77094:1 77253:1 77915:1 78435:1 78452:1 79059:1 79068:1 79563:1 80090:1 80871:1 81250:1 82296:1 82450:1 82469:1 82770:1 82798:1 83472:1 83784:1 84232:1 84295:1 84323:1 84374:1 85154:1 85493:1 85644:1 87221:1 87732:1 87961:1 89053:1 89214:1 89720:1 89968:1 90426:1 90448:1 90470:1 90636:1 90691:1 90720:1 90785:1 90792:1 90863:1 91095:1 91439:1 91507:1 91872:1 92400:1 92683:1 93645:1 94621:1 94858:1 95933:1 97175:1 97312:1 97419:1 97556:1 97928:1 98134:1 98140:1 98270:1 98464:1 98659:1 98731:1 98757:1 98969:1 98982:1 99210:1 99351:1 99531:1 100609:1 100642:1 101112:1 #
-0.0035490089505997206645315777961969 10574:1 10575:1 13616:1 18130:1 18133:1 19532:1 #
0.0038017244617795801012172240973541 30:1 10573:1 10575:1 20239:1 48203:1 67618:1 90720:1 #
-0.0016251253577560806698465434294576 23:1 28:1 30:1 10499:1 10574:1 10575:1 12217:1 24687:1 34672:1 39686:1 41279:1 47110:1 48864:1 52237:1 52885:1 53490:1 56891:1 57716:1 57941:1 59018:1 63678:1 66321:1 67596:1 70057:1 85154:1 85726:1 90470:1 90586:1 91957:1 97077:1 97824:1 98318:1 99497:1 99882:1 #
-0.00030594078509373854321898300590021 26:1 29:1 1350:1 10494:1 10574:1 10575:1 12093:1 14691:1 15398:1 18415:1 22834:1 24070:1 24577:1 27597:1 28205:1 28814:1 30143:1 33720:1 34002:1 34367:1 34788:1 36561:1 40258:1 56491:1 59018:1 59820:1 60192:1 60530:1 61449:1 65098:1 65147:1 66635:1 67598:1 69241:1 76124:1 79312:1 81538:1 83559:1 85428:1 88189:1 88336:1 90402:1 90470:1 92170:1 94621:1 95179:1 97379:1 100642:1 #
0.0060013128170472726866102597398367 10573:1 10575:1 23516:1 49746:1 56254:1 71899:1 #
-0.0052892113439417364623151840419268 28:1 30:1 10574:1 10575:1 18881:1 21602:1 37570:1 39144:1 48864:1 50886:1 54574:1 55081:1 82470:1 84439:1 90470:1 #
-0.00042473463783902759690822015237188 17:1 28:1 30:1 34:1 6096:1 10574:1 10575:1 14303:1 17917:1 19981:1 21638:1 21692:1 24128:1 24418:1 25299:1 25905:1 28949:1 32733:1 41981:1 43533:1 49465:1 49631:1 52237:1 66174:1 69640:1 80958:1 84899:1 90470:1 91439:1 94832:1 96425:1 98359:1 #
-0.0026821078166335146977794501310655 10574:1 10575:1 17832:1 25254:1 33377:1 38218:1 46929:1 78153:1 90647:1 91439:1 91507:1 #
-7.6732778840489182124381950522718e-05 17:1 30:1 9501:1 10499:1 10574:1 10575:1 10689:1 11831:1 12093:1 12187:1 16149:1 17120:1 17138:1 17832:1 18129:1 18557:1 18854:1 20059:1 21513:1 21883:1 22218:1 22264:1 22582:1 23392:1 23470:1 23800:1 24379:1 24928:1 26652:1 28468:1 28943:1 28980:1 29720:1 29993:1 30880:1 32088:1 32657:1 41518:1 45103:1 49442:1 50022:1 55125:1 56860:1 57134:1 59666:1 60267:1 65152:1 65401:1 67635:1 68346:1 74097:1 75116:1 75900:1 77488:1 79644:1 83673:1 86082:1 86878:1 87052:1 87848:1 90470:1 91439:1 93091:1 97083:1 97476:1 100609:1 #
0.0011129052414420475321937820112339 8:1 18:1 23:1 26:1 28:1 29:1 30:1 31:1 773:1 2276:1 7061:1 10494:1 10499:1 10572:1 10573:1 10575:1 10582:1 10789:1 11069:1 11381:1 12992:1 13738:1 13860:1 14215:1 15033:1 15399:1 15456:1 15888:1 16466:1 17832:1 18557:1 19998:1 21564:1 21750:1 22264:1 23790:1 25930:1 26080:1 28355:1 30433:1 30597:1 30844:1 34788:1 35122:1 35698:1 40400:1 41279:1 41411:1 41550:1 41993:1 42061:1 42181:1 42430:1 42573:1 44047:1 46318:1 48390:1 49185:1 49907:1 50407:1 50640:1 51225:1 53615:1 57580:1 58172:1 59310:1 59332:1 59350:1 60398:1 61433:1 62033:1 63148:1 63836:1 63856:1 64358:1 64811:1 65190:1 65193:1 65229:1 65685:1 66044:1 66844:1 67106:1 68010:1 68053:1 68553:1 69207:1 69492:1 69854:1 72046:1 73032:1 73168:1 74634:1 74950:1 75885:1 75889:1 76752:1 76804:1 77094:1 77693:1 77945:1 77997:1 78153:1 78412:1 80871:1 82275:1 82286:1 82710:1 84232:1 84256:1 84297:1 85280:1 85667:1 85670:1 87239:1 87732:1 88330:1 90426:1 90470:1 90543:1 90720:1 91095:1 91439:1 93020:1 94222:1 94493:1 94831:1 94832:1 94869:1 94880:1 95488:1 96211:1 96454:1 98270:1 98318:1 98464:1 98668:1 98707:1 98731:1 99059:1 99100:1 99133:1 99160:1 100609:1 100642:1 #
-0.0035684925851053998259454491659426 28:1 29:1 30:1 3374:1 5975:1 10574:1 10575:1 11550:1 11929:1 13738:1 13860:1 14735:1 15069:1 16384:1 17832:1 34788:1 48150:1 49907:1 49975:1 50640:1 52061:1 59310:1 62014:1 65251:1 67106:1 69935:1 72046:1 73339:1 77086:1 77095:1 77690:1 78520:1 78774:1 78784:1 90428:1 90448:1 90470:1 90720:1 91439:1 97629:1 98464:1 98750:1 100609:1 100642:1 #
0.0091427984194730888001245716623089 28:1 29:1 10499:1 10573:1 10575:1 11565:1 30027:1 34788:1 47110:1 52061:1 59310:1 90720:1 100642:1 #
-0.00020579517442833024994282287156722 29:1 30:1 2514:1 3312:1 3835:1 7546:1 8897:1 9183:1 9775:1 10494:1 10572:1 10574:1 10575:1 12276:1 12863:1 13108:1 14327:1 14687:1 15826:1 15840:1 17254:1 20822:1 21388:1 22145:1 24432:1 26061:1 26080:1 26402:1 32381:1 36098:1 41923:1 44892:1 47333:1 48516:1 61104:1 62467:1 62682:1 66019:1 66480:1 69605:1 71266:1 71550:1 72641:1 75821:1 77280:1 77469:1 77859:1 85672:1 85779:1 87806:1 87996:1 88308:1 94139:1 94634:1 94786:1 #
-0.001330070516825188585430250753916 24:1 25:1 28:1 29:1 30:1 31:1 4044:1 10494:1 10574:1 10575:1 10582:1 11522:1 12334:1 13243:1 13362:1 13860:1 14425:1 15069:1 15456:1 15573:1 15888:1 16845:1 17832:1 18014:1 20148:1 21602:1 26080:1 30576:1 30577:1 31565:1 33377:1 33516:1 33634:1 33873:1 36098:1 38418:1 39991:1 41175:1 41279:1 43533:1 44312:1 44835:1 45688:1 45701:1 45703:1 46318:1 46929:1 47175:1 47953:1 48390:1 48864:1 49185:1 49907:1 51082:1 51338:1 52061:1 52237:1 52308:1 53826:1 54347:1 55081:1 56932:1 56959:1 57321:1 57472:1 57478:1 57586:1 58167:1 58421:1 59423:1 60771:1 61912:1 63067:1 63279:1 64131:1 65190:1 66174:1 67598:1 68196:1 68976:1 69207:1 69220:1 72046:1 72351:1 74832:1 82275:1 82710:1 83717:1 83966:1 83967:1 84378:1 85154:1 85472:1 85477:1 89214:1 90428:1 90470:1 90543:1 90720:1 91095:1 91439:1 93079:1 93901:1 94621:1 94911:1 95933:1 97313:1 97629:1 97732:1 97868:1 98253:1 98464:1 98707:1 98731:1 99076:1 99210:1 99531:1 100609:1 100642:1 #
9.8058874221554849959399391412518e-05 23:1 24:1 25:1 27:1 28:1 30:1 1837:1 5245:1 6097:1 10494:1 10499:1 10573:1 10575:1 10582:1 10849:1 11127:1 11409:1 11928:1 12992:1 13362:1 13860:1 14425:1 15069:1 17047:1 17092:1 17926:1 18014:1 18122:1 18323:1 19507:1 21602:1 22264:1 22373:1 22791:1 22867:1 23844:1 23915:1 24091:1 25452:1 25647:1 26183:1 28277:1 32413:1 33377:1 33634:1 34551:1 34795:1 36350:1 36840:1 37929:1 38172:1 39775:1 40400:1 41279:1 41465:1 42000:1 42061:1 43533:1 43556:1 44312:1 44388:1 46059:1 46084:1 46227:1 46318:1 46785:1 46929:1 47824:1 48203:1 48864:1 49782:1 49907:1 49924:1 52061:1 52237:1 53826:1 54347:1 56949:1 58328:1 58343:1 59156:1 59408:1 60896:1 62947:1 63063:1 63148:1 64131:1 64778:1 64811:1 65147:1 65685:1 66044:1 66081:1 66174:1 66435:1 67106:1 67598:1 67618:1 68053:1 68480:1 68581:1 68672:1 68727:1 69241:1 69431:1 69432:1 69829:1 70062:1 70522:1 70750:1 71266:1 71899:1 72046:1 72832:1 73018:1 76910:1 76969:1 77367:1 78103:1 78972:1 79468:1 80064:1 80910:1 81684:1 82710:1 82749:1 83055:1 84369:1 84406:1 85454:1 85472:1 86808:1 87617:1 88381:1 88386:1 89214:1 89230:1 89262:1 89406:1 90172:1 90448:1 90470:1 90513:1 90529:1 90586:1 90624:1 90647:1 90720:1 90857:1 91095:1 91118:1 91439:1 91546:1 91881:1 94070:1 94640:1 94785:1 95933:1 97175:1 97312:1 97545:1 97629:1 97771:1 97779:1 98095:1 98097:1 98177:1 98270:1 98293:1 98731:1 100328:1 100338:1 100393:1 100609:1 #
-0.0091427984194730888001245716623089 10574:1 10575:1 #
0.00079635030700354251902151059283597 23:1 29:1 30:1 31:1 1190:1 7061:1 10573:1 10575:1 11422:1 15069:1 23848:1 32736:1 40258:1 41279:1 46929:1 48864:1 56580:1 57762:1 76804:1 76870:1 82718:1 86827:1 90470:1 90785:1 91095:1 91439:1 100642:1 #
0.0007348469003584805247022981866678 23:1 28:1 30:1 31:1 527:1 682:1 774:1 2277:1 3606:1 10494:1 10572:1 10573:1 10575:1 10582:1 13362:1 22047:1 23215:1 29979:1 35152:1 46929:1 47175:1 48132:1 48864:1 57472:1 58213:1 58628:1 61733:1 68010:1 76804:1 80871:1 87732:1 89214:1 90470:1 91439:1 98464:1 101237:1 #
-0.00032894694664149651871370982902931 28:1 10574:1 10575:1 11005:1 18582:1 18947:1 32224:1 41848:1 43191:1 45013:1 46201:1 47223:1 53218:1 53554:1 54936:1 61061:1 64242:1 65181:1 73163:1 77699:1 81810:1 93672:1 93889:1 94457:1 94640:1 96173:1 96183:1 97927:1 98919:1 99707:1 #
-0.00051220737600283291080655034832603 28:1 30:1 31:1 3270:1 4044:1 9501:1 10494:1 10497:1 10499:1 10574:1 10575:1 12187:1 13860:1 17832:1 18557:1 22264:1 26080:1 32188:1 35217:1 36098:1 40400:1 40412:1 41279:1 42061:1 43533:1 45822:1 47247:1 47815:1 47817:1 48390:1 48543:1 48864:1 49907:1 50640:1 56155:1 56807:1 56810:1 58466:1 61015:1 61265:1 64131:1 67106:1 67168:1 67598:1 68581:1 69754:1 76585:1 76589:1 76595:1 79574:1 84378:1 84744:1 86387:1 90448:1 90470:1 90498:1 90647:1 90720:1 91478:1 95868:1 98095:1 98711:1 99210:1 100162:1 100328:1 100609:1 #
-0.0019053413484473641272692878700923 30:1 10494:1 10574:1 10575:1 12501:1 40050:1 42571:1 48262:1 58504:1 58916:1 61639:1 76804:1 86427:1 89053:1 90355:1 93509:1 95581:1 96031:1 #
0.002040548728849276172853111077643 29:1 30:1 5249:1 7538:1 10573:1 10575:1 37792:1 48251:1 73291:1 92914:1 97565:1 #
-0.00019887226730209886082362258363787 21:1 22:1 24:1 25:1 28:1 29:1 30:1 31:1 774:1 1190:1 2038:1 2268:1 2274:1 2514:1 4043:1 6095:1 10494:1 10498:1 10572:1 10574:1 10575:1 10582:1 11050:1 11075:1 11723:1 11729:1 12088:1 12256:1 13738:1 13860:1 14677:1 14684:1 15069:1 15456:1 16152:1 16170:1 17083:1 18049:1 18323:1 20148:1 20442:1 20893:1 21564:1 22264:1 22440:1 22634:1 22637:1 22640:1 23038:1 23915:1 25385:1 26080:1 26289:1 26305:1 26402:1 26964:1 27427:1 27483:1 27675:1 28350:1 28383:1 29403:1 29407:1 30231:1 31395:1 31482:1 31549:1 31870:1 33377:1 34788:1 34795:1 35878:1 36350:1 36919:1 36968:1 38091:1 38508:1 38710:1 38850:1 39178:1 39731:1 39748:1 40178:1 40369:1 40532:1 40537:1 41170:1 41279:1 41341:1 41591:1 41848:1 42061:1 43479:1 45263:1 46227:1 46769:1 48150:1 48390:1 49185:1 49907:1 49975:1 50062:1 50357:1 50640:1 50825:1 51338:1 51410:1 51421:1 51706:1 51883:1 51884:1 52061:1 53292:1 53298:1 53372:1 55090:1 56306:1 56500:1 56682:1 56692:1 59310:1 59359:1 59373:1 59423:1 59562:1 59765:1 59939:1 59964:1 61168:1 62137:1 64811:1 65147:1 65822:1 66977:1 67106:1 67140:1 67152:1 67445:1 67604:1 67825:1 67839:1 67843:1 67852:1 68010:1 68053:1 68553:1 68976:1 70082:1 70141:1 70553:1 70795:1 71365:1 71899:1 72046:1 73913:1 74026:1 74029:1 74165:1 74273:1 74364:1 74557:1 74559:1 75928:1 76479:1 76856:1 77237:1 77715:1 77716:1 77789:1 78539:1 78663:1 78789:1 78791:1 78891:1 79909:1 80713:1 80714:1 80982:1 81082:1 82405:1 82958:1 83055:1 83318:1 84265:1 84378:1 84522:1 86808:1 87126:1 87448:1 88325:1 89712:1 90402:1 90448:1 90470:1 90513:1 90857:1 91095:1 91439:1 91669:1 92095:1 92149:1 92153:1 92194:1 92772:1 93273:1 94832:1 95191:1 97419:1 97629:1 97868:1 98349:1 98731:1 99076:1 99100:1 99133:1 99531:1 100338:1 100609:1 100642:1 #
-0.0011137146296500480529417798081226 17:1 23:1 30:1 10574:1 10575:1 11059:1 12202:1 13738:1 14425:1 15069:1 17832:1 21750:1 23487:1 24687:1 31062:1 31881:1 33377:1 33516:1 37408:1 44312:1 46318:1 46801:1 49185:1 52061:1 52237:1 60909:1 64811:1 65147:1 66044:1 70218:1 76804:1 86821:1 90470:1 90720:1 91439:1 93645:1 97629:1 98097:1 98134:1 98464:1 99160:1 100609:1 #
-0.00037128566127952859245164862755928 23:1 28:1 29:1 30:1 31:1 982:1 10494:1 10574:1 10575:1 10582:1 11075:1 11361:1 12117:1 12314:1 12797:1 12992:1 13243:1 13276:1 13860:1 13986:1 14403:1 14407:1 15069:1 15456:1 16466:1 18557:1 19118:1 20961:1 21433:1 21750:1 22264:1 23848:1 26324:1 27709:1 30443:1 31415:1 31419:1 31420:1 31558:1 32863:1 33617:1 34234:1 34638:1 35909:1 36374:1 37220:1 37221:1 37510:1 37842:1 38061:1 38714:1 39239:1 39773:1 39776:1 41098:1 41279:1 41949:1 44047:1 44060:1 44225:1 46318:1 46529:1 47175:1 47958:1 48821:1 49907:1 50058:1 50062:1 52038:1 56187:1 58167:1 59666:1 60398:1 60809:1 63087:1 64856:1 65065:1 67106:1 67598:1 67618:1 68053:1 68483:1 70787:1 73576:1 74171:1 74634:1 77693:1 78400:1 78534:1 78877:1 80810:1 80965:1 80978:1 82604:1 83059:1 85454:1 87832:1 88007:1 89053:1 90159:1 90448:1 90470:1 90542:1 90586:1 90647:1 90691:1 90787:1 90792:1 91439:1 91478:1 93276:1 94357:1 94831:1 95500:1 96454:1 97629:1 98166:1 98731:1 #
-0.00035447096572505587194767961989328 17:1 22:1 23:1 24:1 25:1 26:1 28:1 29:1 30:1 31:1 920:1 1949:1 2274:1 2275:1 2866:1 2873:1 2908:1 3020:1 4043:1 5245:1 6077:1 6084:1 10494:1 10497:1 10498:1 10499:1 10574:1 10575:1 10720:1 11353:1 11392:1 11546:1 11729:1 11745:1 12251:1 13483:1 13519:1 13738:1 13860:1 14407:1 15259:1 15417:1 15739:1 15756:1 15888:1 16066:1 16162:1 16335:1 16466:1 16752:1 16783:1 16875:1 17230:1 17832:1 20771:1 21833:1 22111:1 23334:1 23726:1 23755:1 24070:1 24283:1 24932:1 25604:1 26080:1 26397:1 26909:1 27392:1 28057:1 28712:1 29094:1 30197:1 30252:1 30299:1 31439:1 32523:1 33137:1 33617:1 33969:1 34715:1 37077:1 38178:1 38319:1 38572:1 38714:1 38811:1 38820:1 39721:1 39741:1 39779:1 40185:1 40279:1 40900:1 40996:1 41279:1 41300:1 41426:1 41455:1 42061:1 42330:1 43263:1 43806:1 44047:1 44225:1 44551:1 45083:1 46468:1 46549:1 47316:1 48174:1 48352:1 48390:1 48705:1 48947:1 49185:1 49388:1 49505:1 49778:1 49907:1 49975:1 50058:1 50640:1 50686:1 51153:1 51410:1 51547:1 51940:1 52061:1 53739:1 53826:1 53951:1 54434:1 54521:1 55724:1 56664:1 56797:1 57321:1 57420:1 58082:1 58652:1 59018:1 59562:1 59566:1 60524:1 61433:1 61671:1 61733:1 62154:1 62164:1 62359:1 63148:1 64075:1 64480:1 65065:1 65147:1 66044:1 66534:1 67106:1 67162:1 67168:1 67598:1 67700:1 67845:1 67876:1 68374:1 68553:1 68581:1 69415:1 69698:1 70195:1 70902:1 71566:1 72046:1 72418:1 73627:1 74092:1 74138:1 74248:1 74266:1 74656:1 75911:1 76959:1 77043:1 77094:1 77285:1 77672:1 77700:1 77729:1 77737:1 78152:1 78438:1 78440:1 78763:1 78969:1 79370:1 80503:1 80871:1 80893:1 81182:1 82372:1 82412:1 82735:1 82958:1 83372:1 84429:1 85828:1 85830:1 87361:1 87367:1 87401:1 87708:1 87732:1 89012:1 89053:1 89434:1 89473:1 89777:1 89780:1 90402:1 90412:1 90470:1 90624:1 90720:1 91439:1 91478:1 93192:1 94534:1 94621:1 94831:1 96111:1 97431:1 98270:1 98464:1 98707:1 98731:1 99059:1 99210:1 99531:1 100609:1 #
0.0013514721645461597303999878860736 2:1 17:1 20:1 23:1 25:1 26:1 28:1 29:1 30:1 31:1 773:1 6096:1 7968:1 10494:1 10573:1 10575:1 10576:1 10578:1 10582:1 10849:1 11069:1 11421:1 12992:1 13347:1 13415:1 13738:1 13860:1 14430:1 16164:1 18557:1 18881:1 21498:1 21602:1 21658:1 21750:1 22264:1 22631:1 23276:1 23750:1 23850:1 24070:1 25254:1 25265:1 26080:1 26406:1 26565:1 27392:1 27549:1 27806:1 31070:1 31887:1 32314:1 33868:1 33872:1 34788:1 34932:1 36714:1 38439:1 38460:1 38642:1 39498:1 39722:1 39991:1 40258:1 40266:1 40598:1 41279:1 41451:1 42061:1 42287:1 42469:1 43533:1 43556:1 44220:1 44312:1 45349:1 46227:1 46318:1 46929:1 47705:1 48150:1 49185:1 49508:1 49907:1 50062:1 51421:1 51873:1 52061:1 52237:1 53364:1 53718:1 53826:1 56911:1 57262:1 57375:1 57580:1 57588:1 57606:1 59310:1 59332:1 59350:1 60809:1 60875:1 60884:1 61193:1 63148:1 63983:1 64358:1 65147:1 65251:1 66044:1 66174:1 67106:1 67126:1 67598:1 67618:1 67674:1 68053:1 68200:1 68553:1 68581:1 69103:1 69143:1 69207:1 69218:1 70141:1 70795:1 71998:1 71999:1 72046:1 72176:1 72701:1 74122:1 74138:1 74367:1 76224:1 76397:1 76601:1 76856:1 77008:1 77094:1 78147:1 78152:1 79160:1 80599:1 80623:1 80871:1 82950:1 83042:1 84437:1 84808:1 84861:1 85511:1 85516:1 85649:1 86959:1 89214:1 89230:1 90448:1 90470:1 90720:1 90797:1 90820:1 90970:1 91095:1 91261:1 91439:1 91478:1 92194:1 92681:1 93192:1 94493:1 94621:1 94640:1 94858:1 95896:1 96173:1 96218:1 96454:1 97312:1 97523:1 97545:1 97689:1 97855:1 97928:1 98140:1 98561:1 98564:1 98731:1 98871:1 99178:1 99210:1 99531:1 100609:1 100642:1 #
0.00043483527150642786122253236058555 17:1 28:1 29:1 30:1 31:1 1697:1 4633:1 10494:1 10498:1 10499:1 10572:1 10573:1 10575:1 10582:1 12187:1 13362:1 13860:1 14446:1 15888:1 16845:1 19174:1 22111:1 23938:1 26080:1 26127:1 33377:1 34788:1 35696:1 38091:1 41279:1 41550:1 41848:1 42061:1 43533:1 44312:1 46318:1 48390:1 48864:1 53826:1 58213:1 59310:1 61433:1 62583:1 62923:1 63678:1 64131:1 66174:1 67598:1 68053:1 71319:1 73871:1 75770:1 77315:1 78391:1 83244:1 84270:1 85551:1 88146:1 89270:1 90428:1 90435:1 90857:1 91439:1 95933:1 96310:1 96567:1 98483:1 99365:1 100170:1 100609:1 100642:1 #
0.0017975518686708994147566142984829 17:1 28:1 2274:1 10573:1 10575:1 14407:1 46318:1 47175:1 49185:1 55081:1 56932:1 58396:1 60771:1 61556:1 72046:1 75374:1 75911:1 85252:1 100609:1 #
0.00036114262726924740076403508304281 17:1 23:1 26:1 28:1 29:1 30:1 31:1 3374:1 10494:1 10499:1 10572:1 10573:1 10575:1 10582:1 10849:1 11069:1 11148:1 11161:1 11422:1 11565:1 12217:1 12992:1 13860:1 15888:1 16412:1 18245:1 18964:1 18995:1 22599:1 22634:1 23174:1 23483:1 23842:1 24070:1 24910:1 25254:1 25894:1 26080:1 26654:1 26848:1 27464:1 28106:1 28737:1 29476:1 30231:1 30323:1 31953:1 33377:1 33868:1 35878:1 36098:1 36738:1 36832:1 36840:1 38850:1 39722:1 40276:1 41279:1 41465:1 41848:1 42061:1 44550:1 44835:1 46318:1 46785:1 47953:1 48150:1 48392:1 49049:1 49907:1 50153:1 50640:1 51079:1 52061:1 52237:1 53826:1 56549:1 57420:1 57586:1 58075:1 59423:1 59557:1 59566:1 61433:1 61438:1 62977:1 63148:1 66044:1 66174:1 67106:1 67598:1 67604:1 67618:1 67674:1 67700:1 68010:1 68053:1 68113:1 68480:1 68553:1 68581:1 69172:1 69481:1 69854:1 69858:1 70057:1 70080:1 72046:1 72176:1 72351:1 73913:1 74342:1 74558:1 75182:1 75900:1 76804:1 76835:1 77094:1 77301:1 77731:1 77737:1 78359:1 78391:1 78520:1 78763:1 80985:1 82396:1 82437:1 83706:1 84060:1 85280:1 85551:1 86763:1 86764:1 90186:1 90428:1 90435:1 90470:1 90543:1 90586:1 90624:1 90688:1 90720:1 91439:1 91478:1 91661:1 93763:1 93798:1 94831:1 94858:1 94880:1 96211:1 96454:1 97629:1 97733:1 97855:1 98177:1 98464:1 98731:1 99531:1 100609:1 100642:1 #
-0.00035061785860028381453176726800791 29:1 30:1 2274:1 3270:1 3606:1 4043:1 6047:1 6095:1 6866:1 7061:1 7968:1 7969:1 8679:1 8842:1 9777:1 9912:1 10499:1 10574:1 10575:1 10582:1 13860:1 23702:1 29600:1 33377:1 36755:1 38319:1 39113:1 43851:1 43852:1 44220:1 46318:1 47341:1 48864:1 50022:1 52061:1 53571:1 53908:1 55724:1 64131:1 66044:1 66239:1 68452:1 70456:1 71815:1 75374:1 75590:1 76124:1 80871:1 87638:1 90586:1 91439:1 93326:1 93396:1 94621:1 96973:1 97312:1 98318:1 100642:1 #
0.0013483364676624067391569328222545 23:1 30:1 10573:1 10575:1 13860:1 18844:1 20148:1 24882:1 30562:1 38664:1 58292:1 59156:1 60388:1 62923:1 67598:1 74269:1 80871:1 89214:1 90470:1 91439:1 91689:1 93684:1 97629:1 98095:1 98731:1 100642:1 #
-0.0055183082800000981746335604327669 23:1 28:1 30:1 10574:1 10575:1 16845:1 17832:1 23003:1 26533:1 41279:1 43533:1 44507:1 46801:1 46929:1 47110:1 47953:1 48864:1 49185:1 52237:1 55081:1 56181:1 56932:1 57472:1 57762:1 60771:1 62923:1 64813:1 66174:1 67598:1 68113:1 78521:1 80651:1 80871:1 83018:1 90448:1 90470:1 90720:1 94621:1 98095:1 100609:1 100642:1 #
-0.0028693371126125364993508792821331 30:1 2038:1 10574:1 10575:1 10576:1 10578:1 13358:1 32188:1 33377:1 39692:1 46047:1 52237:1 59479:1 61952:1 72046:1 76804:1 97419:1 98134:1 100609:1 #
-0.0018330654820104441866945865768912 28:1 30:1 10574:1 10575:1 14896:1 21927:1 22895:1 25332:1 27291:1 37929:1 44424:1 65685:1 96483:1 100170:1 #
0.00030777157979455750311248429795796 17:1 23:1 28:1 29:1 30:1 4044:1 10494:1 10495:1 10573:1 10575:1 10582:1 10849:1 13860:1 14428:1 15069:1 15888:1 17539:1 17832:1 18645:1 21070:1 24063:1 25104:1 25529:1 26379:1 32273:1 32523:1 33039:1 33806:1 36059:1 36098:1 37964:1 38215:1 38710:1 39773:1 40317:1 41279:1 42061:1 43891:1 45090:1 46084:1 46318:1 46465:1 46929:1 48864:1 49907:1 51514:1 52061:1 52237:1 52308:1 53951:1 54506:1 57472:1 61264:1 64131:1 65685:1 67106:1 68053:1 74248:1 79370:1 80871:1 81857:1 83042:1 83329:1 83762:1 84420:1 85472:1 87585:1 90448:1 90470:1 90513:1 90543:1 90586:1 90785:1 90820:1 90857:1 91439:1 91836:1 93276:1 95933:1 97419:1 97545:1 97928:1 98095:1 98134:1 98270:1 98464:1 99076:1 99091:1 99187:1 100642:1 #
3.3293529075025457076089652197481e-05 23:1 28:1 30:1 10573:1 10575:1 10582:1 11730:1 13516:1 15580:1 19976:1 39594:1 41279:1 46929:1 49907:1 52061:1 53647:1 56487:1 57580:1 60060:1 61015:1 67106:1 80871:1 81376:1 84943:1 85680:1 86419:1 86543:1 86999:1 90470:1 91478:1 92134:1 97928:1 100609:1 #
-0.00052590395222301710743961766780785 17:1 20:1 27:1 28:1 29:1 30:1 31:1 226:1 1837:1 6204:1 8844:1 9207:1 10499:1 10500:1 10501:1 10502:1 10503:1 10504:1 10507:1 10516:1 10527:1 10551:1 10574:1 10575:1 26080:1 37527:1 62631:1 99531:1 #
-0.0013113995434078592767362936299946 30:1 10574:1 10575:1 11565:1 13860:1 18995:1 20275:1 21638:1 25254:1 36098:1 36919:1 42469:1 45083:1 49907:1 59333:1 73714:1 90470:1 91439:1 94493:1 100642:1 #
-0.00062245724510736179582726101955359 24:1 25:1 28:1 30:1 10495:1 10499:1 10574:1 10575:1 10582:1 10849:1 13860:1 13964:1 15285:1 15722:1 15888:1 17092:1 17873:1 18179:1 18685:1 18831:1 19760:1 20553:1 20933:1 21298:1 21684:1 22121:1 22264:1 22800:1 23470:1 23623:1 25419:1 25616:1 25758:1 25781:1 27339:1 28692:1 29418:1 30518:1 34808:1 40842:1 41279:1 41446:1 42061:1 45285:1 46465:1 46903:1 47184:1 47214:1 48215:1 50984:1 51552:1 52237:1 55081:1 57284:1 58421:1 58432:1 59423:1 59523:1 60809:1 62082:1 63279:1 64738:1 67106:1 67694:1 68053:1 68553:1 68727:1 70336:1 70338:1 71258:1 73414:1 73709:1 75012:1 76279:1 77945:1 79545:1 80057:1 82437:1 89214:1 89230:1 90448:1 91439:1 92720:1 97161:1 97166:1 97419:1 97629:1 98134:1 98140:1 98731:1 100609:1 #
-0.00044229458537421169990119795834005 29:1 30:1 884:1 1180:1 1665:1 2291:1 8186:1 9252:1 9492:1 10494:1 10572:1 10574:1 10575:1 11766:1 14519:1 16027:1 16585:1 18279:1 18378:1 18656:1 19729:1 20099:1 25462:1 26037:1 26080:1 27642:1 30732:1 32349:1 33055:1 33598:1 34806:1 35247:1 36098:1 39174:1 41376:1 41427:1 41518:1 41932:1 44264:1 51084:1 51755:1 53991:1 61961:1 62682:1 62755:1 67216:1 70815:1 71266:1 73239:1 73970:1 77173:1 81484:1 81627:1 83579:1 85801:1 87565:1 88114:1 89267:1 93824:1 98214:1 99350:1 #
8.0844570222503100184567592645379e-05 29:1 5429:1 7285:1 8089:1 9205:1 9901:1 10573:1 10575:1 15739:1 23416:1 23961:1 30191:1 34528:1 68165:1 79968:1 91151:1 91439:1 #
-0.00029636107615429047859242905893495 17:1 25:1 28:1 29:1 30:1 10494:1 10499:1 10574:1 10575:1 10582:1 10849:1 11381:1 12167:1 12187:1 12250:1 12264:1 12334:1 13243:1 13362:1 13654:1 13738:1 13860:1 14215:1 14407:1 14761:1 14996:1 15069:1 15233:1 16719:1 16845:1 16957:1 18014:1 18040:1 18632:1 19282:1 19442:1 19443:1 19520:1 19573:1 19976:1 20005:1 20949:1 21273:1 21362:1 21602:1 21750:1 22111:1 22264:1 22867:1 23938:1 24104:1 24301:1 25121:1 25259:1 26127:1 26654:1 28370:1 29472:1 29844:1 31623:1 31887:1 31889:1 32188:1 32516:1 33377:1 33685:1 33868:1 34466:1 34496:1 34557:1 34932:1 35254:1 35404:1 35812:1 36094:1 36381:1 36799:1 36919:1 36962:1 37028:1 38150:1 38209:1 38215:1 38640:1 38664:1 38670:1 38760:1 38995:1 38996:1 40185:1 40349:1 40537:1 41170:1 41279:1 41512:1 41764:1 42061:1 42405:1 42417:1 42635:1 43495:1 43533:1 43556:1 43888:1 44220:1 44265:1 44388:1 44723:1 44835:1 44876:1 45083:1 45327:1 45920:1 45978:1 46047:1 46318:1 46465:1 46769:1 46785:1 46903:1 47953:1 48440:1 48551:1 48864:1 49037:1 49907:1 49975:1 50022:1 50153:1 50993:1 51032:1 51552:1 51741:1 52061:1 52237:1 53116:1 53473:1 53826:1 54444:1 54741:1 56092:1 56187:1 57472:1 57478:1 57693:1 57820:1 58185:1 58213:1 58343:1 58421:1 59097:1 59104:1 59851:1 59993:1 60229:1 60402:1 60771:1 61013:1 61200:1 61893:1 62162:1 62171:1 62644:1 63148:1 63179:1 63493:1 64131:1 64247:1 64646:1 65015:1 65130:1 65147:1 65251:1 65822:1 65931:1 66044:1 66063:1 66174:1 66311:1 67106:1 67598:1 67618:1 67700:1 68053:1 68553:1 68581:1 69121:1 69207:1 69858:1 70522:1 71463:1 71753:1 71955:1 72046:1 72108:1 73255:1 73615:1 73916:1 74783:1 75900:1 77367:1 78087:1 78534:1 80128:1 80563:1 80564:1 80871:1 81564:1 82455:1 84046:1 84060:1 84378:1 84959:1 85154:1 85454:1 87026:1 87227:1 88418:1 88495:1 88616:1 89153:1 89526:1 89688:1 89968:1 90448:1 90470:1 90513:1 90529:1 90586:1 90624:1 90647:1 90691:1 90928:1 91439:1 91546:1 91660:1 92077:1 92437:1 92792:1 93192:1 94621:1 94858:1 94864:1 95488:1 96032:1 96454:1 97085:1 97419:1 97629:1 97689:1 97774:1 97855:1 98095:1 98134:1 98464:1 98503:1 98695:1 98731:1 99059:1 99067:1 99076:1 99133:1 99321:1 99351:1 99365:1 100338:1 100388:1 100393:1 100609:1 100632:1 100642:1 100673:1 #
-2.7512865459216259158246875582421e-05 23:1 28:1 30:1 10574:1 10575:1 11721:1 12077:1 12114:1 12758:1 12882:1 13681:1 13799:1 14011:1 15818:1 16466:1 16687:1 17081:1 17219:1 17523:1 17983:1 18050:1 18275:1 18378:1 18599:1 19385:1 19700:1 20425:1 21006:1 21386:1 22657:1 22689:1 23612:1 23771:1 24459:1 24531:1 25115:1 26079:1 26795:1 26923:1 27496:1 28618:1 28676:1 29500:1 29753:1 30024:1 30257:1 30462:1 31539:1 31652:1 32129:1 32204:1 32227:1 35421:1 35886:1 36259:1 37524:1 37628:1 37633:1 38780:1 39199:1 40742:1 41279:1 41614:1 43351:1 43391:1 44565:1 45471:1 46139:1 46929:1 47044:1 47175:1 48230:1 50091:1 50298:1 52061:1 53991:1 54819:1 55842:1 56853:1 57321:1 57641:1 58466:1 61148:1 61951:1 62064:1 62459:1 63331:1 67103:1 67910:1 69403:1 69569:1 69867:1 70641:1 70831:1 70864:1 71710:1 72083:1 72160:1 72581:1 72800:1 73756:1 74984:1 75114:1 76006:1 76207:1 76222:1 76392:1 77353:1 77497:1 77944:1 79077:1 85370:1 85607:1 85662:1 85798:1 85879:1 86793:1 87224:1 88044:1 89853:1 90779:1 90998:1 91764:1 92182:1 92650:1 92756:1 92894:1 93669:1 95889:1 96069:1 97509:1 97691:1 98560:1 99105:1 100355:1 100382:1 #
5.1999771998661748753298161851433e-05 24:1 25:1 28:1 29:1 30:1 32:1 1962:1 3885:1 3966:1 5245:1 5603:1 6005:1 10102:1 10117:1 10494:1 10499:1 10572:1 10573:1 10575:1 10849:1 13860:1 20005:1 25579:1 26080:1 27464:1 32521:1 32757:1 34788:1 39586:1 39773:1 41848:1 46362:1 46903:1 48864:1 58155:1 59310:1 62027:1 64242:1 68010:1 69481:1 71266:1 72046:1 74949:1 79575:1 79599:1 80810:1 83179:1 83262:1 86993:1 88809:1 89265:1 90470:1 91439:1 93590:1 96310:1 99531:1 100642:1 #
6.6762002160524860417713244320481e-05 18:1 23:1 28:1 29:1 30:1 31:1 1949:1 2277:1 9502:1 10494:1 10495:1 10573:1 10575:1 10582:1 10856:1 11107:1 12981:1 13243:1 13362:1 13738:1 13860:1 14407:1 14419:1 14677:1 14751:1 15069:1 15456:1 15616:1 15888:1 16031:1 17832:1 17926:1 18014:1 18040:1 18645:1 19700:1 20734:1 21602:1 21750:1 23187:1 23848:1 23898:1 26098:1 26281:1 26402:1 26556:1 26977:1 27072:1 27882:1 28224:1 28277:1 30252:1 30597:1 31750:1 31870:1 32509:1 32537:1 32762:1 32763:1 35853:1 36755:1 36924:1 38670:1 39231:1 39232:1 39563:1 39575:1 39879:1 40258:1 40274:1 40275:1 40409:1 40412:1 40633:1 41098:1 41171:1 41460:1 41570:1 41588:1 41608:1 42061:1 44225:1 44950:1 44957:1 46227:1 46318:1 48864:1 49185:1 49782:1 49907:1 49928:1 50062:1 50153:1 50155:1 50242:1 50286:1 50288:1 51057:1 51303:1 51335:1 52061:1 52206:1 52237:1 52308:1 53369:1 53739:1 55081:1 55796:1 56092:1 56095:1 56619:1 56822:1 56932:1 58172:1 58455:1 59156:1 59437:1 59573:1 59939:1 59964:1 60398:1 60771:1 60888:1 61015:1 61018:1 63148:1 63380:1 64083:1 64552:1 64730:1 64900:1 64901:1 65251:1 65685:1 66044:1 66063:1 66072:1 67106:1 67598:1 67618:1 67700:1 67849:1 68053:1 68113:1 68126:1 68194:1 68245:1 68480:1 68581:1 68727:1 69728:1 69730:1 69760:1 71920:1 72418:1 72828:1 73762:1 74029:1 74040:1 74459:1 74634:1 77215:1 77602:1 77716:1 77899:1 77908:1 77996:1 78535:1 78538:1 78539:1 78543:1 78877:1 80510:1 80514:1 80871:1 81457:1 81981:1 82221:1 82261:1 82994:1 83020:1 83762:1 84297:1 85551:1 85680:1 85686:1 85688:1 85891:1 86203:1 86723:1 86731:1 86758:1 86768:1 87973:1 88092:1 89274:1 90159:1 90448:1 90470:1 90593:1 90624:1 90647:1 90857:1 91439:1 91788:1 92143:1 92263:1 92911:1 94621:1 95000:1 97320:1 97629:1 97928:1 97960:1 98095:1 98166:1 98284:1 98464:1 98731:1 98750:1 #
-0.0091427984194730888001245716623089 10574:1 10575:1 #
0.00027204252598706212809206994585054 23:1 30:1 10573:1 10575:1 13195:1 13362:1 13796:1 13860:1 14215:1 14425:1 15069:1 33634:1 34148:1 34590:1 37833:1 40563:1 43888:1 45940:1 46318:1 47429:1 48091:1 48864:1 59018:1 60771:1 61935:1 64131:1 67598:1 68581:1 78401:1 83755:1 87052:1 90470:1 91439:1 91608:1 97175:1 98731:1 #
0.0001732510996723925981825853437357 17:1 18:1 20:1 21:1 22:1 23:1 24:1 25:1 28:1 29:1 30:1 31:1 33:1 589:1 773:1 1029:1 1190:1 1942:1 2134:1 2268:1 2273:1 2276:1 2277:1 2967:1 3572:1 3959:1 4044:1 4168:1 4767:1 5824:1 5975:1 7092:1 8412:1 9702:1 10494:1 10497:1 10498:1 10499:1 10572:1 10573:1 10575:1 10582:1 10849:1 10863:1 11522:1 12217:1 12560:1 12601:1 12620:1 12722:1 12732:1 12789:1 12992:1 13193:1 13243:1 13454:1 13504:1 13738:1 13860:1 13968:1 14407:1 14578:1 15069:1 15606:1 15888:1 16614:1 16624:1 17005:1 17703:1 17926:1 18245:1 18557:1 18891:1 19174:1 19817:1 19976:1 20130:1 20134:1 20777:1 21548:1 21602:1 21750:1 21833:1 22094:1 22095:1 22161:1 22264:1 22373:1 22550:1 22599:1 22968:1 23483:1 23842:1 24070:1 24438:1 24473:1 24845:1 24932:1 25182:1 25254:1 25384:1 25612:1 26080:1 26104:1 26796:1 28623:1 28704:1 28737:1 28847:1 28867:1 29035:1 29767:1 29844:1 29855:1 30143:1 30231:1 30252:1 30422:1 30433:1 31070:1 31616:1 31711:1 31737:1 31750:1 32210:1 33164:1 33377:1 33403:1 33551:1 33617:1 33789:1 34150:1 34500:1 34551:1 34712:1 34788:1 36098:1 36738:1 36883:1 37626:1 38209:1 38327:1 38385:1 38435:1 38676:1 38714:1 38895:1 38938:1 39305:1 39363:1 39422:1 39424:1 39425:1 39654:1 39762:1 39828:1 40193:1 40291:1 40400:1 40424:1 40621:1 40843:1 41022:1 41024:1 41153:1 41279:1 41588:1 41848:1 41947:1 42061:1 42430:1 42469:1 42511:1 42960:1 43533:1 43534:1 43888:1 44322:1 44388:1 44702:1 44835:1 45264:1 45976:1 46318:1 46505:1 46550:1 46785:1 46929:1 47295:1 47466:1 48099:1 48115:1 48152:1 48175:1 48203:1 48390:1 48705:1 48877:1 49185:1 49469:1 49471:1 49540:1 49907:1 49975:1 50061:1 50062:1 50395:1 50640:1 51309:1 51547:1 52061:1 52118:1 52237:1 52250:1 52505:1 52603:1 53118:1 53826:1 54662:1 55724:1 55874:1 56130:1 56509:1 56549:1 56586:1 56860:1 57321:1 57420:1 57596:1 57652:1 57762:1 58125:1 58172:1 58222:1 58326:1 58421:1 58448:1 58466:1 59223:1 59227:1 59310:1 59350:1 59423:1 59428:1 60531:1 60809:1 61167:1 61169:1 61420:1 61596:1 61852:1 61963:1 61972:1 62096:1 63148:1 63593:1 64738:1 65147:1 65190:1 65251:1 65441:1 65456:1 65641:1 66044:1 66161:1 66174:1 66518:1 66585:1 66958:1 66977:1 67106:1 67126:1 67140:1 67152:1 67598:1 67618:1 67700:1 68010:1 68053:1 68277:1 68480:1 68553:1 68581:1 68630:1 68976:1 69143:1 69151:1 70343:1 70598:1 71868:1 71993:1 72046:1 72274:1 72828:1 73756:1 73913:1 73916:1 74199:1 74201:1 74248:1 74367:1 74944:1 75142:1 75911:1 76585:1 76845:1 77094:1 77101:1 77729:1 78087:1 78391:1 78631:1 78721:1 78723:1 78786:1 79161:1 79250:1 79468:1 79478:1 80091:1 80093:1 80281:1 80304:1 80308:1 80342:1 80599:1 80871:1 81088:1 81095:1 81233:1 81524:1 81940:1 82385:1 82412:1 82437:1 82581:1 82770:1 82950:1 83055:1 83304:1 83693:1 83755:1 84014:1 84378:1 85154:1 85454:1 85472:1 85852:1 86147:1 86491:1 86768:1 86821:1 87732:1 87748:1 87793:1 88127:1 88188:1 88555:1 89053:1 89702:1 90428:1 90448:1 90470:1 90647:1 90699:1 90720:1 90785:1 90857:1 90970:1 91095:1 91439:1 91926:1 91999:1 92004:1 92077:1 92352:1 92356:1 92357:1 92364:1 92372:1 92437:1 92585:1 93185:1 93192:1 93219:1 94118:1 94229:1 94493:1 94621:1 94640:1 94831:1 95198:1 95368:1 95618:1 95644:1 96318:1 96454:1 97312:1 97327:1 97419:1 97463:1 97629:1 97771:1 98095:1 98140:1 98160:1 98166:1 98177:1 98464:1 98707:1 98731:1 98788:1 99133:1 99531:1 99587:1 100609:1 100642:1 100673:1 101602:1 #
-4.6942309463390208192513225471387e-05 17:1 18:1 23:1 24:1 25:1 27:1 28:1 29:1 30:1 31:1 33:1 377:1 491:1 682:1 1949:1 2272:1 3344:1 3374:1 3860:1 3966:1 5106:1 5245:1 5514:1 5798:1 6096:1 7689:1 7968:1 9304:1 10494:1 10572:1 10574:1 10575:1 12632:1 12704:1 12705:1 12717:1 13162:1 13861:1 14953:1 14954:1 15140:1 15414:1 16497:1 16704:1 16717:1 16724:1 17560:1 17710:1 17711:1 18953:1 18955:1 19125:1 21151:1 21970:1 23551:1 24777:1 25844:1 26080:1 28504:1 28505:1 29767:1 30894:1 32354:1 32495:1 32810:1 34788:1 35496:1 35901:1 38075:1 39586:1 39604:1 40642:1 43256:1 44373:1 45183:1 45419:1 46264:1 46281:1 47489:1 48115:1 48992:1 49009:1 49037:1 49049:1 49402:1 49407:1 49408:1 49412:1 49413:1 49898:1 51421:1 54138:1 54139:1 54140:1 54141:1 54305:1 54630:1 54834:1 55130:1 55602:1 58832:1 59203:1 59310:1 61338:1 63593:1 63797:1 63814:1 65504:1 66044:1 66427:1 67421:1 67855:1 68323:1 68325:1 70067:1 72176:1 76163:1 77931:1 80885:1 81461:1 81570:1 82327:1 83699:1 84173:1 84366:1 84433:1 89366:1 89472:1 89874:1 89880:1 89905:1 89912:1 90250:1 92939:1 93009:1 93014:1 93689:1 94880:1 95138:1 95161:1 95464:1 95618:1 95985:1 100221:1 100470:1 100819:1 #
0.0045800403640052786760628045215071 28:1 30:1 1934:1 10494:1 10573:1 10575:1 49975:1 52061:1 57412:1 65147:1 65685:1 67343:1 76804:1 84375:1 90470:1 #
-0.0013675588817397474599574236364674 10494:1 10574:1 10575:1 11487:1 12841:1 13860:1 25254:1 27438:1 46929:1 86310:1 94786:1 #
0.00050504142705337195899673030652366 21:1 30:1 10063:1 10494:1 10573:1 10575:1 12763:1 14770:1 18102:1 36098:1 39879:1 41170:1 42061:1 46465:1 46550:1 48864:1 50285:1 53826:1 57328:1 65147:1 73875:1 76804:1 77792:1 81182:1 87560:1 90448:1 91439:1 94621:1 97419:1 #
0.0022576376055966963264654001619647 19:1 23:1 28:1 10499:1 10573:1 10575:1 10582:1 19964:1 22272:1 28277:1 41161:1 41279:1 43888:1 46318:1 46505:1 60771:1 62886:1 67598:1 74461:1 78412:1 79865:1 80871:1 90435:1 94621:1 98134:1 100609:1 100642:1 #
-0.0014540842430570484651586316005023 23:1 28:1 29:1 30:1 31:1 774:1 2275:1 10494:1 10574:1 10575:1 11857:1 13738:1 15754:1 21750:1 33377:1 33617:1 41588:1 47110:1 48390:1 48864:1 49894:1 50587:1 52237:1 56932:1 57321:1 57703:1 64242:1 69815:1 73970:1 76059:1 80871:1 84270:1 86689:1 89053:1 90362:1 90470:1 90693:1 90720:1 94858:1 96310:1 98095:1 99531:1 99867:1 100609:1 #
-0.00030299091961851751025544543516332 17:1 28:1 30:1 10574:1 10575:1 10582:1 11328:1 13347:1 14407:1 15456:1 17960:1 18632:1 25906:1 28389:1 39856:1 41290:1 42061:1 42123:1 44322:1 44388:1 44759:1 44835:1 44877:1 45103:1 45662:1 45810:1 49907:1 50157:1 51657:1 52061:1 52237:1 57224:1 57237:1 57518:1 57652:1 57939:1 59423:1 60809:1 61823:1 63298:1 64008:1 64561:1 64785:1 65190:1 65685:1 65849:1 66658:1 67106:1 67598:1 68480:1 80990:1 82355:1 83962:1 84130:1 85154:1 88706:1 89492:1 90426:1 90470:1 91095:1 92416:1 100609:1 100642:1 #
0.0053935660842229808317749295554222 30:1 10573:1 10575:1 15456:1 19729:1 32759:1 36738:1 38710:1 53339:1 54662:1 90470:1 91095:1 97629:1 98731:1 100642:1 #
0.00015842232050881064914921170228013 28:1 29:1 10499:1 10573:1 10575:1 12334:1 12371:1 16027:1 21602:1 28109:1 30078:1 33071:1 33977:1 46465:1 46550:1 47316:1 47705:1 48864:1 49185:1 51779:1 52061:1 55081:1 56155:1 56932:1 60771:1 63067:1 65130:1 65685:1 67106:1 68247:1 78784:1 79395:1 81266:1 87052:1 90048:1 90470:1 94621:1 98095:1 98731:1 100609:1 #
0.00031374875717314675092201037287509 22:1 23:1 28:1 29:1 30:1 31:1 5245:1 10494:1 10573:1 10575:1 10582:1 10849:1 12240:1 12334:1 13243:1 13860:1 14428:1 15888:1 16812:1 16845:1 18014:1 18179:1 21602:1 22251:1 22264:1 24080:1 26080:1 28704:1 29601:1 29753:1 29888:1 34142:1 34788:1 36103:1 39127:1 41279:1 41848:1 42061:1 43533:1 43851:1 44498:1 45705:1 46929:1 47110:1 47175:1 47275:1 47953:1 48115:1 48390:1 48864:1 49907:1 50640:1 52061:1 52237:1 53116:1 53342:1 53826:1 56155:1 57652:1 57693:1 58167:1 59018:1 59310:1 59554:1 60028:1 60402:1 60771:1 63403:1 63439:1 63593:1 64358:1 65441:1 68581:1 68727:1 68976:1 70787:1 73916:1 74199:1 74201:1 74783:1 74944:1 79381:1 79468:1 80667:1 80871:1 81547:1 81564:1 82020:1 83304:1 84101:1 84265:1 85231:1 86533:1 89053:1 90448:1 90470:1 90543:1 90720:1 90788:1 91095:1 91439:1 91507:1 91637:1 91653:1 92585:1 94621:1 94831:1 97313:1 97419:1 97629:1 97732:1 97910:1 98095:1 98134:1 99335:1 99531:1 100154:1 100328:1 100338:1 100609:1 100642:1 100673:1 #
-3.5494311412919969553163290765241e-05 18:1 23:1 24:1 25:1 28:1 30:1 31:1 2274:1 10494:1 10495:1 10574:1 10575:1 10582:1 11241:1 12668:1 12743:1 14434:1 14483:1 14917:1 15456:1 15888:1 17618:1 19062:1 19696:1 21882:1 22290:1 22591:1 23276:1 23794:1 24276:1 26080:1 26374:1 26990:1 28033:1 28102:1 30375:1 31573:1 31653:1 31654:1 31692:1 32116:1 33377:1 34788:1 36069:1 36091:1 36198:1 36916:1 37792:1 40314:1 40987:1 41929:1 48352:1 48390:1 49244:1 50626:1 51053:1 52886:1 54846:1 56853:1 57387:1 57867:1 58642:1 58643:1 59394:1 59739:1 60850:1 60943:1 61243:1 62627:1 63330:1 63331:1 63346:1 63751:1 64941:1 65015:1 65685:1 66635:1 69513:1 69869:1 71670:1 72834:1 75850:1 77080:1 78159:1 78372:1 79964:1 80871:1 80899:1 80936:1 81032:1 81305:1 82221:1 82648:1 82972:1 84217:1 84367:1 85180:1 87692:1 88026:1 92265:1 92331:1 92641:1 92642:1 92904:1 93672:1 93673:1 95820:1 96772:1 99531:1 #
6.8406709409356218740301536218595e-05 17:1 23:1 28:1 30:1 10573:1 10575:1 10849:1 13860:1 15456:1 18245:1 20988:1 21750:1 22264:1 26080:1 26174:1 29753:1 32352:1 41279:1 42061:1 47175:1 52061:1 52237:1 53116:1 57321:1 57586:1 61133:1 67598:1 68053:1 68581:1 69207:1 71427:1 72046:1 72351:1 73859:1 76835:1 78052:1 80871:1 81511:1 82935:1 84232:1 85154:1 85551:1 87227:1 87467:1 90470:1 90788:1 91439:1 91478:1 93192:1 94621:1 97175:1 97781:1 98464:1 100609:1 100642:1 #
-0.00073708601406207861946040527101331 18:1 19:1 28:1 29:1 30:1 773:1 2514:1 2909:1 3482:1 4375:1 4401:1 7527:1 8526:1 9424:1 10494:1 10497:1 10574:1 10575:1 10582:1 10983:1 11565:1 12992:1 13860:1 15069:1 15888:1 20275:1 22111:1 23483:1 25254:1 27675:1 27927:1 28737:1 36098:1 36919:1 40679:1 42061:1 42508:1 46318:1 46929:1 48864:1 49185:1 49975:1 51552:1 52061:1 57580:1 58552:1 60398:1 61265:1 61433:1 61718:1 61811:1 64358:1 66032:1 66846:1 67749:1 68053:1 68553:1 72046:1 73735:1 75143:1 77101:1 77540:1 78152:1 78631:1 79478:1 85427:1 87052:1 90428:1 90470:1 90720:1 91439:1 94493:1 94494:1 94831:1 97419:1 97545:1 97689:1 98707:1 99335:1 100609:1 100642:1 #
0.00037727547889942640363045156526312 17:1 23:1 24:1 25:1 26:1 28:1 29:1 30:1 31:1 10494:1 10573:1 10575:1 10789:1 10849:1 11076:1 11148:1 12532:1 12536:1 12538:1 13860:1 14219:1 14430:1 14446:1 15069:1 15456:1 15576:1 21206:1 21207:1 21750:1 22264:1 23991:1 24070:1 26080:1 26350:1 26365:1 27001:1 28704:1 31616:1 31750:1 32532:1 34932:1 38418:1 39363:1 39413:1 39491:1 39500:1 39720:1 40266:1 40408:1 41170:1 41279:1 41848:1 41949:1 42000:1 42061:1 42306:1 43533:1 43556:1 43934:1 44220:1 45106:1 46495:1 46785:1 48203:1 48357:1 49520:1 49604:1 49907:1 51072:1 51076:1 51421:1 52061:1 52237:1 53366:1 53369:1 56549:1 57580:1 61013:1 61167:1 61440:1 63148:1 63678:1 65147:1 65190:1 67598:1 67674:1 68053:1 68553:1 68581:1 68976:1 73913:1 74643:1 75911:1 75928:1 76124:1 76804:1 77427:1 80136:1 80871:1 82286:1 82437:1 82950:1 83015:1 83016:1 84378:1 84852:1 86723:1 86728:1 87159:1 87921:1 90428:1 90448:1 90470:1 91439:1 91478:1 91702:1 94621:1 94911:1 95618:1 97629:1 97689:1 97855:1 98134:1 98731:1 99076:1 99133:1 100609:1 100642:1 #
-0.00017856441851621526143573115419372 22:1 23:1 24:1 25:1 28:1 30:1 31:1 10494:1 10574:1 10575:1 10582:1 12992:1 13642:1 13860:1 15069:1 15312:1 15456:1 15465:1 15559:1 15734:1 15735:1 15888:1 16096:1 17832:1 21750:1 22440:1 23600:1 23938:1 25267:1 26472:1 26779:1 26961:1 32096:1 35401:1 36362:1 36521:1 37761:1 38091:1 38593:1 38702:1 41279:1 42412:1 43533:1 45961:1 46227:1 47266:1 47341:1 47782:1 48444:1 49185:1 49699:1 49907:1 50200:1 51706:1 52061:1 52237:1 54350:1 56337:1 56682:1 57149:1 58213:1 58680:1 59148:1 59258:1 60072:1 60771:1 61015:1 62682:1 64131:1 64358:1 66063:1 66435:1 66727:1 67106:1 67162:1 68553:1 69760:1 70080:1 70787:1 72046:1 73627:1 76615:1 77693:1 78258:1 78438:1 80871:1 80978:1 82994:1 83326:1 84346:1 85377:1 85551:1 87448:1 88067:1 89557:1 89934:1 90448:1 90470:1 90720:1 91439:1 91804:1 91836:1 92149:1 92782:1 94852:1 97629:1 98177:1 98464:1 98490:1 98731:1 100609:1 100642:1 #
0.0013118631886955714558468111263778 23:1 28:1 30:1 10495:1 10573:1 10575:1 10582:1 10789:1 13516:1 13860:1 15888:1 17832:1 20501:1 20781:1 22264:1 26183:1 26354:1 26402:1 29405:1 31067:1 31601:1 33768:1 34932:1 35432:1 36657:1 36769:1 36840:1 36919:1 36935:1 47215:1 49907:1 50640:1 50886:1 52061:1 52237:1 52308:1 53826:1 54347:1 61893:1 63279:1 63381:1 63384:1 64811:1 65147:1 65190:1 66044:1 66174:1 67106:1 67674:1 73506:1 75945:1 77094:1 78807:1 79468:1 80871:1 85154:1 85944:1 90448:1 90470:1 91439:1 93901:1 94621:1 94858:1 97629:1 98166:1 98464:1 98731:1 99133:1 100609:1 100642:1 #
-0.0023213576999724606572672591653372 23:1 28:1 30:1 10499:1 10574:1 10575:1 10582:1 11920:1 14736:1 17230:1 17832:1 18014:1 26355:1 28277:1 28489:1 29476:1 41178:1 46785:1 47110:1 47953:1 48864:1 52237:1 56155:1 60771:1 62885:1 63678:1 64131:1 64811:1 72046:1 77768:1 84265:1 85454:1 85551:1 86763:1 89262:1 89265:1 90435:1 90693:1 91439:1 94621:1 95618:1 97629:1 97771:1 98100:1 98177:1 99210:1 100609:1 #
-0.00064878746785144460456490334010482 10494:1 10574:1 10575:1 11685:1 13298:1 24024:1 24947:1 25080:1 25752:1 25953:1 27714:1 29608:1 34526:1 38874:1 43855:1 44390:1 48864:1 55081:1 59651:1 63099:1 64891:1 76804:1 82476:1 87427:1 96408:1 97312:1 98095:1 100609:1 #
-0.0003492644205470063533194857718911 23:1 25:1 30:1 10494:1 10499:1 10574:1 10575:1 11482:1 11565:1 11786:1 12055:1 12963:1 13206:1 13366:1 13418:1 13860:1 14644:1 15179:1 16282:1 16395:1 16687:1 17917:1 18203:1 19293:1 20405:1 20921:1 21244:1 21466:1 22264:1 22355:1 22499:1 24362:1 24845:1 25058:1 25395:1 26127:1 28820:1 29512:1 30070:1 30386:1 30466:1 31087:1 34860:1 34878:1 38719:1 39135:1 39770:1 39888:1 42075:1 44015:1 44804:1 45401:1 46929:1 47729:1 49973:1 50128:1 52237:1 56932:1 58633:1 58798:1 59423:1 59915:1 61433:1 61824:1 61998:1 62679:1 64834:1 64928:1 65129:1 67598:1 68128:1 68727:1 69818:1 70424:1 70462:1 70894:1 71154:1 73797:1 75242:1 76420:1 77167:1 77531:1 79493:1 79971:1 80871:1 81393:1 82114:1 85154:1 85424:1 87938:1 89142:1 90470:1 90720:1 90769:1 91588:1 97195:1 97463:1 97523:1 98464:1 98731:1 100609:1 #
0.0041460266778682768398778257790127 20:1 30:1 5245:1 10573:1 10575:1 13860:1 25385:1 42343:1 62033:1 65015:1 65935:1 67106:1 67212:1 68553:1 77095:1 79460:1 81088:1 90470:1 97629:1 #
0.0064871583541694331775939730277969 17:1 6095:1 10573:1 10575:1 26909:1 49907:1 63057:1 65359:1 71463:1 90402:1 #
-0.0091427984194730888001245716623089 10574:1 10575:1 #
-0.0091427984194730888001245716623089 10574:1 10575:1 #
0.0027299549682368922862152338382202 17:1 10573:1 10575:1 12735:1 27088:1 60740:1 67598:1 74364:1 91439:1 100642:1 #
-0.00040129805970753656876176540535539 30:1 10574:1 10575:1 10849:1 10968:1 12651:1 17299:1 21697:1 21720:1 28555:1 29189:1 33375:1 33849:1 35311:1 35741:1 37118:1 37141:1 38352:1 39623:1 39775:1 41667:1 43598:1 44219:1 45185:1 46413:1 47603:1 48874:1 49212:1 53357:1 53638:1 54891:1 55513:1 58612:1 58632:1 61599:1 61650:1 65612:1 66356:1 66569:1 67106:1 68469:1 68524:1 71518:1 73158:1 76111:1 76113:1 80383:1 80524:1 84453:1 84688:1 84850:1 84987:1 86830:1 90470:1 93535:1 93553:1 93572:1 95076:1 95449:1 96519:1 96926:1 98866:1 99314:1 100525:1 100642:1 100844:1 #
0.00013853648682230688916547367561805 18:1 19:1 20:1 22:1 24:1 25:1 26:1 28:1 29:1 30:1 31:1 32:1 33:1 225:1 773:1 774:1 775:1 1323:1 1390:1 1697:1 1701:1 2275:1 2277:1 2291:1 3144:1 3331:1 3374:1 3484:1 4043:1 4285:1 4468:1 5245:1 5344:1 5603:1 6095:1 6705:1 7457:1 8160:1 8842:1 9281:1 9502:1 9545:1 9728:1 10494:1 10572:1 10573:1 10575:1 10580:1 10582:1 11202:1 11550:1 12187:1 12217:1 12348:1 13860:1 14353:1 14407:1 14735:1 15069:1 15888:1 15889:1 15954:1 17832:1 17934:1 21383:1 21564:1 21669:1 21833:1 22599:1 22794:1 23276:1 23915:1 25257:1 26080:1 26537:1 26993:1 27464:1 28203:1 29407:1 30143:1 30231:1 30363:1 30433:1 31076:1 31745:1 32314:1 32386:1 32826:1 32830:1 32908:1 34150:1 34156:1 34601:1 36098:1 36492:1 36521:1 37261:1 40747:1 40908:1 41279:1 41653:1 42061:1 43031:1 44745:1 46084:1 46120:1 46148:1 46318:1 49185:1 50061:1 50640:1 51232:1 51827:1 52061:1 52266:1 53951:1 54100:1 54512:1 55758:1 57807:1 59573:1 60446:1 61193:1 61433:1 61713:1 61800:1 62735:1 62977:1 63381:1 63550:1 64358:1 65065:1 65147:1 65251:1 65352:1 65685:1 66012:1 66427:1 67106:1 67162:1 67598:1 67618:1 67845:1 68005:1 68053:1 68113:1 69159:1 69207:1 69220:1 69286:1 69412:1 69784:1 70159:1 70509:1 70664:1 71266:1 72046:1 72194:1 73469:1 73756:1 73859:1 74042:1 74049:1 74165:1 74248:1 74635:1 75797:1 75911:1 75974:1 76210:1 77062:1 77301:1 77540:1 77690:1 78142:1 78438:1 78929:1 79111:1 79906:1 80076:1 80388:1 80785:1 80871:1 81095:1 81131:1 82209:1 82770:1 82798:1 82900:1 82950:1 82958:1 83706:1 84270:1 84297:1 84861:1 85280:1 85649:1 85650:1 85830:1 87697:1 87764:1 88325:1 89002:1 89942:1 90428:1 90470:1 90720:1 91095:1 91439:1 91804:1 93229:1 93651:1 94213:1 94621:1 94831:1 94911:1 95179:1 95829:1 96173:1 96212:1 97077:1 97187:1 97629:1 98464:1 98561:1 98731:1 99624:1 100609:1 100642:1 100755:1 101254:1 #
0.0022034756505807445367550734260931 28:1 31:1 34:1 1127:1 5247:1 6099:1 8842:1 9627:1 10494:1 10497:1 10573:1 10575:1 13556:1 18881:1 21750:1 27207:1 30252:1 36941:1 48568:1 50153:1 80076:1 90970:1 99012:1 #
-2.426969207261925895804943742462e-06 17:1 20:1 21:1 23:1 24:1 25:1 28:1 29:1 30:1 31:1 32:1 225:1 461:1 773:1 962:1 1030:1 1125:1 1541:1 1542:1 1697:1 1837:1 2038:1 2184:1 2185:1 2860:1 2873:1 3020:1 3143:1 3374:1 3376:1 3484:1 3718:1 4043:1 4044:1 4451:1 4633:1 5246:1 6073:1 6095:1 6718:1 6872:1 7061:1 7062:1 7248:1 7968:1 9501:1 9849:1 10494:1 10572:1 10574:1 10575:1 10582:1 10774:1 11007:1 11039:1 11202:1 11271:1 11353:1 11386:1 11437:1 11546:1 11565:1 12187:1 12219:1 12371:1 12373:1 12543:1 13192:1 13193:1 13232:1 13243:1 13282:1 13415:1 13497:1 13738:1 13860:1 13929:1 14129:1 14145:1 14194:1 14281:1 14282:1 14407:1 14785:1 14788:1 15069:1 15285:1 15456:1 15698:1 15699:1 15888:1 16506:1 17514:1 17832:1 18014:1 18179:1 18323:1 18685:1 18995:1 19749:1 20148:1 21238:1 21276:1 21564:1 21750:1 22264:1 22440:1 22471:1 23131:1 23339:1 23842:1 24920:1 25285:1 26080:1 26104:1 26365:1 26402:1 26458:1 26537:1 26760:1 26848:1 27370:1 27392:1 27489:1 27490:1 27497:1 27585:1 27587:1 27675:1 27682:1 27761:1 28053:1 28705:1 29274:1 29405:1 29407:1 29640:1 29753:1 30122:1 30231:1 30299:1 30977:1 31126:1 31367:1 31565:1 31870:1 31887:1 32252:1 32643:1 33070:1 33164:1 33165:1 33545:1 33551:1 34018:1 34551:1 34684:1 34788:1 34795:1 34871:1 35409:1 35432:1 35545:1 35626:1 35960:1 36098:1 36521:1 36601:1 36718:1 37081:1 37863:1 38186:1 38191:1 38367:1 38385:1 38418:1 38439:1 38460:1 38530:1 38664:1 38670:1 38820:1 38860:1 38977:1 39191:1 39193:1 39491:1 39500:1 39501:1 39784:1 40369:1 40414:1 40537:1 40679:1 41017:1 41258:1 41279:1 41364:1 41368:1 41550:1 41570:1 41608:1 42061:1 42330:1 42355:1 42417:1 42469:1 42635:1 42643:1 43307:1 43411:1 44047:1 45095:1 45103:1 45106:1 45113:1 45114:1 45271:1 45705:1 46121:1 46217:1 46220:1 46227:1 46503:1 47242:1 47265:1 47824:1 49098:1 49778:1 49907:1 49975:1 50058:1 50084:1 50153:1 50157:1 50587:1 50640:1 50787:1 51242:1 51244:1 51246:1 51335:1 51342:1 51706:1 51712:1 51778:1 52061:1 52237:1 52308:1 53766:1 53826:1 55094:1 56155:1 56705:1 56990:1 57668:1 58222:1 58448:1 58601:1 59077:1 59243:1 59562:1 59750:1 59756:1 59765:1 59862:1 59939:1 59941:1 60240:1 60398:1 60677:1 60802:1 62033:1 62216:1 62672:1 63343:1 63836:1 64358:1 65147:1 65190:1 65251:1 65685:1 66044:1 66427:1 66583:1 66749:1 66846:1 67106:1 67140:1 67266:1 67598:1 67700:1 67814:1 67839:1 67927:1 68053:1 68113:1 68461:1 68464:1 68480:1 68646:1 68727:1 68740:1 68986:1 69079:1 69447:1 69786:1 70195:1 70196:1 70622:1 70783:1 71266:1 71622:1 71820:1 71908:1 71926:1 71932:1 71939:1 71993:1 72194:1 72593:1 72793:1 72828:1 72938:1 73018:1 73195:1 73532:1 73614:1 73619:1 74116:1 74122:1 74125:1 74138:1 74199:1 74206:1 74210:1 74294:1 74304:1 74476:1 74634:1 74635:1 74645:1 75061:1 75212:1 75928:1 76343:1 76637:1 76774:1 76804:1 77105:1 77729:1 77977:1 77997:1 78189:1 78596:1 78732:1 78791:1 78855:1 78877:1 78886:1 79025:1 79080:1 79601:1 80871:1 82383:1 82405:1 82621:1 82735:1 82950:1 82958:1 83309:1 84087:1 84180:1 84210:1 85252:1 85667:1 85670:1 86764:1 86834:1 87494:1 87618:1 87732:1 87785:1 87809:1 87921:1 88322:1 88904:1 89541:1 89780:1 90448:1 90470:1 90513:1 90593:1 90598:1 90647:1 90708:1 90720:1 90785:1 90796:1 90820:1 90968:1 91086:1 91439:1 91804:1 92426:1 92429:1 92948:1 93824:1 93901:1 94493:1 94506:1 94637:1 94639:1 94880:1 94890:1 95006:1 95368:1 95482:1 95488:1 95491:1 95748:1 96447:1 96730:1 97390:1 97419:1 97771:1 97868:1 98166:1 98464:1 98731:1 98749:1 98750:1 98999:1 99018:1 99067:1 99133:1 99210:1 99531:1 100328:1 100338:1 100592:1 100742:1 101623:1 #
-0.00071205103000990461244862350653761 10574:1 10575:1 12217:1 13681:1 17221:1 25981:1 34381:1 34796:1 34914:1 41279:1 42306:1 42696:1 43859:1 44390:1 46834:1 50992:1 60609:1 66057:1 72772:1 74576:1 80627:1 87527:1 88643:1 90852:1 91637:1 95835:1 #
0.00083128788335292812944343765479971 28:1 30:1 10573:1 10575:1 16027:1 24913:1 38767:1 40400:1 47782:1 58411:1 67598:1 72046:1 78400:1 78521:1 90470:1 98731:1 100609:1 #
-0.00063806791275410838087944753738157 2274:1 10574:1 10575:1 25006:1 26572:1 65147:1 72020:1 100642:1 #
0.0011094769588112416390524028741993 17:1 23:1 24:1 25:1 26:1 28:1 29:1 30:1 31:1 32:1 773:1 1697:1 1837:1 2273:1 2274:1 3143:1 3374:1 4044:1 5245:1 6705:1 10494:1 10499:1 10572:1 10573:1 10575:1 10582:1 10849:1 11069:1 11381:1 11386:1 11908:1 11909:1 13123:1 13232:1 13860:1 14407:1 14696:1 15058:1 15069:1 15456:1 15888:1 16032:1 17261:1 17536:1 17832:1 18056:1 22264:1 22439:1 23922:1 23938:1 24509:1 25254:1 26080:1 26300:1 26402:1 26536:1 27410:1 28355:1 29405:1 30143:1 30433:1 30523:1 30577:1 32512:1 33250:1 33377:1 33617:1 33849:1 33868:1 34198:1 34788:1 34932:1 36521:1 37792:1 38218:1 38439:1 38640:1 39783:1 40258:1 40880:1 41279:1 41551:1 41848:1 42061:1 42287:1 43533:1 45349:1 46227:1 46318:1 48390:1 48543:1 48596:1 49049:1 49185:1 49907:1 49975:1 50058:1 50260:1 51340:1 51421:1 52061:1 52237:1 53791:1 53793:1 53951:1 56187:1 57762:1 57970:1 59310:1 60398:1 60809:1 61167:1 61274:1 61433:1 62216:1 62735:1 63279:1 63678:1 64811:1 65147:1 65190:1 65685:1 66044:1 66174:1 66435:1 67106:1 67140:1 67152:1 67598:1 67674:1 67700:1 68113:1 68553:1 70075:1 70653:1 71266:1 72046:1 73608:1 73627:1 75911:1 76804:1 79575:1 80871:1 82074:1 82579:1 82950:1 82958:1 84270:1 84385:1 85280:1 85454:1 86723:1 87732:1 89053:1 89164:1 89230:1 89934:1 90448:1 90470:1 90543:1 90586:1 90720:1 91439:1 91478:1 91653:1 91689:1 92490:1 92791:1 93192:1 94858:1 94911:1 95896:1 96454:1 97556:1 97629:1 97689:1 97747:1 98095:1 98349:1 98731:1 99133:1 99531:1 100609:1 100642:1 #
8.4405174193722843777216990890366e-05 2:1 17:1 22:1 23:1 24:1 25:1 27:1 28:1 29:1 30:1 31:1 33:1 348:1 682:1 1697:1 2038:1 2277:1 3718:1 7062:1 8842:1 10438:1 10494:1 10499:1 10572:1 10573:1 10575:1 10582:1 10849:1 11071:1 11148:1 11379:1 11565:1 11889:1 11908:1 11914:1 12992:1 13243:1 13738:1 13796:1 13860:1 14407:1 14684:1 14686:1 14817:1 15069:1 15456:1 15606:1 15616:1 15630:1 15640:1 15756:1 15888:1 16845:1 17832:1 17921:1 17926:1 18014:1 18122:1 18323:1 18881:1 18892:1 19593:1 20201:1 20782:1 21564:1 21602:1 21658:1 21683:1 21750:1 22264:1 22634:1 22827:1 23483:1 23516:1 23521:1 23842:1 24049:1 24050:1 24438:1 24473:1 24839:1 25254:1 26008:1 26080:1 26130:1 26245:1 26320:1 26324:1 26397:1 26549:1 26654:1 26658:1 26660:1 26870:1 27334:1 27415:1 27464:1 27675:1 27679:1 27916:1 28277:1 28279:1 28389:1 29407:1 29476:1 29479:1 29495:1 30122:1 30252:1 30433:1 31071:1 31126:1 31350:1 31646:1 32188:1 32193:1 32256:1 32259:1 32523:1 33075:1 33377:1 33478:1 33849:1 33868:1 33870:1 34342:1 34395:1 34448:1 34715:1 34788:1 34795:1 34851:1 34901:1 35254:1 35256:1 35433:1 36098:1 36350:1 36521:1 36531:1 36930:1 37326:1 37727:1 38172:1 38186:1 38461:1 38508:1 38706:1 38710:1 39247:1 39414:1 39484:1 39821:1 39828:1 40521:1 41098:1 41100:1 41101:1 41279:1 41339:1 42061:1 42287:1 42454:1 43263:1 43967:1 44220:1 44498:1 45507:1 46048:1 46059:1 46227:1 46269:1 46318:1 46465:1 46505:1 46929:1 47341:1 47782:1 48074:1 48077:1 48145:1 48152:1 48203:1 48215:1 48390:1 48939:1 49062:1 49066:1 49111:1 49185:1 49520:1 49907:1 49975:1 50061:1 50062:1 50407:1 50517:1 50640:1 50686:1 51227:1 51468:1 51552:1 52061:1 52237:1 52609:1 52770:1 52857:1 53174:1 53481:1 53667:1 53826:1 54011:1 54048:1 54741:1 54757:1 55731:1 56504:1 56549:1 56587:1 56911:1 56932:1 56953:1 56990:1 57478:1 57618:1 58213:1 58222:1 59082:1 59225:1 59310:1 59355:1 59363:1 59373:1 59428:1 59437:1 59562:1 59566:1 59765:1 59939:1 60398:1 60402:1 60697:1 60776:1 61193:1 61433:1 61733:1 61935:1 62215:1 63148:1 63279:1 63678:1 63818:1 64383:1 64811:1 64813:1 65015:1 65065:1 65147:1 65190:1 65205:1 65208:1 66174:1 66177:1 66539:1 66562:1 67106:1 67126:1 67140:1 67144:1 67439:1 67598:1 67618:1 67674:1 67700:1 67847:1 67852:1 68053:1 68165:1 68480:1 68512:1 68553:1 68581:1 68727:1 69207:1 69699:1 69776:1 69858:1 71920:1 72351:1 72418:1 72647:1 73762:1 73856:1 73982:1 74001:1 74266:1 74476:1 74588:1 74641:1 74642:1 74944:1 75224:1 75911:1 76813:1 76973:1 77016:1 77109:1 77314:1 77945:1 77978:1 78057:1 78087:1 78393:1 78596:1 78727:1 78732:1 80871:1 81194:1 81545:1 82014:1 82067:1 82462:1 82669:1 82735:1 82758:1 82935:1 82950:1 82958:1 83221:1 83304:1 83388:1 83693:1 84232:1 84374:1 84861:1 84955:1 84956:1 85154:1 85280:1 85962:1 86015:1 86723:1 86728:1 86739:1 87239:1 87595:1 87785:1 87793:1 87894:1 88325:1 89053:1 89515:1 89746:1 89753:1 89780:1 89890:1 90168:1 90169:1 90186:1 90426:1 90435:1 90448:1 90470:1 90513:1 90543:1 90586:1 90624:1 90647:1 90688:1 90720:1 90785:1 90820:1 90894:1 91118:1 91439:1 91478:1 91653:1 92219:1 92294:1 93160:1 94286:1 94493:1 94621:1 94831:1 94880:1 94887:1 94911:1 94943:1 95933:1 96034:1 96447:1 97313:1 97419:1 97437:1 97545:1 97910:1 97928:1 97930:1 97960:1 98095:1 98140:1 98219:1 98270:1 98304:1 98318:1 98533:1 98731:1 98917:1 98978:1 98980:1 98984:1 99100:1 99133:1 99210:1 99335:1 99357:1 99531:1 100338:1 100609:1 100642:1 #
-8.3749648773788314126687026828222e-05 23:1 28:1 29:1 30:1 411:1 463:1 587:1 1350:1 2276:1 2867:1 6529:1 10494:1 10574:1 10575:1 10582:1 10603:1 12504:1 12680:1 12708:1 13860:1 14696:1 15613:1 16466:1 16563:1 16632:1 16986:1 17770:1 18763:1 18964:1 21210:1 21713:1 21736:1 23078:1 23182:1 23666:1 23700:1 24724:1 24964:1 24984:1 28571:1 28903:1 29128:1 29572:1 30320:1 30455:1 31986:1 32037:1 32260:1 33351:1 33929:1 34399:1 34665:1 34734:1 34754:1 34811:1 35038:1 35227:1 35572:1 37121:1 37916:1 38116:1 38285:1 39277:1 39363:1 39614:1 39634:1 39651:1 39676:1 39678:1 40537:1 40661:1 41040:1 41817:1 43921:1 44541:1 44573:1 45215:1 45312:1 45452:1 45573:1 46318:1 46785:1 46897:1 46929:1 47569:1 47728:1 48303:1 48304:1 48350:1 48669:1 48678:1 48683:1 49176:1 49951:1 51925:1 52053:1 52421:1 52427:1 52443:1 52455:1 52458:1 52788:1 53052:1 53084:1 53163:1 53244:1 53556:1 53567:1 53697:1 53926:1 53942:1 54400:1 54543:1 54965:1 54993:1 55509:1 55616:1 55664:1 55667:1 56421:1 56443:1 56470:1 56664:1 57216:1 57871:1 57884:1 58343:1 58515:1 58519:1 58899:1 58998:1 59009:1 60398:1 60832:1 61645:1 61662:1 61711:1 62672:1 63484:1 63687:1 63755:1 64081:1 64226:1 64616:1 64634:1 64683:1 65147:1 65280:1 65286:1 65347:1 65610:1 65680:1 66286:1 66288:1 66315:1 66343:1 66669:1 66691:1 67102:1 67106:1 67305:1 67368:1 67452:1 67700:1 67751:1 67814:1 69038:1 69054:1 69369:1 70113:1 70134:1 71019:1 71796:1 72243:1 73007:1 73111:1 73931:1 74248:1 74823:1 75113:1 75257:1 75292:1 75365:1 75398:1 75507:1 75612:1 75683:1 75685:1 75689:1 76086:1 76105:1 76115:1 76311:1 76742:1 76804:1 79624:1 79687:1 79704:1 79706:1 79741:1 79765:1 79822:1 80498:1 80788:1 80839:1 80863:1 82191:1 82617:1 83651:1 83817:1 84908:1 86193:1 88833:1 88848:1 89047:1 89582:1 89583:1 90470:1 90883:1 91298:1 91338:1 91356:1 91439:1 91966:1 93109:1 93156:1 93213:1 93302:1 93347:1 93438:1 93529:1 93649:1 93715:1 93717:1 93901:1 94570:1 94750:1 95085:1 95118:1 95144:1 95145:1 95616:1 95635:1 95990:1 96025:1 96573:1 96675:1 96943:1 96954:1 96957:1 97001:1 97026:1 97076:1 97326:1 97629:1 98021:1 98309:1 98793:1 99215:1 99274:1 99621:1 99676:1 99678:1 99771:1 99794:1 99859:1 100080:1 100086:1 100099:1 100116:1 100318:1 100462:1 100479:1 100489:1 100526:1 100558:1 100560:1 100609:1 100642:1 100754:1 100763:1 100919:1 101030:1 101033:1 101039:1 101040:1 101169:1 101200:1 101326:1 101562:1 #
0.0006263676827607008021012169329822 18:1 20:1 24:1 25:1 28:1 29:1 30:1 34:1 773:1 2274:1 4043:1 6095:1 7061:1 9502:1 10494:1 10573:1 10575:1 10582:1 11069:1 12362:1 12992:1 13555:1 13860:1 14217:1 14256:1 14407:1 14578:1 15069:1 15756:1 16466:1 16624:1 17252:1 17832:1 18014:1 18122:1 18557:1 20972:1 21602:1 21750:1 22264:1 22373:1 22852:1 25385:1 26654:1 28277:1 29753:1 30186:1 30433:1 33377:1 34848:1 36098:1 36103:1 36111:1 36601:1 37659:1 39363:1 39414:1 39803:1 40521:1 41279:1 41696:1 42061:1 42125:1 42573:1 43229:1 44366:1 46201:1 46318:1 46329:1 46807:1 48864:1 49855:1 49907:1 54083:1 54757:1 56306:1 57190:1 60252:1 60398:1 62137:1 63164:1 63550:1 64131:1 64195:1 65849:1 66044:1 67106:1 67598:1 69232:1 69776:1 71150:1 71266:1 72046:1 72359:1 73414:1 73756:1 74122:1 74342:1 74634:1 76020:1 77094:1 77484:1 77690:1 77693:1 79468:1 79575:1 79590:1 79911:1 84861:1 85154:1 85280:1 85427:1 86660:1 86768:1 87508:1 88325:1 89002:1 89012:1 90470:1 91095:1 91439:1 94288:1 94852:1 94864:1 94911:1 95896:1 97419:1 97629:1 97781:1 98464:1 98731:1 98757:1 99210:1 100609:1 100642:1 #
0.00047184360408361657266557154244424 17:1 18:1 23:1 26:1 28:1 29:1 30:1 31:1 773:1 2142:1 2274:1 2291:1 3036:1 4043:1 5245:1 5892:1 6261:1 8759:1 9403:1 10494:1 10495:1 10572:1 10573:1 10575:1 10580:1 10582:1 11565:1 11791:1 11914:1 12992:1 13325:1 13738:1 13860:1 14407:1 15069:1 15456:1 15758:1 15888:1 16284:1 16338:1 16389:1 17832:1 17921:1 18179:1 20168:1 20549:1 20553:1 20782:1 21750:1 23383:1 23387:1 25254:1 26218:1 26245:1 27464:1 27586:1 30124:1 30231:1 30404:1 32516:1 33075:1 33377:1 34788:1 34851:1 35290:1 35297:1 36091:1 36919:1 36926:1 37551:1 38319:1 38383:1 38553:1 41170:1 41171:1 41279:1 41594:1 41993:1 42061:1 42318:1 43284:1 44835:1 46318:1 47725:1 47922:1 47953:1 48011:1 48390:1 49185:1 49601:1 49907:1 50240:1 50640:1 51101:1 51118:1 51335:1 52493:1 53364:1 56500:1 56985:1 57321:1 57472:1 57580:1 57762:1 57970:1 59156:1 59310:1 59332:1 59373:1 59818:1 60398:1 61013:1 61433:1 63148:1 64358:1 65205:1 66044:1 66819:1 67106:1 67598:1 68053:1 68165:1 68553:1 68727:1 70057:1 71266:1 72046:1 72828:1 73888:1 74138:1 74377:1 74608:1 74634:1 74635:1 77095:1 77101:1 77690:1 77728:1 78152:1 78153:1 78391:1 78707:1 78763:1 81233:1 82437:1 82780:1 82942:1 82958:1 83244:1 84374:1 84378:1 86756:1 87585:1 87758:1 87785:1 87786:1 87996:1 88467:1 90315:1 90318:1 90448:1 90470:1 90513:1 90624:1 90647:1 90720:1 91095:1 91439:1 91446:1 92050:1 92512:1 93192:1 94260:1 94493:1 94831:1 94911:1 94960:1 94974:1 96454:1 97629:1 98137:1 98155:1 98166:1 98270:1 98304:1 98464:1 98731:1 99133:1 99210:1 99531:1 100328:1 100609:1 100642:1 #
-0.00085774744690776390070030554824143 17:1 30:1 31:1 3235:1 8313:1 10494:1 10574:1 10575:1 16218:1 19220:1 21373:1 26080:1 28344:1 38383:1 42011:1 47719:1 48390:1 57366:1 57420:1 60971:1 67598:1 71660:1 84887:1 93382:1 94433:1 99531:1 #
-1.4456515716380772054727721354084e-05 28:1 30:1 10494:1 10495:1 10499:1 10574:1 10575:1 10582:1 13860:1 15822:1 21750:1 23842:1 26204:1 28277:1 34551:1 39378:1 42252:1 45705:1 46162:1 46465:1 46550:1 47341:1 48203:1 48864:1 49907:1 50214:1 52237:1 52308:1 57323:1 57335:1 58734:1 59077:1 63573:1 65685:1 67106:1 67140:1 68553:1 72785:1 74116:1 76527:1 76804:1 79025:1 82222:1 83055:1 83653:1 85454:1 85617:1 85660:1 87194:1 87921:1 90470:1 90720:1 91118:1 94284:1 95237:1 97868:1 98538:1 98731:1 99067:1 #
-0.0035970627632976601498193680583881 30:1 31:1 3022:1 10494:1 10574:1 10575:1 16273:1 30375:1 48352:1 48390:1 56898:1 62508:1 82570:1 99531:1 #
-7.4808547653445263588001257204496e-06 27:1 10574:1 10575:1 11346:1 11515:1 11937:1 12217:1 13087:1 13665:1 13815:1 14577:1 14974:1 15194:1 16647:1 18551:1 20646:1 21173:1 21443:1 23581:1 25455:1 25632:1 27651:1 28657:1 29034:1 29800:1 30645:1 32544:1 32894:1 33506:1 33994:1 35530:1 38330:1 38418:1 41732:1 43793:1 44704:1 46121:1 46895:1 50514:1 50587:1 50746:1 54916:1 55920:1 56995:1 59723:1 60257:1 62884:1 65147:1 75353:1 83182:1 88758:1 90228:1 91535:1 #
0.0089591789357100944102274553415555 17:1 29:1 30:1 10494:1 10573:1 10575:1 18016:1 42508:1 61433:1 63493:1 68245:1 #
-0.00040156470129856553126501683692595 28:1 29:1 30:1 1190:1 2867:1 3718:1 5975:1 6095:1 10494:1 10572:1 10574:1 10575:1 10576:1 10578:1 10580:1 10581:1 10582:1 12285:1 12364:1 12379:1 13622:1 13860:1 13943:1 14774:1 15456:1 15910:1 16344:1 17077:1 17832:1 18040:1 18141:1 18319:1 18881:1 20028:1 20309:1 20346:1 21564:1 21602:1 22008:1 23315:1 23848:1 24944:1 26080:1 26436:1 27441:1 28053:1 29753:1 29816:1 34851:1 35447:1 35509:1 35693:1 35773:1 36738:1 39414:1 39491:1 39670:1 39731:1 39992:1 40534:1 41983:1 42061:1 43411:1 43818:1 44605:1 44835:1 46318:1 46393:1 47922:1 51072:1 52237:1 54974:1 57316:1 58582:1 58806:1 59355:1 59423:1 59794:1 60771:1 60874:1 60912:1 61433:1 61438:1 61441:1 61562:1 61893:1 61935:1 63148:1 63678:1 64303:1 65430:1 66612:1 67106:1 67598:1 67674:1 68026:1 68245:1 68672:1 69623:1 69699:1 70915:1 70917:1 71171:1 71893:1 72194:1 74122:1 75040:1 75900:1 75988:1 76804:1 81213:1 81874:1 82396:1 82629:1 82770:1 82958:1 85076:1 87052:1 87732:1 87991:1 88207:1 89738:1 90470:1 90647:1 90820:1 91280:1 91421:1 91439:1 91936:1 92514:1 94621:1 95179:1 95327:1 95770:1 96034:1 97960:1 98177:1 98464:1 99076:1 99651:1 100320:1 100380:1 100769:1 101625:1 #
-0.0012948243287453720454238670356517 28:1 29:1 348:1 463:1 2038:1 2867:1 5443:1 5798:1 10494:1 10574:1 10575:1 27883:1 30523:1 41973:1 46903:1 52061:1 69241:1 90470:1 98397:1 98731:1 #
-0.00029724102379065267098140479262725 17:1 18:1 20:1 23:1 24:1 25:1 28:1 29:1 30:1 31:1 32:1 33:1 775:1 1029:1 1190:1 1275:1 1350:1 2142:1 2258:1 2274:1 2277:1 2860:1 2867:1 2908:1 3383:1 3475:1 4043:1 5245:1 7062:1 7588:1 8392:1 9356:1 9501:1 10494:1 10495:1 10497:1 10498:1 10499:1 10572:1 10574:1 10575:1 10582:1 10849:1 10933:1 10955:1 11058:1 11450:1 11522:1 12237:1 12992:1 13243:1 13362:1 13519:1 13523:1 13738:1 13766:1 13794:1 13801:1 13803:1 13807:1 13860:1 13968:1 14131:1 14132:1 14697:1 14994:1 15055:1 15069:1 15074:1 15363:1 15456:1 15734:1 15758:1 15888:1 16060:1 16783:1 16845:1 17514:1 17536:1 17832:1 18448:1 19407:1 19637:1 20214:1 20215:1 20988:1 21284:1 21658:1 21840:1 21846:1 22094:1 22111:1 22264:1 22631:1 23276:1 23471:1 23483:1 23516:1 23842:1 23848:1 23960:1 24070:1 24091:1 24473:1 24913:1 24932:1 25104:1 25958:1 26245:1 26324:1 26327:1 26364:1 26365:1 26402:1 26450:1 26608:1 26621:1 26654:1 27387:1 28364:1 28737:1 29489:1 30122:1 30231:1 31174:1 31194:1 31430:1 31565:1 31674:1 31746:1 32210:1 32521:1 32762:1 33377:1 33868:1 34795:1 34904:1 35404:1 36098:1 37974:1 38385:1 38396:1 38432:1 38547:1 38710:1 38906:1 38941:1 39179:1 39731:1 39757:1 40266:1 41279:1 41455:1 41456:1 41471:1 41752:1 42061:1 42321:1 42430:1 42832:1 43387:1 43391:1 43868:1 44388:1 44723:1 44835:1 45099:1 45978:1 46084:1 46318:1 46529:1 46790:1 47989:1 48174:1 48203:1 48864:1 49185:1 49604:1 49907:1 49975:1 50058:1 50059:1 50061:1 50062:1 50587:1 50640:1 51552:1 51599:1 52061:1 52237:1 52659:1 54511:1 54741:1 55090:1 56030:1 56504:1 56550:1 56553:1 57420:1 57580:1 57606:1 57970:1 57990:1 58326:1 58343:1 59018:1 59437:1 59778:1 59788:1 59791:1 60242:1 60252:1 60398:1 60433:1 61433:1 61566:1 62238:1 63148:1 63678:1 64131:1 64195:1 64686:1 65130:1 65147:1 65822:1 66044:1 66063:1 66844:1 67106:1 67598:1 67618:1 67674:1 67700:1 68053:1 68126:1 68149:1 68191:1 68480:1 68553:1 68581:1 68727:1 68976:1 69724:1 69728:1 71919:1 72046:1 72194:1 72650:1 72736:1 73004:1 73032:1 73193:1 73596:1 73602:1 74007:1 74040:1 74199:1 74206:1 74634:1 74643:1 74944:1 75142:1 75889:1 76167:1 76677:1 76774:1 77094:1 77109:1 77540:1 77635:1 77716:1 77728:1 78152:1 78391:1 78596:1 78599:1 78727:1 78732:1 79841:1 80871:1 81233:1 82437:1 82581:1 82585:1 82621:1 82710:1 83055:1 83293:1 84232:1 84529:1 84883:1 85154:1 85196:1 85280:1 85680:1 85688:1 85804:1 86756:1 86768:1 86791:1 86794:1 86834:1 87394:1 87732:1 87921:1 87996:1 88017:1 88477:1 89012:1 89214:1 89235:1 89688:1 89760:1 89777:1 90402:1 90428:1 90448:1 90470:1 90513:1 90720:1 90860:1 91095:1 91439:1 91660:1 91669:1 92095:1 92196:1 92215:1 92296:1 92454:1 92490:1 93417:1 94229:1 94764:1 94831:1 94858:1 94864:1 94869:1 94890:1 94911:1 95363:1 95473:1 95896:1 95933:1 97312:1 97419:1 97545:1 97629:1 97732:1 98095:1 98138:1 98140:1 98152:1 98166:1 98270:1 98464:1 98561:1 98731:1 98980:1 99059:1 99076:1 99085:1 99100:1 99121:1 99124:1 99341:1 99348:1 99531:1 100609:1 100642:1 #
0.0029849117827119458525031436835206 29:1 4043:1 5966:1 10573:1 10575:1 27614:1 38698:1 61757:1 69786:1 76774:1 #
0.00029846330401017484102235699516825 19:1 30:1 137:1 780:1 4200:1 4592:1 10573:1 10575:1 10849:1 16783:1 21833:1 25579:1 34961:1 41279:1 54506:1 57993:1 63111:1 69088:1 76124:1 86128:1 90435:1 90470:1 91344:1 92610:1 97629:1 99624:1 #
-0.00019681663836159125620210719187497 23:1 28:1 30:1 31:1 32:1 10494:1 10499:1 10574:1 10575:1 15456:1 15888:1 16624:1 18088:1 21564:1 24473:1 26080:1 26127:1 26461:1 27248:1 33476:1 35530:1 41279:1 46318:1 46550:1 48390:1 49907:1 52061:1 52242:1 57321:1 60941:1 64561:1 65685:1 66081:1 67106:1 67598:1 73762:1 78375:1 80048:1 80871:1 83784:1 90470:1 90586:1 90863:1 91115:1 94874:1 95331:1 98134:1 98618:1 100609:1 #
2.4633974421294157840884794796743e-05 17:1 20:1 22:1 23:1 24:1 25:1 27:1 28:1 29:1 30:1 31:1 33:1 34:1 230:1 348:1 411:1 461:1 654:1 682:1 773:1 774:1 1190:1 2274:1 2275:1 2291:1 3308:1 3374:1 3574:1 4044:1 4056:1 4747:1 5880:1 5975:1 6097:1 7227:1 8787:1 9424:1 9501:1 10494:1 10495:1 10499:1 10572:1 10573:1 10575:1 10581:1 10582:1 10856:1 11268:1 11353:1 11411:1 11437:1 11550:1 12061:1 12992:1 13025:1 13113:1 13232:1 13243:1 13516:1 13622:1 13738:1 13860:1 14129:1 14135:1 14407:1 14676:1 14788:1 14817:1 15037:1 15069:1 15399:1 16705:1 17230:1 17358:1 17408:1 17832:1 17934:1 19220:1 19976:1 21564:1 21602:1 21658:1 21716:1 21750:1 22452:1 23020:1 23119:1 23215:1 23600:1 23848:1 25579:1 26080:1 26245:1 26324:1 26355:1 26402:1 26484:1 26654:1 26780:1 26848:1 27370:1 27464:1 27909:1 27914:1 27916:1 27917:1 28053:1 28435:1 29479:1 30124:1 30231:1 30500:1 30977:1 31870:1 31873:1 32259:1 32643:1 33075:1 33318:1 33617:1 34851:1 34919:1 35113:1 35152:1 35842:1 35853:1 36098:1 36102:1 36103:1 36601:1 36840:1 37077:1 37354:1 38670:1 38850:1 38855:1 39168:1 39191:1 39589:1 41175:1 41279:1 41290:1 41426:1 41465:1 41550:1 41551:1 42061:1 42330:1 42430:1 42469:1 42898:1 43263:1 43281:1 43282:1 44339:1 45742:1 46318:1 46785:1 47242:1 48110:1 48132:1 48357:1 48390:1 49763:1 49907:1 49975:1 50058:1 50062:1 50349:1 50407:1 51258:1 51714:1 51778:1 51784:1 52061:1 52198:1 52308:1 53372:1 53525:1 55094:1 56329:1 57375:1 57638:1 57774:1 58222:1 58335:1 58966:1 59156:1 59566:1 59569:1 59964:1 60240:1 60242:1 60304:1 60398:1 60740:1 60875:1 61385:1 62018:1 62194:1 62923:1 63148:1 63172:1 63279:1 64552:1 65015:1 65065:1 65190:1 65931:1 66044:1 66085:1 66614:1 66846:1 67106:1 67126:1 67140:1 67148:1 67343:1 67598:1 67700:1 67843:1 67852:1 68005:1 68053:1 68480:1 68483:1 68727:1 68986:1 70622:1 70706:1 70795:1 71163:1 71266:1 71926:1 72194:1 72418:1 72435:1 72734:1 72869:1 73638:1 73756:1 73762:1 73861:1 73875:1 73913:1 74035:1 74138:1 74282:1 74304:1 74528:1 74635:1 74944:1 75142:1 75182:1 75754:1 75911:1 76048:1 77432:1 77540:1 77737:1 77792:1 77945:1 77977:1 77979:1 78631:1 78738:1 78886:1 78921:1 79478:1 79601:1 80667:1 80871:1 80925:1 81088:1 81137:1 82405:1 82469:1 82621:1 82950:1 82958:1 83244:1 83318:1 84087:1 84943:1 85196:1 85374:1 86756:1 86764:1 87126:1 87266:1 87367:1 87448:1 87732:1 87921:1 88198:1 88322:1 89780:1 89890:1 90186:1 90426:1 90448:1 90470:1 90586:1 90624:1 90720:1 91095:1 91439:1 91478:1 92149:1 93824:1 93901:1 94017:1 94271:1 94277:1 94621:1 94864:1 94880:1 95000:1 95748:1 96034:1 96213:1 97669:1 98166:1 98284:1 98464:1 98668:1 98731:1 98750:1 98757:1 99210:1 99351:1 100170:1 100609:1 #
-0.0036567400817759652432992201198658 4043:1 10574:1 10575:1 36753:1 61256:1 70465:1 72108:1 #
0.0040567404396618022763276734110605 29:1 10573:1 10575:1 16027:1 24437:1 31071:1 38795:1 40258:1 40537:1 82437:1 #
-0.00074195498958294181339467865399229 17:1 24:1 25:1 28:1 29:1 30:1 820:1 1206:1 1456:1 1697:1 1837:1 9314:1 9424:1 10494:1 10572:1 10574:1 10575:1 13794:1 13860:1 15069:1 15699:1 16496:1 17536:1 18941:1 19123:1 21658:1 25104:1 25254:1 26533:1 26608:1 27464:1 27614:1 27616:1 28389:1 28737:1 29405:1 30122:1 30231:1 30404:1 30988:1 32259:1 32691:1 34851:1 35401:1 35853:1 36098:1 36253:1 36601:1 36612:1 38350:1 38418:1 38544:1 38710:1 38737:1 39191:1 40369:1 42338:1 42469:1 46929:1 47242:1 48596:1 49099:1 49907:1 50062:1 50640:1 51113:1 51132:1 51738:1 56549:1 57243:1 57375:1 58167:1 58448:1 59173:1 59562:1 59939:1 59964:1 60951:1 61293:1 63148:1 63321:1 65147:1 66090:1 66174:1 66583:1 66585:1 66599:1 67106:1 67598:1 67674:1 67849:1 67926:1 68010:1 68165:1 68480:1 68921:1 69728:1 71365:1 72046:1 72729:1 72785:1 73018:1 73187:1 74643:1 76870:1 77737:1 78520:1 79575:1 80046:1 82437:1 82621:1 82825:1 82958:1 83717:1 84244:1 84440:1 87539:1 88885:1 90159:1 90179:1 90186:1 90720:1 91439:1 91669:1 92023:1 92047:1 92095:1 92153:1 92263:1 93192:1 93276:1 94493:1 94831:1 94911:1 95484:1 96454:1 96739:1 98464:1 98731:1 99531:1 100592:1 #
0.0003212098951170802639369650233192 17:1 23:1 24:1 25:1 28:1 30:1 31:1 2275:1 10494:1 10573:1 10575:1 11069:1 11409:1 12362:1 13860:1 14194:1 15069:1 15074:1 15888:1 17832:1 19999:1 23560:1 25267:1 26080:1 30433:1 31870:1 38269:1 38349:1 41279:1 41410:1 41411:1 46318:1 47782:1 47953:1 48390:1 49185:1 49907:1 51421:1 55090:1 57472:1 57990:1 58172:1 61168:1 65147:1 65685:1 66063:1 67106:1 67343:1 67700:1 68553:1 69207:1 69854:1 72046:1 72048:1 72793:1 78052:1 78102:1 78412:1 78444:1 80871:1 81194:1 82437:1 82950:1 82958:1 83725:1 84270:1 84378:1 85879:1 86937:1 87052:1 88397:1 89214:1 89702:1 90448:1 90470:1 90720:1 91095:1 91439:1 94858:1 94885:1 95305:1 96454:1 97629:1 97855:1 98095:1 98464:1 98904:1 99076:1 99133:1 99531:1 100609:1 100642:1 #
0.0019574248771534771655644657784023 17:1 23:1 28:1 29:1 30:1 3885:1 4043:1 9996:1 10573:1 10575:1 21564:1 21750:1 27655:1 36984:1 39731:1 44618:1 47262:1 49185:1 54191:1 57321:1 65205:1 65913:1 68053:1 72046:1 76045:1 80871:1 87758:1 89702:1 90428:1 90720:1 91439:1 97758:1 97771:1 99210:1 99624:1 100609:1 100642:1 #
0.00022082312367064009061938534284053 17:1 18:1 23:1 24:1 25:1 28:1 30:1 31:1 10494:1 10499:1 10572:1 10573:1 10575:1 10582:1 10849:1 11069:1 11565:1 12364:1 12992:1 13243:1 13347:1 13738:1 13860:1 15456:1 15734:1 16389:1 16624:1 17832:1 17926:1 17953:1 18632:1 18645:1 20735:1 20988:1 21602:1 21750:1 22637:1 23433:1 23823:1 25254:1 26080:1 26245:1 26536:1 26654:1 27909:1 29405:1 30124:1 36098:1 36356:1 36521:1 36921:1 36930:1 36962:1 38172:1 38452:1 38906:1 39142:1 39491:1 41024:1 41279:1 41848:1 42061:1 42469:1 43889:1 43897:1 44220:1 44278:1 46318:1 46785:1 47242:1 47263:1 48352:1 48390:1 48793:1 49185:1 49907:1 50640:1 51421:1 51552:1 52061:1 52237:1 52308:1 53292:1 53301:1 55081:1 56010:1 56077:1 56504:1 56573:1 57420:1 58675:1 59355:1 59423:1 59950:1 62215:1 63148:1 63401:1 65251:1 66044:1 66174:1 67106:1 67152:1 67162:1 67598:1 67618:1 67700:1 68053:1 68553:1 69341:1 69776:1 70787:1 71266:1 71594:1 72046:1 72416:1 72785:1 72870:1 73913:1 73937:1 73946:1 74367:1 75911:1 77094:1 77095:1 77728:1 77732:1 78732:1 80871:1 82275:1 82710:1 82829:1 84378:1 84385:1 85428:1 85461:1 85852:1 87732:1 87879:1 88017:1 89214:1 90470:1 90513:1 90529:1 90624:1 90720:1 91439:1 93273:1 94493:1 94831:1 94858:1 94911:1 95363:1 96402:1 97320:1 97689:1 98134:1 98270:1 98464:1 98530:1 98707:1 98731:1 99531:1 100609:1 100642:1 #
0.00037014740331204465514577939266871 23:1 28:1 29:1 30:1 10494:1 10495:1 10498:1 10499:1 10573:1 10575:1 10582:1 11050:1 12167:1 12237:1 12546:1 12992:1 13192:1 13243:1 13347:1 13362:1 13406:1 13738:1 13860:1 14219:1 14425:1 15069:1 15196:1 15285:1 15374:1 15456:1 15573:1 15888:1 16095:1 16933:1 17832:1 17904:1 17926:1 18040:1 18064:1 18352:1 18557:1 20148:1 20154:1 20275:1 20410:1 20777:1 20890:1 21284:1 21602:1 22264:1 22343:1 23430:1 23755:1 23789:1 23844:1 24049:1 25616:1 26127:1 26153:1 26324:1 26549:1 26839:1 27214:1 27726:1 29527:1 30231:1 30252:1 30443:1 31126:1 32118:1 32340:1 33181:1 33478:1 33617:1 34901:1 34945:1 35215:1 36059:1 36539:1 38172:1 38191:1 38209:1 38218:1 38372:1 38710:1 39414:1 39514:1 39700:1 39778:1 40220:1 40400:1 40537:1 40622:1 40628:1 40820:1 41279:1 41376:1 41544:1 41772:1 41848:1 42061:1 42140:1 42142:1 42287:1 42508:1 42635:1 43533:1 43549:1 43556:1 44220:1 44312:1 44388:1 44498:1 44688:1 44835:1 45103:1 45773:1 46318:1 46329:1 46523:1 46693:1 48203:1 48215:1 48352:1 48541:1 48607:1 48864:1 49075:1 49185:1 49907:1 50210:1 50518:1 51340:1 51552:1 52061:1 52237:1 53826:1 54511:1 54933:1 55081:1 56237:1 56329:1 56580:1 57243:1 57321:1 57668:1 57693:1 57762:1 58167:1 58413:1 58421:1 59423:1 60026:1 60398:1 61429:1 62096:1 62886:1 62947:1 63148:1 63678:1 64012:1 64131:1 64207:1 65130:1 65441:1 65703:1 66044:1 66185:1 66504:1 67010:1 67106:1 67439:1 67598:1 67604:1 67618:1 67700:1 67985:1 68581:1 68625:1 68627:1 68727:1 68730:1 69621:1 69915:1 70057:1 70522:1 70605:1 70878:1 71899:1 72438:1 72828:1 72982:1 72986:1 73193:1 73857:1 74076:1 74171:1 75911:1 76009:1 76804:1 76843:1 76870:1 76969:1 77782:1 78087:1 79468:1 79949:1 80057:1 80281:1 80651:1 80871:1 80978:1 81034:1 81194:1 81564:1 82745:1 83291:1 83762:1 83784:1 84374:1 85154:1 85472:1 85475:1 87221:1 87227:1 87541:1 87639:1 87678:1 88188:1 88322:1 89053:1 89214:1 89262:1 89546:1 89968:1 90038:1 90426:1 90448:1 90470:1 90529:1 90586:1 90647:1 90688:1 90702:1 90720:1 90787:1 91071:1 91095:1 91241:1 91439:1 91608:1 91997:1 92735:1 93192:1 94435:1 94621:1 94831:1 94858:1 96960:1 97313:1 97928:1 98095:1 98134:1 98318:1 98367:1 98464:1 98695:1 98757:1 98966:1 99133:1 99178:1 99187:1 99210:1 99357:1 100328:1 100388:1 100609:1 100642:1 100669:1 #
0.00032636505767235035819009980606609 17:1 20:1 22:1 23:1 28:1 29:1 30:1 2274:1 4044:1 10573:1 10575:1 10582:1 10849:1 11391:1 12187:1 12432:1 12992:1 13362:1 13860:1 14194:1 14428:1 15069:1 15573:1 15888:1 16783:1 16845:1 17926:1 18632:1 18881:1 19182:1 19537:1 21437:1 21602:1 22201:1 22264:1 22550:1 22646:1 23003:1 23119:1 24070:1 28279:1 28414:1 29753:1 30231:1 30386:1 33417:1 33617:1 33849:1 33969:1 34159:1 36492:1 36799:1 38172:1 38218:1 39144:1 39775:1 39778:1 40233:1 40414:1 41279:1 42061:1 42306:1 43555:1 44312:1 44379:1 44388:1 44498:1 44715:1 45642:1 45705:1 45961:1 45978:1 46111:1 46318:1 46903:1 47110:1 47242:1 48152:1 48203:1 48607:1 48864:1 49185:1 49907:1 52061:1 52237:1 53292:1 53826:1 54662:1 54838:1 55081:1 55822:1 56932:1 57243:1 57284:1 57321:1 57652:1 57762:1 58217:1 58421:1 58448:1 59018:1 59423:1 59765:1 60771:1 62359:1 62367:1 63148:1 63193:1 63401:1 63678:1 64131:1 64321:1 64497:1 64811:1 66044:1 66063:1 67106:1 67306:1 67598:1 68053:1 68581:1 68727:1 69311:1 70057:1 73255:1 74007:1 75911:1 76019:1 78087:1 78100:1 78807:1 80871:1 81471:1 81857:1 82437:1 83388:1 85154:1 86090:1 87052:1 87194:1 87424:1 87425:1 87429:1 87921:1 87986:1 89053:1 89214:1 89270:1 89934:1 89968:1 90234:1 90430:1 90448:1 90470:1 90529:1 90543:1 90586:1 90647:1 90691:1 90693:1 90720:1 90785:1 90788:1 90813:1 90815:1 91095:1 91439:1 91887:1 92630:1 94534:1 94621:1 94831:1 94960:1 95618:1 96414:1 97170:1 97419:1 97430:1 97437:1 97774:1 97868:1 97910:1 98731:1 98934:1 99076:1 99178:1 100154:1 100388:1 100609:1 #
-0.00019158415744736245365717475230838 17:1 20:1 24:1 25:1 28:1 30:1 773:1 4633:1 5245:1 6096:1 6335:1 10494:1 10574:1 10575:1 10582:1 11927:1 12334:1 13614:1 13615:1 13860:1 14132:1 15069:1 15456:1 17832:1 18040:1 18179:1 20961:1 21750:1 22264:1 23600:1 25345:1 25391:1 27606:1 28277:1 28436:1 30252:1 34900:1 41022:1 41279:1 42061:1 44312:1 44388:1 45090:1 47266:1 48444:1 49604:1 49907:1 49975:1 50153:1 50640:1 52061:1 52237:1 52308:1 55081:1 56911:1 58448:1 58670:1 59408:1 59423:1 59939:1 63063:1 63417:1 64738:1 65205:1 65208:1 67106:1 67598:1 68053:1 68463:1 68581:1 71993:1 72785:1 72828:1 73756:1 74199:1 74200:1 74206:1 74608:1 76810:1 81194:1 83055:1 83304:1 85154:1 85454:1 85551:1 86723:1 86731:1 87126:1 87494:1 89012:1 89214:1 90040:1 90426:1 90448:1 90470:1 90586:1 90624:1 90647:1 90720:1 90916:1 91439:1 91478:1 91608:1 92047:1 93192:1 94621:1 95933:1 96775:1 97463:1 97629:1 97771:1 97781:1 98464:1 98731:1 100609:1 #
-0.00095404229853767320412155639175467 17:1 30:1 1697:1 10574:1 10575:1 15576:1 21658:1 23819:1 31071:1 32505:1 32959:1 33685:1 34932:1 35409:1 42061:1 49907:1 53826:1 55427:1 58241:1 59752:1 60771:1 62217:1 63836:1 66106:1 68167:1 79468:1 82710:1 88205:1 90470:1 90720:1 91439:1 93334:1 94036:1 96040:1 99160:1 100642:1 #
-0.0091427984194730888001245716623089 10574:1 10575:1 #
-0.00050915781218258398133774678129271 17:1 18:1 23:1 24:1 25:1 28:1 30:1 31:1 773:1 774:1 3375:1 6095:1 7968:1 10494:1 10495:1 10574:1 10575:1 10582:1 11857:1 12363:1 12992:1 13347:1 13738:1 13860:1 15069:1 15343:1 15888:1 17072:1 17832:1 18557:1 19013:1 19507:1 19700:1 19976:1 20777:1 21084:1 21284:1 21328:1 21602:1 22264:1 23892:1 24349:1 24636:1 25385:1 26402:1 26571:1 27044:1 27045:1 28355:1 32259:1 33377:1 33478:1 33617:1 33868:1 33873:1 34601:1 34603:1 36537:1 38218:1 38323:1 38349:1 40760:1 41279:1 41696:1 41848:1 42306:1 43533:1 44220:1 44251:1 44322:1 46318:1 46441:1 46929:1 47341:1 48091:1 48145:1 48152:1 48864:1 49857:1 49907:1 52061:1 52308:1 52603:1 53342:1 53826:1 54347:1 55081:1 56175:1 56570:1 57243:1 57265:1 57321:1 58213:1 58359:1 59058:1 59156:1 60771:1 62096:1 62886:1 63148:1 63410:1 65130:1 65147:1 65685:1 66044:1 66174:1 67106:1 67598:1 67618:1 67700:1 68053:1 68245:1 68727:1 70256:1 70522:1 71857:1 73760:1 74001:1 74629:1 75153:1 75900:1 76044:1 76856:1 76910:1 78511:1 79468:1 80623:1 80871:1 81034:1 81194:1 82314:1 82355:1 82437:1 83388:1 84060:1 84130:1 84134:1 84346:1 85154:1 85427:1 85472:1 85475:1 86763:1 87392:1 87889:1 88381:1 89053:1 89690:1 89968:1 90402:1 90435:1 90448:1 90470:1 90586:1 90624:1 90688:1 90691:1 90693:1 90720:1 90785:1 90792:1 91439:1 91816:1 92399:1 92523:1 92783:1 93192:1 93276:1 93984:1 94534:1 94550:1 95363:1 95368:1 97771:1 98095:1 98140:1 98270:1 98464:1 98999:1 100609:1 100642:1 #
-0.0002398196485017590768445971960432 25:1 28:1 30:1 31:1 10494:1 10574:1 10575:1 10582:1 10752:1 12251:1 12852:1 13274:1 13313:1 13860:1 14057:1 14974:1 15229:1 15850:1 16258:1 16300:1 16906:1 17001:1 17072:1 17383:1 17418:1 17460:1 18310:1 18655:1 18832:1 19410:1 19696:1 20048:1 20122:1 20148:1 20654:1 23377:1 24049:1 24070:1 24204:1 24863:1 25064:1 25188:1 26000:1 26044:1 26754:1 27178:1 27806:1 28442:1 28990:1 29066:1 29096:1 29605:1 29702:1 30660:1 30868:1 31408:1 31544:1 31723:1 34206:1 35994:1 36346:1 38233:1 38893:1 38974:1 39126:1 40961:1 41284:1 41588:1 41731:1 42061:1 42658:1 46135:1 46227:1 46620:1 46660:1 47027:1 47175:1 48066:1 48390:1 48864:1 49185:1 50587:1 52237:1 52885:1 55081:1 56910:1 56932:1 60771:1 61221:1 61767:1 62044:1 62939:1 63017:1 63193:1 64434:1 64465:1 64797:1 64799:1 64915:1 65015:1 66726:1 68113:1 68581:1 70018:1 73801:1 75332:1 76003:1 76920:1 77051:1 77341:1 77504:1 78705:1 81952:1 83683:1 84378:1 85972:1 87575:1 88207:1 88408:1 90435:1 90470:1 90529:1 90720:1 92407:1 92970:1 96036:1 96260:1 97194:1 97419:1 97646:1 99531:1 100609:1 101522:1 #
8.3899563863865800209321244018668e-05 5:1 17:1 27:1 28:1 29:1 30:1 773:1 2274:1 2277:1 3885:1 6047:1 6095:1 7968:1 10494:1 10499:1 10572:1 10573:1 10575:1 10580:1 10582:1 13362:1 13740:1 14038:1 14446:1 16783:1 19065:1 20362:1 21833:1 21840:1 23276:1 23321:1 24666:1 26080:1 29162:1 29717:1 33393:1 33397:1 33524:1 34735:1 34736:1 34738:1 34770:1 34773:1 35323:1 35940:1 40382:1 42061:1 45964:1 48864:1 52348:1 52468:1 52811:1 52963:1 52976:1 55183:1 57698:1 58841:1 60448:1 61433:1 61715:1 62672:1 66161:1 66635:1 66802:1 67633:1 67890:1 68245:1 69103:1 69436:1 69463:1 70184:1 71851:1 72194:1 72315:1 73010:1 73178:1 73179:1 73208:1 73970:1 74545:1 74759:1 74764:1 77110:1 80358:1 81766:1 82770:1 82874:1 86078:1 86079:1 87491:1 87732:1 89021:1 89039:1 89072:1 91439:1 92387:1 92911:1 93319:1 93568:1 95179:1 96567:1 97077:1 97409:1 99426:1 99558:1 99581:1 100896:1 100981:1 101426:1 101625:1 #
0.0024762388838646064680160119308994 22:1 30:1 10573:1 10575:1 10580:1 11386:1 12992:1 15069:1 28507:1 30122:1 40942:1 42061:1 49907:1 52061:1 55724:1 62598:1 68553:1 89002:1 96777:1 #
4.2471795933443686073792411317385e-05 20:1 21:1 23:1 24:1 25:1 27:1 28:1 29:1 30:1 31:1 774:1 775:1 1697:1 1698:1 6095:1 6096:1 7061:1 7968:1 8842:1 10499:1 10573:1 10575:1 10582:1 10789:1 12219:1 13282:1 13301:1 13362:1 13738:1 13860:1 14407:1 15069:1 15456:1 15888:1 17047:1 17514:1 17536:1 17832:1 17926:1 18014:1 18122:1 18536:1 18844:1 18881:1 19913:1 20096:1 20312:1 20777:1 21840:1 22094:1 22264:1 22867:1 23919:1 24050:1 24519:1 26104:1 26320:1 26732:1 28203:1 28762:1 30422:1 30505:1 31062:1 32256:1 32763:1 33476:1 33634:1 33685:1 34551:1 34697:1 35407:1 36413:1 38530:1 38842:1 39178:1 41279:1 42061:1 42355:1 42898:1 43274:1 43533:1 43888:1 43891:1 46227:1 46318:1 46465:1 48864:1 49185:1 49907:1 52061:1 52198:1 52237:1 53320:1 55892:1 56181:1 56818:1 57161:1 58167:1 58222:1 59156:1 59862:1 59939:1 59964:1 60576:1 60797:1 61893:1 61935:1 62583:1 62947:1 63067:1 63889:1 63905:1 64083:1 64131:1 64502:1 65015:1 66044:1 66110:1 66208:1 66771:1 67106:1 67126:1 67140:1 67598:1 68113:1 68480:1 68553:1 68581:1 68727:1 68735:1 69232:1 69354:1 69858:1 72176:1 73018:1 73511:1 73515:1 73888:1 74035:1 75142:1 75900:1 76970:1 77693:1 77946:1 80212:1 80871:1 82629:1 83422:1 83749:1 83762:1 83770:1 83784:1 84420:1 85454:1 85660:1 87535:1 87765:1 88316:1 89053:1 89441:1 89541:1 90159:1 90448:1 90470:1 90624:1 90647:1 90693:1 90702:1 90720:1 90792:1 91439:1 92792:1 94534:1 94621:1 94911:1 95366:1 95376:1 97629:1 97771:1 98166:1 98270:1 98731:1 99875:1 100338:1 #
-0.0069815495848004798309927032562427 29:1 10574:1 10575:1 22631:1 34788:1 43038:1 47725:1 #
-0.00049519184276822301570691875483021 10574:1 10575:1 10582:1 16746:1 17277:1 20461:1 21597:1 22365:1 23053:1 24932:1 27390:1 28641:1 41279:1 42118:1 43173:1 44390:1 45807:1 54760:1 58400:1 62962:1 65441:1 87741:1 87764:1 96418:1 98783:1 #
0.00082466706543138476766252598082474 8:1 17:1 18:1 20:1 23:1 24:1 25:1 28:1 29:1 30:1 773:1 1949:1 2277:1 3484:1 10494:1 10573:1 10575:1 10582:1 11914:1 12560:1 12593:1 12992:1 13860:1 14407:1 15069:1 15456:1 15888:1 19509:1 20988:1 21750:1 21833:1 22264:1 23612:1 24437:1 25006:1 25254:1 26406:1 27909:1 31096:1 31609:1 34788:1 34795:1 34856:1 34864:1 36738:1 36832:1 38439:1 38756:1 41170:1 41279:1 41550:1 41848:1 42061:1 43533:1 43717:1 44835:1 45264:1 46318:1 46929:1 47027:1 48203:1 49185:1 49907:1 49975:1 50062:1 51338:1 51552:1 51598:1 51738:1 51741:1 52061:1 52237:1 53364:1 53366:1 53826:1 54741:1 56243:1 57420:1 57445:1 57472:1 57762:1 59310:1 59350:1 59765:1 59978:1 60398:1 61169:1 61433:1 63148:1 64358:1 64602:1 64778:1 65147:1 65685:1 66771:1 67106:1 67140:1 67152:1 67598:1 67618:1 67700:1 67966:1 68053:1 68553:1 68581:1 70099:1 72046:1 73913:1 74248:1 74608:1 75142:1 76124:1 76804:1 76835:1 77094:1 77101:1 77386:1 77945:1 77990:1 78087:1 78631:1 78723:1 78774:1 79183:1 79478:1 80871:1 81524:1 82710:1 84232:1 85852:1 86147:1 87732:1 89968:1 90428:1 90448:1 90470:1 90647:1 90720:1 91095:1 91376:1 91439:1 92028:1 93273:1 94229:1 94493:1 94621:1 94806:1 95248:1 95363:1 97545:1 97629:1 97855:1 98095:1 98134:1 98490:1 98557:1 98707:1 98731:1 99121:1 100609:1 100642:1 100669:1 #
0.0037932544210722216049269661652943 10494:1 10499:1 10573:1 10575:1 13860:1 15285:1 18881:1 21241:1 26027:1 30052:1 48203:1 49907:1 52061:1 52237:1 76804:1 89079:1 95933:1 #
-0.0002466399859625702088196386174701 18:1 23:1 28:1 29:1 30:1 10495:1 10574:1 10575:1 10582:1 10849:1 12992:1 13282:1 13860:1 15456:1 15528:1 15888:1 18536:1 18632:1 21602:1 21750:1 22264:1 22634:1 24437:1 27709:1 29612:1 29753:1 29936:1 30178:1 30840:1 32798:1 32863:1 33617:1 34742:1 35447:1 36091:1 37415:1 37597:1 38702:1 38710:1 39526:1 40485:1 40570:1 40874:1 41279:1 42061:1 43351:1 44835:1 45810:1 46318:1 46785:1 47245:1 48864:1 49907:1 52061:1 52237:1 53320:1 55842:1 57321:1 58213:1 58217:1 58343:1 58447:1 58928:1 59554:1 60771:1 60944:1 62357:1 63298:1 64131:1 65146:1 65441:1 66635:1 66718:1 67106:1 67306:1 67598:1 68483:1 68553:1 69241:1 70272:1 74645:1 75770:1 75928:1 76479:1 77464:1 77997:1 79813:1 79814:1 79825:1 80871:1 81034:1 81502:1 82579:1 82958:1 83304:1 83388:1 83446:1 83582:1 83702:1 83770:1 84378:1 84703:1 86442:1 87239:1 87424:1 87921:1 88719:1 89053:1 89096:1 89214:1 90428:1 90448:1 90470:1 90624:1 91095:1 91112:1 91439:1 93839:1 94673:1 97419:1 97545:1 97779:1 98349:1 98731:1 98980:1 100609:1 100642:1 #
-0.00085302830867915312596655441623739 17:1 19:1 24:1 25:1 26:1 28:1 29:1 30:1 31:1 2274:1 10494:1 10574:1 10575:1 10582:1 13860:1 15888:1 17832:1 18245:1 21750:1 22264:1 22599:1 22610:1 23275:1 25261:1 26080:1 29495:1 32314:1 32521:1 34788:1 36926:1 39485:1 41175:1 41279:1 41848:1 42061:1 44220:1 44312:1 44908:1 46227:1 46318:1 47873:1 48390:1 49049:1 49185:1 51552:1 52061:1 52237:1 55306:1 57445:1 59310:1 59423:1 60398:1 61522:1 62746:1 64811:1 65147:1 66044:1 66427:1 67106:1 67439:1 69327:1 71427:1 71430:1 72046:1 72846:1 72847:1 74248:1 76124:1 78153:1 82950:1 88381:1 90428:1 90470:1 90720:1 91439:1 93192:1 94621:1 94806:1 94858:1 97175:1 97545:1 97781:1 98750:1 99531:1 100609:1 100642:1 #
2.6044338398352799796107298613279e-05 18:1 20:1 21:1 22:1 23:1 24:1 25:1 26:1 27:1 28:1 29:1 30:1 31:1 32:1 348:1 774:1 1190:1 1697:1 2038:1 2275:1 4043:1 4633:1 5245:1 5342:1 6047:1 6095:1 6421:1 10494:1 10497:1 10573:1 10575:1 10582:1 11142:1 13860:1 15456:1 16845:1 17556:1 17832:1 20064:1 21602:1 22034:1 22121:1 23601:1 28277:1 29405:1 29753:1 31068:1 32247:1 33377:1 34788:1 37146:1 37248:1 38138:1 40369:1 41279:1 42237:1 43533:1 45059:1 46550:1 46929:1 47242:1 47247:1 48864:1 49907:1 52237:1 53739:1 59426:1 59939:1 60402:1 61811:1 62211:1 62589:1 62833:1 65015:1 66044:1 66427:1 66599:1 66958:1 67106:1 70702:1 71011:1 71365:1 74459:1 75182:1 80871:1 81034:1 83388:1 83762:1 84180:1 85186:1 85472:1 86224:1 89822:1 90402:1 90470:1 90529:1 90647:1 91439:1 91546:1 93192:1 94864:1 94900:1 95179:1 95368:1 95376:1 95472:1 97629:1 98490:1 98731:1 #
0.0045012859969350326252990335262893 8008:1 9683:1 10494:1 10573:1 10575:1 24070:1 30422:1 90624:1 #
-0.0010284871554393489132689376575058 30:1 31:1 10494:1 10499:1 10574:1 10575:1 13860:1 24049:1 26080:1 33920:1 34234:1 48390:1 61591:1 65147:1 71105:1 84457:1 97312:1 99210:1 99531:1 100609:1 #
0.0028394995739969425274651371182699 28:1 10573:1 10575:1 42551:1 52290:1 71156:1 96310:1 #
