SVM-light Version V6.02
0 # kernel type
3 # kernel parameter -d 
1 # kernel parameter -g 
1 # kernel parameter -s 
1 # kernel parameter -r 
empty# kernel parameter -u 
101625 # highest feature index 
18457 # number of training documents 
1586 # number of support vectors plus 1 
0.0055124815 # threshold b, each following line is a SV (starting with alpha*y)
-0.00037963246340385524641228287556771 21:1 28:1 30:1 2860:1 8412:1 10574:1 10575:1 12992:1 25764:1 37936:1 41279:1 45705:1 65147:1 66583:1 67126:1 70729:1 71323:1 81504:1 84961:1 85282:1 98557:1 98568:1 #
-0.0001641601806261826581884860631888 28:1 29:1 30:1 31:1 4120:1 4820:1 8025:1 8418:1 8509:1 10494:1 10499:1 10574:1 10575:1 10582:1 13240:1 13362:1 13738:1 13860:1 15069:1 15343:1 15787:1 15821:1 15888:1 17621:1 17832:1 18040:1 18557:1 20966:1 21669:1 22264:1 24070:1 24110:1 24473:1 25390:1 26080:1 29358:1 29618:1 29628:1 30422:1 31071:1 31444:1 31652:1 32725:1 34788:1 35409:1 36008:1 36013:1 38413:1 38612:1 38670:1 38710:1 38938:1 40289:1 41279:1 42306:1 42635:1 43411:1 43423:1 44388:1 46318:1 46524:1 47316:1 48390:1 48864:1 49185:1 49907:1 52061:1 52237:1 52308:1 53911:1 55802:1 60901:1 61458:1 63148:1 63493:1 65130:1 67106:1 67317:1 67598:1 68053:1 68553:1 68735:1 72274:1 73414:1 75928:1 76124:1 76774:1 76804:1 78054:1 78085:1 80985:1 81455:1 82958:1 83427:1 83590:1 85872:1 85953:1 86183:1 87401:1 87599:1 88408:1 90038:1 90470:1 90542:1 90647:1 91689:1 92750:1 93778:1 93870:1 95933:1 97419:1 97732:1 97779:1 98140:1 98464:1 98731:1 99187:1 100393:1 100609:1 100642:1 101407:1 #
-0.00016908743251397708264906205588574 24:1 25:1 28:1 30:1 31:1 10494:1 10499:1 10574:1 10575:1 10582:1 10849:1 13860:1 15069:1 20085:1 21278:1 22264:1 26080:1 34858:1 36561:1 38710:1 42000:1 46059:1 47247:1 47837:1 48390:1 52061:1 58455:1 59156:1 59423:1 59765:1 61013:1 61200:1 63136:1 63148:1 63408:1 66044:1 68211:1 70482:1 70622:1 73032:1 75911:1 76039:1 81512:1 82777:1 83103:1 84347:1 84437:1 85154:1 85455:1 86439:1 90470:1 91095:1 91801:1 97629:1 99531:1 100609:1 100642:1 #
-0.00015310160145055848909638462895799 29:1 30:1 1049:1 5866:1 6758:1 7165:1 7203:1 9419:1 10494:1 10572:1 10574:1 10575:1 11539:1 11860:1 13987:1 14232:1 14582:1 14660:1 15294:1 15684:1 16336:1 17514:1 19361:1 21058:1 23509:1 25364:1 26080:1 28848:1 31882:1 32062:1 32795:1 34144:1 36098:1 39273:1 41895:1 44018:1 45885:1 51319:1 51672:1 55044:1 59089:1 62009:1 62682:1 66824:1 66910:1 70783:1 70888:1 71266:1 72230:1 73741:1 75755:1 77950:1 85003:1 86991:1 88905:1 90849:1 94634:1 94786:1 95475:1 98554:1 #
0.00016421159237908137910888495270001 23:1 30:1 31:1 10494:1 10499:1 10573:1 10575:1 10582:1 20647:1 25579:1 36840:1 42061:1 44063:1 45021:1 46318:1 48390:1 51571:1 52061:1 57321:1 57472:1 67106:1 68191:1 69699:1 80871:1 82467:1 83762:1 84378:1 90720:1 91439:1 93590:1 97629:1 #
-0.0015238033032657859709713132900788 23:1 30:1 5245:1 10494:1 10574:1 10575:1 10576:1 10578:1 13243:1 14194:1 19312:1 48864:1 49185:1 51688:1 67618:1 69260:1 76804:1 80871:1 83354:1 83708:1 90196:1 92979:1 98095:1 98978:1 #
-0.00015356690377224484060116049821687 23:1 30:1 31:1 10494:1 10572:1 10574:1 10575:1 10582:1 10594:1 10849:1 12992:1 13860:1 14824:1 15069:1 16750:1 17832:1 18499:1 20295:1 22264:1 22600:1 23516:1 23991:1 25905:1 26080:1 27361:1 29709:1 30143:1 30149:1 30163:1 31176:1 31715:1 33671:1 33823:1 33849:1 35801:1 42061:1 44220:1 44605:1 46059:1 46465:1 47175:1 47341:1 47922:1 47953:1 48357:1 48390:1 48864:1 49185:1 49348:1 52061:1 52308:1 52510:1 53826:1 55081:1 55939:1 56949:1 57224:1 57321:1 58371:1 60402:1 60771:1 61013:1 63148:1 63717:1 64581:1 65147:1 65685:1 67106:1 67266:1 67598:1 67674:1 68480:1 68581:1 69327:1 70846:1 71459:1 73227:1 74199:1 76124:1 80275:1 81034:1 81376:1 82275:1 82437:1 82793:1 84378:1 85454:1 88775:1 88965:1 90470:1 90647:1 90693:1 91439:1 94621:1 94670:1 95933:1 97629:1 97771:1 98134:1 98464:1 98731:1 98966:1 100152:1 100609:1 #
-2.1652811849090424704648849552058e-05 28:1 30:1 10499:1 10574:1 10575:1 10760:1 11648:1 11959:1 12037:1 12138:1 12557:1 12652:1 12992:1 13474:1 13838:1 14074:1 14132:1 14451:1 14543:1 14851:1 16933:1 17017:1 17763:1 17786:1 18724:1 18773:1 18928:1 20828:1 21125:1 21700:1 21712:1 21737:1 21746:1 21748:1 21811:1 23191:1 23296:1 23559:1 24405:1 24956:1 24958:1 25578:1 28516:1 28897:1 29351:1 29568:1 29697:1 29744:1 30343:1 30372:1 31997:1 32010:1 32013:1 32028:1 33119:1 33218:1 33220:1 33276:1 33323:1 33751:1 33937:1 34149:1 34302:1 34676:1 34678:1 34783:1 34985:1 35178:1 35185:1 35241:1 35473:1 35475:1 35808:1 36251:1 36284:1 37151:1 37162:1 37931:1 38162:1 38261:1 38275:1 38284:1 39017:1 39070:1 39071:1 39105:1 39119:1 39561:1 40070:1 40102:1 41672:1 42543:1 42555:1 43904:1 44160:1 44171:1 45175:1 45210:1 45218:1 45518:1 45531:1 45535:1 45544:1 45555:1 45569:1 45592:1 46408:1 46929:1 47156:1 47158:1 47535:1 47558:1 47579:1 48671:1 48672:1 49146:1 49219:1 49309:1 49368:1 49508:1 52061:1 52347:1 52395:1 52402:1 52466:1 52544:1 53005:1 53018:1 53108:1 53172:1 53553:1 53635:1 53848:1 53883:1 53895:1 54332:1 54613:1 54619:1 54969:1 55108:1 55112:1 55316:1 55377:1 55551:1 55676:1 55677:1 55709:1 56398:1 56420:1 56460:1 56649:1 57080:1 57084:1 57307:1 57731:1 57732:1 57750:1 57851:1 57874:1 57888:1 57906:1 57933:1 58510:1 58521:1 58523:1 58570:1 58900:1 58944:1 59253:1 61433:1 61698:1 61703:1 61706:1 62531:1 62648:1 63732:1 64080:1 64092:1 64872:1 65261:1 65325:1 65327:1 65578:1 65659:1 65677:1 66044:1 66227:1 66628:1 66643:1 66647:1 67285:1 67314:1 67366:1 67367:1 67866:1 67893:1 68036:1 68072:1 68459:1 69014:1 69050:1 70114:1 70126:1 70190:1 70622:1 71248:1 71609:1 71807:1 71828:1 71850:1 72317:1 73149:1 74692:1 74885:1 75260:1 75279:1 75310:1 75314:1 75442:1 75458:1 75461:1 75470:1 75487:1 75493:1 75548:1 75559:1 75580:1 75583:1 75589:1 75605:1 75631:1 75694:1 76055:1 76103:1 76666:1 79220:1 79253:1 79306:1 79674:1 79801:1 80076:1 80409:1 80417:1 80431:1 80507:1 80739:1 80780:1 80792:1 80851:1 80857:1 81963:1 83103:1 83798:1 85071:1 86319:1 86448:1 86467:1 87117:1 87221:1 88832:1 89496:1 89643:1 90654:1 90985:1 91047:1 91055:1 91303:1 91306:1 91313:1 91337:1 91390:1 91411:1 91515:1 93103:1 93130:1 93207:1 93332:1 93421:1 93497:1 93551:1 93611:1 94796:1 94955:1 95130:1 95133:1 95136:1 95158:1 95583:1 96012:1 96211:1 96557:1 96654:1 96897:1 96919:1 96952:1 96962:1 96970:1 96988:1 97024:1 97037:1 97071:1 97072:1 97321:1 97606:1 98035:1 98053:1 98327:1 98864:1 98880:1 98894:1 99258:1 99299:1 99504:1 99509:1 99518:1 99553:1 99615:1 99701:1 99704:1 99796:1 99847:1 99854:1 100112:1 100147:1 100309:1 100478:1 100481:1 100707:1 100735:1 100823:1 100853:1 100862:1 101032:1 101128:1 101145:1 101191:1 101193:1 101347:1 101369:1 101444:1 101468:1 101480:1 101604:1 101610:1 #
-0.0091427984194731911488096542939275 10574:1 10575:1 #
-0.00010768316871636880293489069160273 6:1 17:1 28:1 29:1 30:1 31:1 3143:1 10494:1 10574:1 10575:1 10577:1 11174:1 12174:1 13860:1 14986:1 15544:1 15722:1 18417:1 19220:1 22087:1 22794:1 24007:1 25254:1 25330:1 25942:1 27790:1 27806:1 27990:1 29859:1 33503:1 34601:1 38194:1 41279:1 46318:1 46929:1 48091:1 48128:1 48390:1 49178:1 50062:1 50984:1 56098:1 56631:1 62672:1 63412:1 65147:1 66174:1 67106:1 71295:1 71319:1 71459:1 72680:1 72686:1 82437:1 90470:1 90797:1 96173:1 96183:1 97629:1 99624:1 #
-0.00019425101654500651548670986379364 30:1 773:1 2274:1 6095:1 10494:1 10574:1 10575:1 10576:1 10578:1 10730:1 11313:1 11994:1 12067:1 12196:1 12711:1 13241:1 13986:1 14006:1 14313:1 14564:1 14932:1 15053:1 15067:1 15368:1 15393:1 15619:1 15888:1 15948:1 16168:1 16188:1 16389:1 16935:1 16940:1 17411:1 17545:1 17832:1 18292:1 18400:1 19732:1 20766:1 21171:1 21246:1 21298:1 21322:1 21460:1 22668:1 22706:1 23433:1 24071:1 24173:1 25231:1 25630:1 25876:1 26773:1 27487:1 27623:1 28030:1 28053:1 28061:1 28288:1 28321:1 28460:1 29065:1 29788:1 29856:1 30252:1 30981:1 30995:1 31029:1 31239:1 32381:1 33009:1 33579:1 33765:1 35618:1 36061:1 36262:1 37533:1 37625:1 38121:1 39307:1 39942:1 40280:1 40423:1 40507:1 41468:1 43364:1 44698:1 45284:1 46294:1 46318:1 46827:1 47018:1 47836:1 49907:1 51555:1 51573:1 52089:1 52145:1 52237:1 52496:1 52737:1 54347:1 55126:1 55134:1 56188:1 59240:1 59433:1 60042:1 60659:1 61178:1 61433:1 61573:1 62363:1 64549:1 65147:1 66365:1 67196:1 67803:1 69576:1 71522:1 71529:1 71866:1 72046:1 72660:1 75192:1 78880:1 78942:1 79353:1 80984:1 82265:1 82383:1 85677:1 85898:1 88877:1 88963:1 89111:1 90529:1 90608:1 91621:1 91685:1 91804:1 94634:1 95336:1 96191:1 96211:1 96343:1 97487:1 97806:1 98464:1 100609:1 100642:1 #
-0.0012544623132138088637127504298974 29:1 10494:1 10499:1 10574:1 10575:1 10582:1 15456:1 16158:1 16466:1 20462:1 20636:1 46318:1 48864:1 65251:1 69900:1 71208:1 71541:1 78378:1 80048:1 84317:1 88707:1 92735:1 97320:1 97471:1 97868:1 99329:1 #
8.540435665227192208598383516005e-05 24:1 25:1 28:1 29:1 30:1 773:1 2274:1 4043:1 5245:1 6095:1 10494:1 10499:1 10573:1 10575:1 10577:1 10582:1 12992:1 13243:1 13519:1 13738:1 15456:1 15553:1 15699:1 17456:1 21273:1 22039:1 22264:1 22691:1 26324:1 27909:1 28705:1 31864:1 32314:1 32532:1 33377:1 35435:1 41175:1 42061:1 43263:1 44865:1 46318:1 47705:1 48864:1 49907:1 50058:1 50920:1 57166:1 60364:1 60493:1 60668:1 62087:1 62718:1 62732:1 63048:1 63148:1 64242:1 66174:1 66635:1 67106:1 67551:1 67598:1 68005:1 68010:1 68053:1 68553:1 69858:1 72351:1 73756:1 74043:1 74304:1 78596:1 81511:1 86224:1 87088:1 87535:1 87991:1 90448:1 90470:1 90624:1 90720:1 91095:1 91439:1 93192:1 94831:1 94911:1 96730:1 97312:1 97629:1 98731:1 101237:1 #
0.0070997474491664462267759283520263 28:1 10573:1 10575:1 13860:1 15069:1 18557:1 47110:1 71446:1 84999:1 86993:1 101220:1 #
0.0091427984194731911488096542939275 17:1 10573:1 10575:1 22094:1 42306:1 46318:1 73762:1 #
0.0091427984194731911488096542939275 30:1 10573:1 10575:1 23961:1 46929:1 50587:1 52061:1 52237:1 #
1.4325740572319623769223517761873e-08 19:1 24:1 25:1 29:1 30:1 1190:1 5232:1 6593:1 10573:1 10575:1 13794:1 15694:1 16038:1 20643:1 26484:1 27464:1 35113:1 40618:1 41279:1 42430:1 49647:1 50640:1 53360:1 68053:1 72046:1 79877:1 90231:1 94634:1 94831:1 99624:1 #
0.0065448273175480690261318628131448 17:1 6095:1 10573:1 10575:1 26909:1 49907:1 63057:1 65359:1 71463:1 90402:1 #
0.00032993009451126229479578366721171 17:1 24:1 25:1 28:1 30:1 4285:1 10573:1 10575:1 10582:1 12187:1 13124:1 13243:1 13860:1 15069:1 15456:1 17832:1 18557:1 21602:1 22264:1 24438:1 26027:1 27585:1 27880:1 28203:1 31341:1 37929:1 38209:1 38215:1 40900:1 41101:1 41279:1 43533:1 43894:1 45083:1 45090:1 45911:1 46297:1 46318:1 48864:1 48879:1 49601:1 49907:1 49908:1 52061:1 52237:1 54506:1 56095:1 56932:1 58167:1 60303:1 60398:1 60771:1 61018:1 62947:1 63111:1 63678:1 64131:1 64686:1 64785:1 64811:1 64813:1 66044:1 67598:1 67604:1 67700:1 68480:1 70057:1 72046:1 72826:1 73604:1 73863:1 74001:1 74040:1 75928:1 77690:1 78784:1 81511:1 82467:1 84866:1 89230:1 90435:1 90448:1 90470:1 90586:1 90720:1 91095:1 91439:1 91478:1 91507:1 94637:1 94831:1 97629:1 97868:1 98095:1 98145:1 98464:1 98490:1 98731:1 99210:1 100642:1 #
0.0001738962952730481350931135420268 20:1 23:1 28:1 29:1 30:1 31:1 8844:1 10573:1 10575:1 10582:1 11450:1 11689:1 11920:1 12362:1 13232:1 13860:1 15888:1 16218:1 17832:1 18085:1 18964:1 18995:1 20168:1 20220:1 21343:1 21566:1 21602:1 22094:1 22634:1 22783:1 26153:1 29479:1 30231:1 31126:1 33478:1 33617:1 34015:1 34932:1 36521:1 38664:1 39257:1 41279:1 43533:1 44911:1 45507:1 46318:1 48203:1 48864:1 49062:1 49185:1 49454:1 49748:1 49907:1 50157:1 50286:1 50640:1 52061:1 52237:1 53739:1 53766:1 55081:1 56187:1 56570:1 57420:1 57543:1 58167:1 58213:1 58585:1 59423:1 59939:1 60398:1 60809:1 64096:1 64131:1 64738:1 65685:1 65985:1 66044:1 66174:1 67106:1 67126:1 67140:1 67598:1 67604:1 67700:1 68581:1 69354:1 70057:1 70522:1 72785:1 72792:1 73756:1 74122:1 74634:1 75214:1 76585:1 76920:1 78784:1 79468:1 80651:1 82437:1 83717:1 83762:1 83962:1 84062:1 85454:1 88381:1 89053:1 89214:1 90159:1 90448:1 90470:1 90513:1 90647:1 90691:1 90693:1 90720:1 91095:1 91439:1 92020:1 94534:1 94831:1 95794:1 95933:1 97312:1 97629:1 98095:1 98134:1 98177:1 98464:1 98731:1 98976:1 99210:1 100609:1 100642:1 #
0.00087838626007048119844616840268259 27:1 28:1 30:1 31:1 34:1 774:1 4043:1 4045:1 4634:1 5247:1 5939:1 6611:1 8566:1 10573:1 10575:1 15888:1 22432:1 29753:1 30523:1 38367:1 38408:1 39725:1 41185:1 44840:1 48323:1 49185:1 52619:1 59794:1 66044:1 66145:1 67106:1 68053:1 73756:1 73757:1 91118:1 91439:1 96777:1 98645:1 #
-0.0081559364310446920420805128060238 17:1 30:1 10574:1 10575:1 11666:1 30231:1 44388:1 46769:1 #
-0.00046809209862790025682283134855766 20:1 23:1 26:1 30:1 6097:1 10499:1 10574:1 10575:1 10582:1 13519:1 13860:1 18557:1 22599:1 23483:1 31397:1 39078:1 41279:1 42061:1 43533:1 43717:1 47782:1 52061:1 58452:1 64540:1 65313:1 68053:1 69412:1 78596:1 80871:1 88477:1 89214:1 90470:1 96922:1 98166:1 100642:1 #
-0.00021058200356110622769589824088143 17:1 28:1 30:1 5245:1 10574:1 10575:1 10582:1 15456:1 17832:1 28277:1 31611:1 31710:1 40328:1 40400:1 46929:1 52911:1 54511:1 54524:1 60209:1 61013:1 68979:1 73916:1 74944:1 75176:1 82723:1 85461:1 90470:1 90513:1 90529:1 91439:1 95308:1 97320:1 98270:1 100609:1 100642:1 #
9.8085780673974853590205147391146e-05 18:1 20:1 21:1 23:1 24:1 25:1 27:1 28:1 29:1 30:1 32:1 773:1 1541:1 1697:1 1837:1 2038:1 2258:1 2274:1 2883:1 4043:1 4285:1 4681:1 5696:1 5880:1 6047:1 6095:1 8842:1 8843:1 10494:1 10495:1 10497:1 10573:1 10575:1 10576:1 10578:1 10582:1 10849:1 11205:1 11270:1 11613:1 12992:1 13243:1 13860:1 14073:1 14736:1 14782:1 15069:1 15456:1 15888:1 16348:1 16512:1 16624:1 16783:1 16845:1 17514:1 17832:1 18040:1 18245:1 18557:1 18685:1 19593:1 19976:1 20553:1 20647:1 21180:1 21467:1 21750:1 21833:1 22111:1 22264:1 23961:1 25386:1 25743:1 26415:1 26419:1 26784:1 26909:1 26949:1 27271:1 27345:1 28078:1 28277:1 29028:1 29405:1 29443:1 29445:1 30122:1 30146:1 30147:1 30433:1 31358:1 31616:1 31674:1 31745:1 31864:1 31886:1 32252:1 32268:1 32757:1 33617:1 34018:1 35129:1 35962:1 36379:1 37326:1 37327:1 37551:1 38604:1 38842:1 38911:1 39113:1 39178:1 39316:1 39414:1 41171:1 41177:1 41279:1 41320:1 41426:1 41550:1 41588:1 42061:1 42074:1 42469:1 43888:1 43891:1 44047:1 44885:1 45083:1 45705:1 46318:1 46329:1 47957:1 48457:1 48531:1 48864:1 49075:1 49185:1 49782:1 49907:1 50058:1 50062:1 50072:1 50140:1 50564:1 50640:1 50920:1 52061:1 52237:1 54646:1 56092:1 56181:1 56506:1 56911:1 58167:1 58172:1 58343:1 59255:1 59359:1 59367:1 59428:1 60398:1 62718:1 62732:1 63063:1 63066:1 63067:1 63148:1 63279:1 63408:1 63678:1 64242:1 64738:1 65147:1 65251:1 66174:1 66751:1 67106:1 67439:1 67598:1 67618:1 67700:1 67736:1 68053:1 68378:1 68480:1 68553:1 68581:1 68727:1 68735:1 69088:1 69525:1 70240:1 70622:1 72110:1 72124:1 72359:1 72792:1 72826:1 73107:1 73276:1 73370:1 73377:1 74116:1 74138:1 74294:1 74460:1 75154:1 76124:1 76479:1 77383:1 77464:1 77599:1 77693:1 77750:1 77950:1 77954:1 78886:1 79909:1 80379:1 80871:1 81215:1 82437:1 82758:1 83717:1 83806:1 84089:1 84180:1 84420:1 85154:1 85888:1 86341:1 86516:1 86754:1 86791:1 87995:1 87996:1 89053:1 89885:1 90159:1 90186:1 90267:1 90280:1 90426:1 90448:1 90470:1 90543:1 90593:1 90624:1 90720:1 90785:1 90820:1 91095:1 91439:1 93192:1 94123:1 94534:1 94621:1 94634:1 94673:1 94705:1 94831:1 94858:1 94864:1 94869:1 94911:1 95472:1 95933:1 96480:1 97419:1 97629:1 97928:1 98095:1 98134:1 98140:1 98166:1 99210:1 99624:1 100609:1 100642:1 #
0.0012280008498915190653932860698205 18:1 23:1 26:1 28:1 29:1 30:1 31:1 3213:1 10494:1 10495:1 10499:1 10572:1 10573:1 10575:1 10582:1 11920:1 12364:1 15036:1 15399:1 15456:1 15573:1 15735:1 16933:1 17832:1 19768:1 20553:1 21750:1 22264:1 24473:1 25792:1 26080:1 26402:1 28678:1 29405:1 29874:1 30404:1 33377:1 33476:1 34156:1 34788:1 41279:1 42061:1 42469:1 43533:1 46903:1 48203:1 48357:1 48390:1 48864:1 49185:1 49907:1 49975:1 50058:1 51335:1 52237:1 55081:1 55921:1 56187:1 56549:1 56580:1 58953:1 59310:1 60771:1 61433:1 63148:1 64131:1 64827:1 64884:1 64886:1 66044:1 67674:1 68053:1 68553:1 69088:1 74425:1 74635:1 75375:1 75911:1 76044:1 76045:1 76835:1 77094:1 78391:1 78786:1 80623:1 80871:1 82621:1 83762:1 84232:1 84529:1 85154:1 86993:1 86998:1 87732:1 88381:1 90428:1 90470:1 90515:1 90529:1 90647:1 90720:1 91429:1 91439:1 92925:1 94493:1 94634:1 95912:1 96466:1 97320:1 98095:1 98140:1 98731:1 99059:1 99076:1 99531:1 100609:1 100642:1 #
0.0002562915019480137149635035065387 17:1 24:1 25:1 28:1 29:1 30:1 31:1 236:1 1837:1 2974:1 5603:1 7615:1 8089:1 8720:1 9205:1 9771:1 10494:1 10572:1 10573:1 10575:1 10582:1 11069:1 12187:1 12992:1 13738:1 13860:1 15069:1 15888:1 16218:1 16466:1 22264:1 23855:1 26080:1 26355:1 26542:1 27464:1 28406:1 36098:1 36347:1 36348:1 36350:1 36840:1 38091:1 41279:1 47782:1 48145:1 48390:1 51406:1 51410:1 52061:1 57652:1 58167:1 61015:1 62359:1 63148:1 64131:1 66174:1 67106:1 67598:1 68113:1 68480:1 72046:1 76395:1 78365:1 78810:1 80871:1 89406:1 89934:1 90426:1 90470:1 90785:1 91439:1 92017:1 93334:1 96173:1 96183:1 96827:1 98270:1 98464:1 100609:1 #
-0.00065506661428341704002387135830077 10494:1 10574:1 10575:1 11685:1 13298:1 24024:1 24947:1 25080:1 25752:1 25953:1 27714:1 29608:1 34526:1 38874:1 43855:1 44390:1 48864:1 55081:1 59651:1 63099:1 64891:1 76804:1 82476:1 87427:1 96408:1 97312:1 98095:1 100609:1 #
-0.0041064936362080421000664287589643 29:1 10574:1 10575:1 16635:1 34601:1 41848:1 43533:1 45992:1 85545:1 90720:1 #
-0.0091427984194731911488096542939275 10574:1 10575:1 #
7.3200122901839561099200659466391e-05 2:1 21:1 22:1 23:1 24:1 25:1 28:1 29:1 30:1 31:1 33:1 348:1 773:1 774:1 1350:1 1697:1 2273:1 2277:1 2514:1 3270:1 3374:1 5245:1 7458:1 8842:1 9702:1 10494:1 10499:1 10572:1 10573:1 10575:1 10582:1 10849:1 11075:1 11142:1 11148:1 11409:1 11565:1 11914:1 12187:1 12992:1 13082:1 13232:1 13243:1 13301:1 13738:1 13798:1 13860:1 14129:1 14350:1 14407:1 14623:1 14662:1 14673:1 14686:1 15069:1 15074:1 15285:1 15394:1 15399:1 15456:1 15888:1 16466:1 17514:1 17832:1 17926:1 17953:1 18014:1 18040:1 18122:1 20281:1 20777:1 21602:1 21683:1 21750:1 22054:1 22264:1 22546:1 22634:1 22827:1 23549:1 23842:1 25006:1 25254:1 25267:1 25632:1 25634:1 26035:1 26080:1 26245:1 26397:1 26402:1 26484:1 26522:1 26642:1 27464:1 27916:1 27972:1 28053:1 29405:1 29407:1 29476:1 30433:1 30704:1 31306:1 31621:1 31646:1 31647:1 31674:1 31790:1 31870:1 32532:1 33075:1 33377:1 33516:1 33875:1 34059:1 34395:1 34740:1 34788:1 34932:1 34960:1 35254:1 35256:1 36098:1 36165:1 36193:1 36230:1 36930:1 37074:1 38172:1 38194:1 38209:1 38508:1 38509:1 38906:1 39026:1 39191:1 39414:1 39500:1 39773:1 40258:1 40514:1 40521:1 41098:1 41099:1 41279:1 41455:1 41591:1 41726:1 41859:1 41999:1 42061:1 42454:1 42469:1 42744:1 43282:1 43891:1 43894:1 44204:1 44215:1 44220:1 44225:1 44742:1 45083:1 45106:1 45114:1 45341:1 45379:1 45693:1 45952:1 46227:1 46264:1 46318:1 46785:1 46907:1 46929:1 47341:1 47466:1 47639:1 47705:1 47782:1 47953:1 47964:1 48215:1 48352:1 48390:1 49024:1 49059:1 49066:1 49111:1 49782:1 49857:1 49907:1 49975:1 50407:1 50640:1 51198:1 51203:1 51343:1 51625:1 52061:1 52237:1 52308:1 52609:1 52770:1 52857:1 53174:1 53752:1 53951:1 54011:1 54048:1 54287:1 54350:1 54469:1 55142:1 55796:1 56155:1 57194:1 57321:1 57375:1 57478:1 57491:1 58213:1 59124:1 59310:1 59355:1 59423:1 59562:1 59569:1 59646:1 59939:1 60150:1 60163:1 60398:1 61324:1 61433:1 61765:1 61800:1 61823:1 62357:1 62474:1 62718:1 62765:1 63148:1 63230:1 63279:1 63550:1 65015:1 65052:1 65065:1 65070:1 65130:1 65147:1 65205:1 65208:1 65251:1 66174:1 66311:1 66427:1 66435:1 66539:1 66562:1 66740:1 67106:1 67162:1 67183:1 67598:1 67618:1 67674:1 67700:1 67814:1 67845:1 67927:1 68053:1 68165:1 68361:1 68480:1 68581:1 68727:1 68976:1 69207:1 69354:1 69699:1 70139:1 70177:1 71190:1 71254:1 71422:1 71868:1 71899:1 71970:1 72078:1 72639:1 72698:1 72715:1 73627:1 74007:1 74122:1 74132:1 74138:1 74274:1 74293:1 75911:1 76487:1 76585:1 76810:1 76920:1 77105:1 77109:1 77367:1 77780:1 77945:1 78052:1 78393:1 78543:1 78596:1 78598:1 80044:1 80640:1 80651:1 80672:1 80871:1 81034:1 81564:1 82355:1 82935:1 82942:1 82950:1 82958:1 83055:1 83070:1 83590:1 83762:1 83845:1 83962:1 84378:1 84487:1 85154:1 85280:1 85454:1 85667:1 85867:1 86637:1 86645:1 86714:1 86728:1 86739:1 87494:1 87785:1 87793:1 87889:1 87921:1 88017:1 88020:1 88127:1 88301:1 88381:1 88420:1 88448:1 88477:1 88506:1 89002:1 89012:1 89053:1 89480:1 90426:1 90448:1 90470:1 90513:1 90586:1 90720:1 90868:1 91095:1 91439:1 91478:1 91689:1 93192:1 93254:1 93334:1 94493:1 94650:1 94858:1 94864:1 94880:1 94887:1 95933:1 96111:1 97419:1 97545:1 97629:1 97689:1 97868:1 98095:1 98166:1 98177:1 98270:1 98464:1 98533:1 98561:1 98731:1 99066:1 99100:1 99133:1 99187:1 99288:1 99335:1 99340:1 99531:1 100328:1 100338:1 100393:1 100609:1 100642:1 #
0.00045446297008946929868108965955287 17:1 21:1 23:1 28:1 29:1 30:1 31:1 225:1 3020:1 3143:1 3484:1 4043:1 4044:1 5245:1 10494:1 10573:1 10575:1 10849:1 13232:1 13860:1 14407:1 14624:1 14676:1 14690:1 14696:1 14739:1 15069:1 15754:1 15888:1 16389:1 17832:1 17870:1 18064:1 18245:1 18319:1 20275:1 20777:1 21750:1 22224:1 22268:1 22373:1 22599:1 22867:1 22969:1 23612:1 24086:1 25254:1 25702:1 26080:1 26533:1 26848:1 27132:1 28374:1 29476:1 30231:1 31750:1 32691:1 33377:1 33617:1 34551:1 34788:1 35696:1 36111:1 36561:1 38186:1 38458:1 41242:1 41259:1 41279:1 41848:1 42000:1 42469:1 43717:1 46247:1 48596:1 49185:1 49907:1 51552:1 52061:1 52271:1 54662:1 54663:1 55842:1 55846:1 56549:1 56664:1 57191:1 57478:1 58005:1 58466:1 59310:1 59566:1 59765:1 59818:1 64008:1 64540:1 65147:1 66044:1 67106:1 67126:1 67140:1 67674:1 68053:1 68480:1 68553:1 68581:1 69232:1 69730:1 69733:1 72046:1 73596:1 73608:1 73756:1 73859:1 73875:1 74138:1 74248:1 74282:1 74364:1 74367:1 75142:1 75146:1 76856:1 77094:1 77387:1 77464:1 77728:1 77785:1 78087:1 79029:1 80871:1 81088:1 81511:1 81524:1 82437:1 82994:1 83304:1 84232:1 85454:1 85852:1 85872:1 86237:1 87239:1 87248:1 88146:1 89053:1 89214:1 89223:1 89546:1 90186:1 90470:1 90720:1 90857:1 90916:1 91095:1 91439:1 91478:1 93273:1 93334:1 94493:1 94858:1 94864:1 95305:1 96717:1 97855:1 98134:1 98140:1 98464:1 98707:1 98731:1 100609:1 100642:1 #
-0.0014523316382730314978710683959662 23:1 28:1 29:1 30:1 1949:1 3141:1 4548:1 10494:1 10574:1 10575:1 10582:1 16466:1 25958:1 26080:1 34925:1 36111:1 40679:1 41550:1 41993:1 44729:1 59310:1 62042:1 73842:1 80871:1 81381:1 86494:1 88017:1 90720:1 91439:1 101623:1 #
0.00028758848740474191778629386995192 2:1 18:1 21:1 23:1 24:1 25:1 27:1 28:1 29:1 30:1 31:1 33:1 348:1 773:1 774:1 1190:1 1350:1 1541:1 1697:1 2274:1 2275:1 2277:1 6095:1 7061:1 8843:1 9502:1 10494:1 10499:1 10572:1 10573:1 10575:1 10577:1 10582:1 11148:1 11409:1 11522:1 11550:1 11565:1 11729:1 11730:1 11757:1 11895:1 11914:1 12121:1 12187:1 12249:1 12334:1 12992:1 13622:1 13738:1 13860:1 14407:1 14684:1 14686:1 15048:1 15399:1 15456:1 15756:1 15888:1 17514:1 17832:1 18014:1 18040:1 18632:1 20005:1 20198:1 21139:1 21284:1 21564:1 21602:1 21658:1 21750:1 22039:1 22264:1 22827:1 23111:1 23842:1 24070:1 24437:1 25254:1 26080:1 26245:1 26654:1 27388:1 27464:1 27916:1 28224:1 28277:1 28716:1 29405:1 29476:1 30121:1 30124:1 30191:1 30252:1 30433:1 30576:1 31868:1 32259:1 32532:1 33075:1 33377:1 33397:1 33478:1 33516:1 34788:1 35254:1 35256:1 36098:1 36561:1 36799:1 37783:1 38139:1 38491:1 38508:1 39168:1 39363:1 39563:1 40258:1 40400:1 40747:1 40787:1 41098:1 41279:1 41848:1 42061:1 42287:1 42454:1 42469:1 42744:1 44220:1 44312:1 45110:1 45278:1 45349:1 46227:1 46238:1 46318:1 46465:1 46785:1 46929:1 47782:1 48215:1 48390:1 49111:1 49185:1 49907:1 49975:1 50059:1 50061:1 50139:1 50242:1 50406:1 50587:1 50640:1 51060:1 51552:1 51596:1 52061:1 52237:1 52308:1 52609:1 52770:1 52857:1 53174:1 54011:1 54048:1 54316:1 54699:1 55081:1 56175:1 56181:1 57190:1 57191:1 57194:1 57478:1 58172:1 59310:1 59355:1 59408:1 59742:1 59765:1 59950:1 60398:1 61433:1 61800:1 61893:1 61909:1 63148:1 63279:1 64358:1 64827:1 65015:1 65063:1 65065:1 65069:1 65136:1 65147:1 65205:1 65208:1 65685:1 66044:1 66157:1 66174:1 66427:1 66539:1 66562:1 66847:1 67106:1 67126:1 67598:1 67674:1 67700:1 68053:1 68245:1 68247:1 68480:1 68581:1 68667:1 69207:1 69481:1 69699:1 70195:1 70862:1 71899:1 74122:1 74138:1 74634:1 75143:1 75178:1 75911:1 75984:1 76804:1 76870:1 77945:1 77949:1 78005:1 78393:1 78534:1 78543:1 78546:1 78969:1 79113:1 79417:1 80667:1 80871:1 82199:1 82621:1 82950:1 82958:1 82969:1 83590:1 84265:1 84493:1 85257:1 85280:1 85341:1 85454:1 85884:1 86320:1 86739:1 87052:1 87221:1 87494:1 87785:1 87793:1 87921:1 88325:1 88793:1 88995:1 89002:1 89053:1 89434:1 89780:1 90267:1 90448:1 90470:1 90513:1 90529:1 90543:1 90586:1 90691:1 90720:1 91095:1 91439:1 91478:1 92735:1 93192:1 93987:1 94288:1 94493:1 94514:1 94650:1 94858:1 94880:1 94890:1 94911:1 95179:1 95708:1 95896:1 96402:1 96894:1 96903:1 97312:1 98095:1 98134:1 98166:1 98219:1 98464:1 98530:1 98533:1 98731:1 99059:1 99067:1 99076:1 99100:1 99133:1 99284:1 99335:1 99348:1 99351:1 99531:1 99624:1 100338:1 100609:1 100642:1 #
2.5224263013067828309576867695796e-11 24:1 25:1 29:1 30:1 31:1 271:1 773:1 774:1 1030:1 1152:1 2038:1 2291:1 3089:1 3338:1 3374:1 3419:1 3785:1 4569:1 5004:1 5245:1 5388:1 5888:1 6363:1 7061:1 7595:1 8089:1 8844:1 9247:1 9637:1 10494:1 10573:1 10575:1 12256:1 12560:1 12992:1 13362:1 15069:1 15735:1 15739:1 16185:1 16385:1 16703:1 19637:1 19987:1 21840:1 22111:1 22550:1 22599:1 22783:1 23842:1 25935:1 26993:1 28043:1 30143:1 32210:1 34150:1 34186:1 34961:1 35333:1 36233:1 36840:1 39424:1 43891:1 45263:1 45264:1 49907:1 50587:1 51547:1 52290:1 54503:1 58125:1 60896:1 61715:1 61749:1 67126:1 70076:1 71427:1 75143:1 76585:1 77524:1 79710:1 79884:1 80871:1 81233:1 82794:1 85184:1 85623:1 86637:1 87732:1 89934:1 90971:1 91439:1 93108:1 93334:1 94276:1 94534:1 94621:1 94852:1 97077:1 97243:1 99558:1 99715:1 99806:1 100788:1 #
7.6476602127695703266241356033106e-05 29:1 30:1 31:1 10499:1 10573:1 10575:1 10582:1 13860:1 14774:1 15069:1 15739:1 20690:1 27606:1 29405:1 42287:1 46318:1 47414:1 47419:1 47429:1 57321:1 58396:1 59156:1 67140:1 67382:1 67598:1 74031:1 77441:1 87052:1 90720:1 91095:1 91439:1 95773:1 97077:1 97629:1 98731:1 99210:1 99351:1 100609:1 #
-0.0091427984194731911488096542939275 10574:1 10575:1 #
0.0026409634279219531584337321561406 17:1 23:1 29:1 30:1 10494:1 10573:1 10575:1 10582:1 13860:1 15888:1 38215:1 43533:1 46769:1 46929:1 47782:1 51738:1 52061:1 55149:1 59778:1 65147:1 78596:1 80871:1 81259:1 81471:1 82437:1 91439:1 91507:1 100609:1 100642:1 #
0.0021357109532192200020139782878914 31:1 225:1 654:1 2514:1 10573:1 10575:1 15904:1 21840:1 26419:1 30231:1 40328:1 41279:1 42287:1 52142:1 94806:1 #
0.0019787456663186158041523032835585 29:1 30:1 5249:1 7538:1 10573:1 10575:1 37792:1 48251:1 73291:1 92914:1 97565:1 #
-0.00024609653337166959496604135004816 28:1 30:1 10499:1 10574:1 10575:1 18014:1 47110:1 48203:1 58167:1 65685:1 69797:1 75850:1 82437:1 91095:1 100154:1 #
-0.00067395705458070918631580115132351 17:1 10494:1 10574:1 10575:1 10582:1 16540:1 16624:1 25254:1 28692:1 40469:1 43851:1 48210:1 63412:1 65359:1 67700:1 78391:1 #
-0.00051467987764942393046074808893309 28:1 29:1 30:1 31:1 10494:1 10499:1 10574:1 10575:1 10582:1 11150:1 11522:1 11624:1 11793:1 12807:1 13860:1 15744:1 16845:1 18014:1 18086:1 19118:1 19704:1 22251:1 24297:1 24308:1 24438:1 27016:1 28296:1 29372:1 29964:1 31419:1 33181:1 34228:1 36307:1 37842:1 38710:1 39233:1 39360:1 39363:1 41175:1 41279:1 45083:1 46227:1 46785:1 47429:1 47782:1 49907:1 51200:1 51207:1 51552:1 52061:1 52206:1 56682:1 57243:1 59765:1 60912:1 62137:1 64811:1 67106:1 68113:1 68165:1 68581:1 70346:1 72599:1 72828:1 74007:1 74266:1 78661:1 78789:1 80281:1 80652:1 81857:1 82604:1 82958:1 86171:1 87545:1 90470:1 90513:1 90585:1 91439:1 92238:1 94858:1 94963:1 98731:1 100328:1 100642:1 #
-0.00069527202708195043161232273831729 23:1 25:1 30:1 10495:1 10574:1 10575:1 10849:1 11257:1 11362:1 12328:1 12649:1 13051:1 14114:1 15734:1 16025:1 16089:1 18029:1 18319:1 18845:1 19469:1 20404:1 20813:1 21410:1 22264:1 24546:1 25952:1 27893:1 29721:1 30172:1 31177:1 32128:1 33849:1 34030:1 34098:1 37284:1 37498:1 38607:1 39026:1 39771:1 40723:1 44015:1 45611:1 46929:1 48864:1 52237:1 52638:1 56932:1 58633:1 59423:1 60141:1 64304:1 64836:1 67343:1 71395:1 71899:1 73782:1 75235:1 75843:1 75935:1 80187:1 80871:1 83369:1 83755:1 85906:1 87403:1 89265:1 90303:1 90426:1 90470:1 90720:1 91439:1 92959:1 93308:1 94751:1 95980:1 98464:1 98731:1 100609:1 101267:1 #
0.00015758269312236543465387261786503 17:1 20:1 23:1 24:1 25:1 28:1 29:1 30:1 31:1 34:1 225:1 291:1 348:1 461:1 527:1 980:1 1166:1 1323:1 1474:1 1665:1 1698:1 1927:1 2021:1 2038:1 2274:1 2291:1 3319:1 4043:1 7061:1 8412:1 8844:1 9372:1 10143:1 10494:1 10499:1 10573:1 10575:1 10582:1 10789:1 11148:1 11381:1 11399:1 11421:1 11546:1 11880:1 12114:1 12187:1 12560:1 12593:1 12711:1 12992:1 13122:1 13243:1 13738:1 13860:1 13968:1 14407:1 14676:1 14690:1 14696:1 14917:1 15069:1 15374:1 15432:1 15456:1 15888:1 15969:1 15972:1 15974:1 16466:1 16624:1 16733:1 17564:1 17832:1 17906:1 17926:1 18040:1 18245:1 18557:1 18777:1 19143:1 19152:1 19311:1 19673:1 20109:1 20130:1 21750:1 21840:1 21864:1 22260:1 22264:1 22373:1 22668:1 22769:1 23742:1 23823:1 23842:1 23848:1 23915:1 23939:1 23946:1 24600:1 24793:1 24913:1 24932:1 25109:1 25165:1 25239:1 25254:1 25327:1 25441:1 25444:1 25579:1 25581:1 25612:1 25942:1 26080:1 26084:1 26127:1 26153:1 26183:1 26848:1 27151:1 27518:1 27540:1 27566:1 27916:1 27917:1 28355:1 28627:1 28737:1 29292:1 29479:1 29548:1 29885:1 29888:1 30160:1 30231:1 30252:1 30299:1 30300:1 30578:1 30830:1 31096:1 31218:1 31305:1 31337:1 31985:1 33377:1 33577:1 33617:1 33893:1 34788:1 34795:1 35129:1 35696:1 36521:1 36663:1 36738:1 36919:1 36939:1 38186:1 38215:1 38426:1 38460:1 38565:1 38575:1 38850:1 39170:1 39322:1 39363:1 39374:1 39422:1 39424:1 39443:1 39571:1 39731:1 39741:1 39783:1 39784:1 39991:1 40400:1 40679:1 40843:1 40844:1 40922:1 41170:1 41175:1 41279:1 41507:1 41999:1 42061:1 42577:1 42744:1 43227:1 43533:1 43894:1 43967:1 44322:1 44351:1 44551:1 44835:1 45284:1 45746:1 46318:1 46586:1 46769:1 46929:1 47462:1 47643:1 47782:1 48340:1 48479:1 48528:1 48568:1 48979:1 49049:1 49050:1 49054:1 49075:1 49540:1 49798:1 49834:1 49907:1 49968:1 49975:1 50058:1 50061:1 50062:1 50165:1 50205:1 50274:1 50275:1 50284:1 50371:1 50640:1 51106:1 52061:1 52203:1 52237:1 52290:1 52308:1 52510:1 52513:1 52619:1 52721:1 52982:1 53022:1 54347:1 54431:1 54511:1 55681:1 55731:1 55898:1 55903:1 55982:1 56340:1 56514:1 56911:1 56932:1 57037:1 57042:1 57067:1 57321:1 57375:1 57445:1 57472:1 57580:1 57612:1 57652:1 57762:1 57990:1 58326:1 59028:1 59115:1 59310:1 59423:1 59554:1 60020:1 60386:1 60398:1 60689:1 60951:1 61433:1 61659:1 61716:1 61718:1 61864:1 61893:1 62067:1 62147:1 62282:1 62357:1 62520:1 62769:1 62923:1 63062:1 63408:1 63493:1 63550:1 63974:1 64008:1 64483:1 64522:1 64524:1 64552:1 64652:1 64811:1 65147:1 65441:1 65451:1 65685:1 65849:1 65885:1 66044:1 66085:1 66427:1 66583:1 66650:1 66655:1 67106:1 67140:1 67152:1 67262:1 67306:1 67598:1 67618:1 67674:1 67700:1 68010:1 68053:1 68480:1 68487:1 68553:1 68590:1 69158:1 69207:1 69232:1 69638:1 69652:1 69831:1 70080:1 70212:1 70490:1 70553:1 70653:1 70716:1 71012:1 71261:1 71351:1 71610:1 71920:1 71993:1 72001:1 72046:1 72078:1 72250:1 72736:1 72835:1 73420:1 73875:1 74138:1 74165:1 74248:1 74266:1 74282:1 74476:1 74635:1 74944:1 74969:1 75142:1 75143:1 76688:1 77094:1 77095:1 78087:1 78464:1 78539:1 78629:1 78763:1 78789:1 78855:1 79024:1 79841:1 79927:1 80281:1 80344:1 80871:1 80933:1 81148:1 81194:1 81471:1 81611:1 82165:1 82222:1 82314:1 82315:1 82383:1 82437:1 82491:1 82735:1 82950:1 82958:1 83007:1 84180:1 84378:1 84608:1 84621:1 84685:1 84924:1 85154:1 85454:1 85575:1 85680:1 85686:1 85730:1 85852:1 85974:1 85975:1 86340:1 86637:1 86651:1 86689:1 86723:1 86728:1 86739:1 86756:1 86821:1 87401:1 87448:1 87732:1 87785:1 88127:1 88146:1 88325:1 89053:1 89214:1 89224:1 89278:1 89541:1 89546:1 89702:1 90186:1 90448:1 90470:1 90475:1 90543:1 90586:1 90624:1 90720:1 90857:1 90970:1 90972:1 90974:1 91095:1 91354:1 91409:1 91439:1 91850:1 91887:1 92194:1 92296:1 92352:1 92585:1 92911:1 93219:1 93768:1 94191:1 94260:1 94493:1 94621:1 94634:1 94653:1 94858:1 94864:1 94960:1 94962:1 95305:1 95315:1 95368:1 95896:1 96034:1 96454:1 96839:1 97080:1 97312:1 97431:1 97669:1 97689:1 97771:1 97774:1 97779:1 97855:1 97884:1 97960:1 97977:1 98166:1 98177:1 98270:1 98323:1 98464:1 98731:1 98757:1 99121:1 99133:1 99187:1 99210:1 100592:1 100609:1 100642:1 100673:1 #
-0.0044807892242012389502625602233365 23:1 10574:1 10575:1 14706:1 33417:1 58611:1 67598:1 80871:1 86739:1 90470:1 100642:1 #
-0.0091427984194731911488096542939275 10574:1 10575:1 #
9.9224091108503727535171401452629e-05 17:1 18:1 22:1 23:1 24:1 25:1 28:1 29:1 30:1 31:1 463:1 1190:1 1799:1 1837:1 2038:1 2140:1 2234:1 2291:1 3310:1 3904:1 4969:1 5639:1 5664:1 6530:1 7968:1 8596:1 8620:1 8627:1 8850:1 8942:1 10494:1 10572:1 10573:1 10575:1 10582:1 11069:1 12187:1 12334:1 12364:1 13243:1 13381:1 13738:1 13860:1 13876:1 14089:1 15069:1 15070:1 15718:1 15888:1 16064:1 16873:1 17154:1 17298:1 17832:1 17926:1 18014:1 18040:1 18179:1 18291:1 18372:1 18964:1 20148:1 20734:1 21328:1 21602:1 21833:1 21851:1 22264:1 22322:1 23063:1 23215:1 23812:1 24535:1 24636:1 25087:1 25199:1 25581:1 25958:1 26080:1 26365:1 26402:1 26406:1 28508:1 28771:1 29973:1 30122:1 30143:1 30178:1 31110:1 33250:1 33476:1 33617:1 33969:1 34575:1 34788:1 34795:1 35842:1 38172:1 39178:1 39305:1 39316:1 39363:1 39443:1 40537:1 41221:1 41245:1 41279:1 41551:1 41777:1 41848:1 42000:1 42061:1 43014:1 43439:1 43533:1 44380:1 44940:1 45638:1 45900:1 46183:1 46227:1 46318:1 46465:1 46929:1 47205:1 47242:1 47429:1 48175:1 48390:1 48494:1 48864:1 49049:1 49907:1 50062:1 51421:1 52061:1 52082:1 52822:1 53111:1 53292:1 53364:1 53720:1 53780:1 53791:1 53826:1 54212:1 56911:1 57762:1 58222:1 58597:1 59156:1 59259:1 59310:1 59350:1 60028:1 60143:1 60771:1 61167:1 61168:1 61169:1 61433:1 61733:1 63401:1 64131:1 64360:1 65015:1 65147:1 65985:1 66044:1 66174:1 66650:1 66658:1 67106:1 67152:1 67439:1 67445:1 67598:1 68053:1 69731:1 71859:1 72046:1 73474:1 73859:1 73875:1 74201:1 74248:1 74616:1 76196:1 76353:1 78038:1 78087:1 80104:1 80871:1 81284:1 81857:1 82014:1 83055:1 83388:1 85154:1 85280:1 85454:1 85493:1 85551:1 86237:1 87596:1 87732:1 89117:1 89164:1 89968:1 90435:1 90448:1 90470:1 90624:1 90647:1 90720:1 90883:1 91095:1 91439:1 91478:1 91651:1 91997:1 92211:1 93192:1 93219:1 94621:1 95337:1 96130:1 96454:1 97312:1 97419:1 97771:1 97781:1 98095:1 98270:1 98464:1 98731:1 99121:1 99335:1 99531:1 100328:1 100338:1 100609:1 100642:1 #
-0.0091427984194731911488096542939275 30:1 10574:1 10575:1 53101:1 #
-0.00034141718768193466456567497502306 28:1 29:1 30:1 1137:1 1981:1 4522:1 7764:1 8591:1 8720:1 10494:1 10572:1 10574:1 10575:1 12362:1 14047:1 15069:1 15310:1 16845:1 18014:1 21750:1 25182:1 26121:1 26127:1 28435:1 33685:1 34150:1 34259:1 36098:1 38720:1 39441:1 43004:1 43350:1 43502:1 43533:1 45810:1 46735:1 48152:1 55898:1 56678:1 56911:1 57580:1 58380:1 58454:1 60771:1 61963:1 62682:1 63193:1 65015:1 65251:1 67306:1 69786:1 70787:1 71266:1 71463:1 72046:1 72828:1 73506:1 83710:1 85252:1 85493:1 86723:1 89262:1 89688:1 90529:1 90624:1 90647:1 91095:1 91212:1 91439:1 91653:1 96709:1 97419:1 98270:1 98978:1 98999:1 100355:1 #
0.00052422139460008444072913746936138 28:1 29:1 30:1 31:1 281:1 411:1 461:1 773:1 3966:1 4075:1 6768:1 7968:1 10494:1 10497:1 10499:1 10573:1 10575:1 10582:1 11565:1 11816:1 12826:1 13860:1 15888:1 17728:1 17968:1 21773:1 23374:1 24664:1 24740:1 26080:1 27992:1 33357:1 33377:1 34175:1 34788:1 36098:1 41848:1 43533:1 44105:1 44350:1 45028:1 48390:1 48864:1 49053:1 52471:1 55172:1 56603:1 59347:1 59400:1 59542:1 61871:1 61930:1 62069:1 62819:1 63429:1 64242:1 64247:1 64630:1 65017:1 65407:1 67649:1 68404:1 70694:1 74254:1 75361:1 80041:1 84004:1 84574:1 86247:1 89842:1 93059:1 93197:1 93241:1 93262:1 94832:1 96317:1 97077:1 98384:1 99531:1 100896:1 100917:1 100933:1 100965:1 101065:1 101351:1 101355:1 101381:1 #
0.00025139218964665842499794923270429 29:1 10573:1 10575:1 10582:1 12219:1 15456:1 24070:1 27606:1 31640:1 41279:1 41588:1 45705:1 48864:1 49907:1 52237:1 52308:1 59932:1 64909:1 66081:1 66174:1 67598:1 71556:1 77540:1 85477:1 90647:1 90720:1 91439:1 93723:1 97419:1 98256:1 100642:1 #
0.0088235269946326608941911118222379 29:1 4043:1 10573:1 10575:1 28737:1 29753:1 31724:1 49907:1 90280:1 #
-0.00032727888814002969314342905704507 26:1 29:1 1350:1 10494:1 10574:1 10575:1 12093:1 14691:1 15398:1 18415:1 22834:1 24070:1 24577:1 27597:1 28205:1 28814:1 30143:1 33720:1 34002:1 34367:1 34788:1 36561:1 40258:1 56491:1 59018:1 59820:1 60192:1 60530:1 61449:1 65098:1 65147:1 66635:1 67598:1 69241:1 76124:1 79312:1 81538:1 83559:1 85428:1 88189:1 88336:1 90402:1 90470:1 92170:1 94621:1 95179:1 97379:1 100642:1 #
-4.0379462899689893520989436570545e-05 23:1 28:1 30:1 10574:1 10575:1 11721:1 12077:1 12114:1 12758:1 12882:1 13681:1 13799:1 14011:1 15818:1 16466:1 16687:1 17081:1 17219:1 17523:1 17983:1 18050:1 18275:1 18378:1 18599:1 19385:1 19700:1 20425:1 21006:1 21386:1 22657:1 22689:1 23612:1 23771:1 24459:1 24531:1 25115:1 26079:1 26795:1 26923:1 27496:1 28618:1 28676:1 29500:1 29753:1 30024:1 30257:1 30462:1 31539:1 31652:1 32129:1 32204:1 32227:1 35421:1 35886:1 36259:1 37524:1 37628:1 37633:1 38780:1 39199:1 40742:1 41279:1 41614:1 43351:1 43391:1 44565:1 45471:1 46139:1 46929:1 47044:1 47175:1 48230:1 50091:1 50298:1 52061:1 53991:1 54819:1 55842:1 56853:1 57321:1 57641:1 58466:1 61148:1 61951:1 62064:1 62459:1 63331:1 67103:1 67910:1 69403:1 69569:1 69867:1 70641:1 70831:1 70864:1 71710:1 72083:1 72160:1 72581:1 72800:1 73756:1 74984:1 75114:1 76006:1 76207:1 76222:1 76392:1 77353:1 77497:1 77944:1 79077:1 85370:1 85607:1 85662:1 85798:1 85879:1 86793:1 87224:1 88044:1 89853:1 90779:1 90998:1 91764:1 92182:1 92650:1 92756:1 92894:1 93669:1 95889:1 96069:1 97509:1 97691:1 98560:1 99105:1 100355:1 100382:1 #
-0.00035738894661337740647419347617131 23:1 28:1 31:1 773:1 1190:1 1350:1 1541:1 2038:1 2262:1 2275:1 2291:1 2514:1 2860:1 2867:1 3270:1 4043:1 5245:1 6168:1 8842:1 10574:1 10575:1 13860:1 15420:1 16464:1 21840:1 22955:1 25479:1 26023:1 29256:1 31077:1 32101:1 34868:1 36188:1 36228:1 40501:1 40565:1 44319:1 52999:1 56509:1 57472:1 58659:1 59914:1 62583:1 68553:1 72625:1 72729:1 74138:1 79512:1 80222:1 80224:1 80871:1 84166:1 90435:1 90470:1 94213:1 96034:1 99624:1 #
-0.00065538410993486639812694027895645 30:1 1350:1 2224:1 10494:1 10574:1 10575:1 10576:1 10578:1 33969:1 34078:1 42061:1 49907:1 52118:1 55434:1 56082:1 57993:1 60065:1 76804:1 79407:1 82579:1 #
-0.00051356742558898737550932001028059 17:1 20:1 29:1 30:1 31:1 1350:1 1542:1 1773:1 2141:1 2276:1 3718:1 4285:1 6705:1 7247:1 7535:1 7969:1 8158:1 9563:1 10494:1 10574:1 10575:1 13397:1 13651:1 14865:1 14951:1 16483:1 18319:1 18679:1 24833:1 25861:1 26080:1 32155:1 34234:1 40400:1 42508:1 48390:1 49185:1 49907:1 52237:1 63678:1 64466:1 64811:1 67106:1 68553:1 71992:1 74414:1 75142:1 76479:1 82437:1 83693:1 85443:1 85499:1 91478:1 92113:1 93655:1 98095:1 98349:1 98464:1 100546:1 100609:1 100673:1 101272:1 #
0.0030082961483734621012386956095952 17:1 30:1 4043:1 7017:1 10573:1 10575:1 15465:1 53766:1 60771:1 72046:1 87758:1 90428:1 91439:1 95198:1 99624:1 100609:1 100642:1 100831:1 #
0.00053499852166032362422304347049362 28:1 30:1 10573:1 10575:1 10582:1 13362:1 15315:1 15456:1 15739:1 15888:1 18179:1 29977:1 30752:1 31750:1 48099:1 48864:1 59423:1 61015:1 64131:1 65251:1 67106:1 67162:1 67598:1 68581:1 72046:1 77242:1 82710:1 83388:1 90470:1 91439:1 92352:1 97771:1 97868:1 97928:1 98091:1 98464:1 100609:1 #
-0.0043917631863388748025833763222181 10574:1 10575:1 22867:1 41279:1 67674:1 88482:1 89214:1 #
-0.00090050914271558074770951396459395 28:1 29:1 30:1 10494:1 10572:1 10574:1 10575:1 10582:1 10789:1 10849:1 11069:1 11076:1 11148:1 11162:1 11399:1 11553:1 12841:1 13118:1 13243:1 13293:1 13738:1 13860:1 14407:1 14624:1 15069:1 15456:1 15580:1 15735:1 15888:1 16056:1 16057:1 17832:1 17926:1 18014:1 18245:1 19507:1 20988:1 20989:1 21638:1 21750:1 22264:1 22373:1 22852:1 23842:1 25261:1 26127:1 26354:1 26627:1 26784:1 26979:1 27464:1 27489:1 27585:1 30433:1 31326:1 32259:1 32274:1 32559:1 32647:1 33516:1 34963:1 35445:1 36098:1 36111:1 36899:1 38710:1 41279:1 42061:1 42430:1 42635:1 46051:1 46227:1 46318:1 46329:1 46785:1 49098:1 49185:1 49907:1 49975:1 50640:1 50932:1 51694:1 52061:1 52237:1 55081:1 56619:1 57478:1 57668:1 59156:1 59373:1 59423:1 60398:1 61167:1 61168:1 63279:1 66044:1 66063:1 66085:1 67106:1 67262:1 67598:1 67604:1 67618:1 67700:1 68053:1 68113:1 68165:1 68553:1 69220:1 69854:1 70522:1 70795:1 72046:1 72608:1 73714:1 74029:1 74248:1 74266:1 74557:1 74559:1 76810:1 76920:1 77105:1 77693:1 77729:1 77737:1 78401:1 78410:1 78520:1 78763:1 78840:1 78842:1 79107:1 80983:1 80985:1 80990:1 81564:1 82396:1 82412:1 82770:1 84060:1 84378:1 84385:1 85375:1 85454:1 85475:1 86154:1 86959:1 87758:1 87921:1 88381:1 88516:1 88522:1 89223:1 89702:1 90029:1 90448:1 90470:1 90501:1 90513:1 90624:1 90647:1 90720:1 90785:1 90857:1 91095:1 91330:1 91439:1 91659:1 93273:1 94534:1 94547:1 94621:1 94641:1 94696:1 94858:1 94911:1 95896:1 97629:1 97689:1 98134:1 98464:1 98561:1 98731:1 99076:1 100609:1 100642:1 #
0.00031936837614918709739308955164461 24:1 25:1 27:1 28:1 29:1 30:1 32:1 1248:1 1901:1 2291:1 3174:1 3369:1 5245:1 5603:1 7061:1 10494:1 10499:1 10572:1 10573:1 10575:1 10582:1 11570:1 13860:1 14407:1 14419:1 14817:1 15456:1 15888:1 16032:1 16325:1 16327:1 17230:1 17832:1 18075:1 20148:1 21750:1 22634:1 23850:1 24910:1 26080:1 26402:1 26961:1 27464:1 27534:1 27914:1 30433:1 30994:1 32647:1 32651:1 33377:1 34788:1 36059:1 36098:1 36686:1 37551:1 38855:1 41279:1 42061:1 45901:1 46318:1 46735:1 47042:1 47328:1 48152:1 49185:1 49604:1 49907:1 51244:1 52061:1 52237:1 53278:1 53332:1 54741:1 57375:1 57821:1 58155:1 58601:1 59310:1 59566:1 60398:1 60771:1 61433:1 63066:1 64242:1 64360:1 66044:1 66104:1 66427:1 67106:1 67170:1 67598:1 67700:1 68053:1 68553:1 68979:1 70082:1 70787:1 70795:1 72046:1 72260:1 72698:1 72751:1 74007:1 75819:1 77094:1 77095:1 77101:1 77165:1 77693:1 77729:1 78430:1 80871:1 81045:1 82713:1 83762:1 84943:1 85366:1 87333:1 88184:1 89002:1 89880:1 90402:1 90470:1 90513:1 90720:1 91439:1 92263:1 92408:1 92807:1 93767:1 94277:1 94858:1 96211:1 97629:1 98464:1 98731:1 98757:1 99160:1 100609:1 100642:1 #
0.0001561465225438295146773159949305 28:1 29:1 30:1 34:1 1648:1 9372:1 10573:1 10575:1 13860:1 22158:1 34851:1 53731:1 65778:1 68727:1 79407:1 82770:1 90470:1 90870:1 97320:1 97774:1 #
0.00018145096884612804547312614467103 17:1 20:1 21:1 23:1 24:1 25:1 28:1 29:1 30:1 33:1 527:1 773:1 774:1 775:1 1029:1 1190:1 1662:1 1837:1 1839:1 2038:1 2274:1 2275:1 2277:1 2291:1 3192:1 3357:1 3484:1 4044:1 4315:1 4633:1 5245:1 6097:1 6098:1 6475:1 6624:1 6711:1 7061:1 7968:1 8089:1 8412:1 8481:1 8842:1 9501:1 10494:1 10495:1 10499:1 10572:1 10573:1 10575:1 10582:1 10849:1 11381:1 11399:1 12187:1 12197:1 12992:1 13738:1 13860:1 14047:1 14145:1 14788:1 15069:1 15270:1 15285:1 15374:1 15420:1 15426:1 15456:1 15844:1 15888:1 16161:1 16905:1 17102:1 17532:1 17748:1 17832:1 17881:1 18014:1 18040:1 18063:1 19123:1 19174:1 19593:1 21276:1 21658:1 21750:1 21955:1 22111:1 22264:1 22354:1 22631:1 22949:1 23119:1 23483:1 24070:1 24177:1 24338:1 24349:1 25109:1 25111:1 25113:1 25254:1 25330:1 26080:1 26127:1 26572:1 26750:1 27464:1 27565:1 27613:1 27675:1 28355:1 28364:1 28941:1 28990:1 29295:1 29753:1 30160:1 30231:1 30557:1 31096:1 31719:1 31849:1 32206:1 32256:1 32597:1 32691:1 33377:1 33484:1 33551:1 33617:1 33627:1 33629:1 33685:1 34153:1 34795:1 34851:1 36098:1 36350:1 36738:1 36840:1 38209:1 38350:1 38565:1 38670:1 38879:1 38977:1 39724:1 40400:1 40891:1 40898:1 40900:1 41227:1 41279:1 41848:1 42061:1 42306:1 42689:1 42693:1 43722:1 44322:1 44835:1 45327:1 45361:1 45776:1 46059:1 46183:1 46227:1 46318:1 46735:1 46785:1 46929:1 47265:1 47429:1 47725:1 47824:1 48030:1 48077:1 48089:1 48150:1 48175:1 48177:1 48187:1 48203:1 48220:1 48444:1 48864:1 49185:1 49485:1 49782:1 49907:1 50058:1 50084:1 50640:1 50996:1 51552:1 52061:1 52735:1 52996:1 53364:1 56698:1 57106:1 57668:1 58213:1 58419:1 58432:1 58448:1 59018:1 59156:1 59216:1 59359:1 59423:1 59550:1 59939:1 60170:1 61098:1 61306:1 61845:1 62042:1 62120:1 62357:1 62478:1 62923:1 62988:1 63148:1 63678:1 63957:1 63983:1 64552:1 64561:1 64686:1 64811:1 64813:1 65251:1 65685:1 66044:1 66161:1 66163:1 66488:1 66489:1 66650:1 66977:1 67104:1 67106:1 67152:1 67598:1 67926:1 68053:1 68165:1 68191:1 68194:1 68581:1 68727:1 69088:1 69143:1 69232:1 69267:1 69646:1 69733:1 69786:1 70522:1 70565:1 70622:1 70795:1 71066:1 72828:1 72835:1 72861:1 73018:1 73276:1 73460:1 73724:1 73946:1 74248:1 74634:1 74643:1 75142:1 75822:1 76353:1 77094:1 77105:1 77315:1 78006:1 78535:1 78588:1 78629:1 78998:1 79365:1 79563:1 79568:1 80178:1 80321:1 80651:1 80871:1 81095:1 81138:1 81191:1 81471:1 81857:1 82299:1 82579:1 82585:1 83450:1 83693:1 83706:1 83717:1 83784:1 83787:1 84302:1 84943:1 85154:1 85667:1 85728:1 85906:1 86167:1 86689:1 87248:1 87785:1 87921:1 88322:1 88325:1 88915:1 89053:1 89253:1 90402:1 90448:1 90470:1 90513:1 90720:1 90797:1 90883:1 90970:1 90974:1 91439:1 94534:1 95596:1 96155:1 96208:1 96209:1 96362:1 96454:1 97481:1 97545:1 97781:1 97868:1 97987:1 98140:1 98177:1 98464:1 98731:1 98971:1 99121:1 99133:1 99531:1 100328:1 100609:1 100642:1 #
-0.00027848174870328873051206208799613 17:1 23:1 28:1 30:1 10499:1 10574:1 10575:1 10582:1 13362:1 18056:1 18122:1 28348:1 31166:1 31601:1 36738:1 41279:1 42287:1 46329:1 48479:1 48864:1 49782:1 52061:1 52237:1 55081:1 56932:1 58222:1 60771:1 60909:1 61200:1 64811:1 65700:1 66044:1 66081:1 67106:1 67598:1 80871:1 82275:1 83087:1 85154:1 85879:1 87194:1 87336:1 90448:1 90470:1 91439:1 94831:1 96834:1 97638:1 98095:1 98971:1 100609:1 #
0.00014198980426488632322276628450197 17:1 22:1 23:1 24:1 25:1 26:1 27:1 28:1 29:1 30:1 31:1 32:1 292:1 775:1 2275:1 2291:1 3606:1 5245:1 5603:1 8173:1 8665:1 8855:1 8914:1 8976:1 10494:1 10495:1 10499:1 10572:1 10573:1 10575:1 10582:1 10849:1 10960:1 11457:1 11611:1 11906:1 12852:1 13519:1 13860:1 14407:1 15374:1 15398:1 15456:1 15888:1 17514:1 17655:1 18557:1 18894:1 19645:1 20168:1 21564:1 21602:1 21665:1 21750:1 22111:1 22264:1 22471:1 22720:1 23789:1 23842:1 24853:1 26080:1 26250:1 26256:1 26402:1 27464:1 27586:1 27590:1 28203:1 29904:1 29973:1 30231:1 30704:1 31194:1 31640:1 31901:1 32717:1 32761:1 32763:1 33139:1 33377:1 33551:1 34788:1 34795:1 35251:1 35669:1 36098:1 36153:1 37533:1 38089:1 38093:1 38508:1 39305:1 39314:1 39722:1 40236:1 40369:1 41279:1 42287:1 42430:1 43466:1 43479:1 43613:1 44047:1 46190:1 46304:1 46318:1 46785:1 47466:1 47713:1 48099:1 48390:1 49185:1 49647:1 49907:1 50407:1 50640:1 50993:1 51153:1 51159:1 51160:1 51163:1 51197:1 51198:1 51421:1 51779:1 51877:1 51878:1 52061:1 52198:1 52206:1 52237:1 52266:1 52659:1 53357:1 53364:1 55081:1 55090:1 55094:1 56010:1 56187:1 56193:1 56504:1 56682:1 57243:1 57420:1 57472:1 57478:1 57509:1 57668:1 58067:1 58155:1 58601:1 59018:1 59176:1 59204:1 59310:1 59355:1 59562:1 59571:1 59939:1 60819:1 61522:1 61639:1 62042:1 62265:1 63148:1 64811:1 65147:1 65190:1 65377:1 65623:1 66161:1 66174:1 66303:1 67106:1 67173:1 67598:1 67618:1 67674:1 67736:1 67926:1 68053:1 68113:1 68553:1 68581:1 68638:1 69151:1 69638:1 69858:1 72046:1 72176:1 72416:1 74007:1 74138:1 74557:1 74950:1 75900:1 76167:1 76189:1 76727:1 76804:1 76827:1 76828:1 76835:1 76894:1 77183:1 77791:1 77876:1 78000:1 78175:1 78241:1 78412:1 78512:1 78788:1 79160:1 79328:1 79566:1 79575:1 79601:1 80871:1 82437:1 82626:1 82958:1 83062:1 84232:1 85428:1 86147:1 86190:1 86637:1 86756:1 87894:1 88083:1 88485:1 88917:1 89880:1 89922:1 90337:1 90402:1 90448:1 90470:1 90513:1 90529:1 90543:1 90586:1 90647:1 90720:1 91095:1 91439:1 91689:1 92095:1 92194:1 92454:1 93590:1 94019:1 94540:1 94831:1 94911:1 96222:1 96454:1 97629:1 97689:1 97732:1 97733:1 97868:1 98318:1 98464:1 98731:1 99076:1 99133:1 99531:1 100609:1 100642:1 #
-6.8957185235211511885843049807221e-05 17:1 18:1 22:1 23:1 24:1 25:1 28:1 29:1 30:1 31:1 1614:1 1972:1 2071:1 2274:1 2873:1 5696:1 8158:1 9502:1 10494:1 10495:1 10497:1 10498:1 10499:1 10574:1 10575:1 10580:1 10582:1 10849:1 11032:1 11071:1 11148:1 11202:1 11565:1 12371:1 12992:1 13738:1 13860:1 14407:1 14446:1 15069:1 15142:1 15456:1 16054:1 16057:1 16336:1 17230:1 17832:1 17926:1 18014:1 18179:1 18245:1 19847:1 20462:1 21750:1 22373:1 22599:1 23848:1 25254:1 25579:1 26080:1 26354:1 26991:1 27916:1 28737:1 29753:1 30122:1 30414:1 30433:1 30492:1 31326:1 31611:1 32273:1 33274:1 33476:1 34795:1 34963:1 34964:1 36098:1 36714:1 37809:1 38135:1 39363:1 40276:1 40400:1 41207:1 41279:1 41341:1 41426:1 42061:1 45353:1 46318:1 46785:1 46790:1 48074:1 48203:1 48215:1 48357:1 48390:1 48392:1 49101:1 49185:1 49907:1 49975:1 50640:1 50795:1 51335:1 51421:1 51870:1 51908:1 52061:1 52174:1 52271:1 56549:1 57472:1 57478:1 58058:1 58075:1 58091:1 59156:1 59765:1 60398:1 61167:1 63148:1 64008:1 66044:1 66088:1 66174:1 66435:1 66635:1 67106:1 67195:1 67598:1 67618:1 68053:1 68480:1 68553:1 68634:1 68980:1 69220:1 69774:1 69786:1 69854:1 70656:1 70795:1 72416:1 72418:1 73913:1 74427:1 74557:1 74634:1 75176:1 75209:1 75911:1 76976:1 77109:1 77728:1 77729:1 78520:1 78631:1 78746:1 78749:1 79478:1 80871:1 80990:1 81328:1 82275:1 82437:1 82710:1 82901:1 84094:1 84378:1 85154:1 87758:1 89002:1 89760:1 90428:1 90448:1 90470:1 90513:1 90543:1 90647:1 90708:1 90918:1 91439:1 92028:1 92047:1 92357:1 92772:1 94558:1 94634:1 94637:1 94831:1 94864:1 94880:1 94887:1 94911:1 95821:1 95829:1 96454:1 97419:1 97629:1 97806:1 98134:1 98177:1 98270:1 98464:1 98731:1 98757:1 99379:1 99531:1 100609:1 100642:1 #
0.00015247522220648745592229411638385 18:1 19:1 20:1 22:1 24:1 25:1 26:1 28:1 29:1 30:1 31:1 32:1 33:1 225:1 773:1 774:1 775:1 1323:1 1390:1 1697:1 1701:1 2275:1 2277:1 2291:1 3144:1 3331:1 3374:1 3484:1 4043:1 4285:1 4468:1 5245:1 5344:1 5603:1 6095:1 6705:1 7457:1 8160:1 8842:1 9281:1 9502:1 9545:1 9728:1 10494:1 10572:1 10573:1 10575:1 10580:1 10582:1 11202:1 11550:1 12187:1 12217:1 12348:1 13860:1 14353:1 14407:1 14735:1 15069:1 15888:1 15889:1 15954:1 17832:1 17934:1 21383:1 21564:1 21669:1 21833:1 22599:1 22794:1 23276:1 23915:1 25257:1 26080:1 26537:1 26993:1 27464:1 28203:1 29407:1 30143:1 30231:1 30363:1 30433:1 31076:1 31745:1 32314:1 32386:1 32826:1 32830:1 32908:1 34150:1 34156:1 34601:1 36098:1 36492:1 36521:1 37261:1 40747:1 40908:1 41279:1 41653:1 42061:1 43031:1 44745:1 46084:1 46120:1 46148:1 46318:1 49185:1 50061:1 50640:1 51232:1 51827:1 52061:1 52266:1 53951:1 54100:1 54512:1 55758:1 57807:1 59573:1 60446:1 61193:1 61433:1 61713:1 61800:1 62735:1 62977:1 63381:1 63550:1 64358:1 65065:1 65147:1 65251:1 65352:1 65685:1 66012:1 66427:1 67106:1 67162:1 67598:1 67618:1 67845:1 68005:1 68053:1 68113:1 69159:1 69207:1 69220:1 69286:1 69412:1 69784:1 70159:1 70509:1 70664:1 71266:1 72046:1 72194:1 73469:1 73756:1 73859:1 74042:1 74049:1 74165:1 74248:1 74635:1 75797:1 75911:1 75974:1 76210:1 77062:1 77301:1 77540:1 77690:1 78142:1 78438:1 78929:1 79111:1 79906:1 80076:1 80388:1 80785:1 80871:1 81095:1 81131:1 82209:1 82770:1 82798:1 82900:1 82950:1 82958:1 83706:1 84270:1 84297:1 84861:1 85280:1 85649:1 85650:1 85830:1 87697:1 87764:1 88325:1 89002:1 89942:1 90428:1 90470:1 90720:1 91095:1 91439:1 91804:1 93229:1 93651:1 94213:1 94621:1 94831:1 94911:1 95179:1 95829:1 96173:1 96212:1 97077:1 97187:1 97629:1 98464:1 98561:1 98731:1 99624:1 100609:1 100642:1 100755:1 101254:1 #
0.00038390542154472087404623592554742 23:1 28:1 29:1 30:1 10494:1 10495:1 10498:1 10499:1 10573:1 10575:1 10582:1 11050:1 12167:1 12237:1 12546:1 12992:1 13192:1 13243:1 13347:1 13362:1 13406:1 13738:1 13860:1 14219:1 14425:1 15069:1 15196:1 15285:1 15374:1 15456:1 15573:1 15888:1 16095:1 16933:1 17832:1 17904:1 17926:1 18040:1 18064:1 18352:1 18557:1 20148:1 20154:1 20275:1 20410:1 20777:1 20890:1 21284:1 21602:1 22264:1 22343:1 23430:1 23755:1 23789:1 23844:1 24049:1 25616:1 26127:1 26153:1 26324:1 26549:1 26839:1 27214:1 27726:1 29527:1 30231:1 30252:1 30443:1 31126:1 32118:1 32340:1 33181:1 33478:1 33617:1 34901:1 34945:1 35215:1 36059:1 36539:1 38172:1 38191:1 38209:1 38218:1 38372:1 38710:1 39414:1 39514:1 39700:1 39778:1 40220:1 40400:1 40537:1 40622:1 40628:1 40820:1 41279:1 41376:1 41544:1 41772:1 41848:1 42061:1 42140:1 42142:1 42287:1 42508:1 42635:1 43533:1 43549:1 43556:1 44220:1 44312:1 44388:1 44498:1 44688:1 44835:1 45103:1 45773:1 46318:1 46329:1 46523:1 46693:1 48203:1 48215:1 48352:1 48541:1 48607:1 48864:1 49075:1 49185:1 49907:1 50210:1 50518:1 51340:1 51552:1 52061:1 52237:1 53826:1 54511:1 54933:1 55081:1 56237:1 56329:1 56580:1 57243:1 57321:1 57668:1 57693:1 57762:1 58167:1 58413:1 58421:1 59423:1 60026:1 60398:1 61429:1 62096:1 62886:1 62947:1 63148:1 63678:1 64012:1 64131:1 64207:1 65130:1 65441:1 65703:1 66044:1 66185:1 66504:1 67010:1 67106:1 67439:1 67598:1 67604:1 67618:1 67700:1 67985:1 68581:1 68625:1 68627:1 68727:1 68730:1 69621:1 69915:1 70057:1 70522:1 70605:1 70878:1 71899:1 72438:1 72828:1 72982:1 72986:1 73193:1 73857:1 74076:1 74171:1 75911:1 76009:1 76804:1 76843:1 76870:1 76969:1 77782:1 78087:1 79468:1 79949:1 80057:1 80281:1 80651:1 80871:1 80978:1 81034:1 81194:1 81564:1 82745:1 83291:1 83762:1 83784:1 84374:1 85154:1 85472:1 85475:1 87221:1 87227:1 87541:1 87639:1 87678:1 88188:1 88322:1 89053:1 89214:1 89262:1 89546:1 89968:1 90038:1 90426:1 90448:1 90470:1 90529:1 90586:1 90647:1 90688:1 90702:1 90720:1 90787:1 91071:1 91095:1 91241:1 91439:1 91608:1 91997:1 92735:1 93192:1 94435:1 94621:1 94831:1 94858:1 96960:1 97313:1 97928:1 98095:1 98134:1 98318:1 98367:1 98464:1 98695:1 98757:1 98966:1 99133:1 99178:1 99187:1 99210:1 99357:1 100328:1 100388:1 100609:1 100642:1 100669:1 #
0.0064642627027965580618906749066355 17:1 30:1 10573:1 10575:1 10582:1 12992:1 13860:1 46059:1 47175:1 56892:1 61392:1 65147:1 99899:1 100328:1 #
0.0012210619622906027353231861454219 23:1 28:1 29:1 30:1 10494:1 10573:1 10575:1 10582:1 20150:1 22634:1 30078:1 31750:1 33617:1 33969:1 34551:1 34788:1 41170:1 41279:1 44312:1 46903:1 47140:1 48203:1 52061:1 53826:1 55081:1 58167:1 59310:1 65124:1 66063:1 67106:1 76804:1 80871:1 83388:1 85615:1 86524:1 86780:1 89053:1 90435:1 90470:1 90720:1 91439:1 92047:1 93901:1 94621:1 97312:1 97629:1 98318:1 100609:1 #
0.00045772831483983738003890051615485 28:1 30:1 10494:1 10573:1 10575:1 13860:1 20690:1 36413:1 41279:1 42508:1 42898:1 68241:1 73018:1 74304:1 77693:1 78400:1 82958:1 86808:1 89738:1 92801:1 97779:1 #
9.9603510201809648556131593366558e-05 28:1 30:1 1190:1 10573:1 10575:1 10582:1 10849:1 12992:1 14407:1 14736:1 17832:1 18014:1 22111:1 27833:1 30231:1 30391:1 30976:1 33941:1 35445:1 37809:1 38209:1 40266:1 41175:1 41279:1 44846:1 46227:1 46318:1 49185:1 49855:1 49907:1 52061:1 55081:1 56932:1 59423:1 60771:1 61013:1 64195:1 65913:1 67106:1 68053:1 68113:1 72046:1 75911:1 77086:1 82014:1 88330:1 88495:1 90470:1 90586:1 90720:1 91111:1 91138:1 91439:1 92047:1 94831:1 98464:1 100609:1 100642:1 #
-5.8421342195018552433984082572493e-05 28:1 29:1 30:1 348:1 463:1 1837:1 2274:1 2867:1 10494:1 10499:1 10574:1 10575:1 11495:1 11971:1 11974:1 12153:1 12306:1 12347:1 13481:1 13593:1 14450:1 14878:1 15643:1 15864:1 16201:1 16246:1 16690:1 16696:1 16712:1 18734:1 18858:1 19264:1 19496:1 19639:1 19661:1 19675:1 21092:1 21423:1 21615:1 23206:1 23301:1 24404:1 24963:1 24970:1 25526:1 28487:1 28517:1 29014:1 29712:1 32040:1 32662:1 33229:1 33233:1 33531:1 33568:1 33919:1 33947:1 34683:1 34791:1 35191:1 35485:1 35486:1 35574:1 36726:1 37914:1 38228:1 38231:1 38306:1 38308:1 38317:1 39068:1 39100:1 39222:1 39662:1 39725:1 40097:1 40103:1 40668:1 41668:1 42191:1 42215:1 42497:1 42502:1 42503:1 42554:1 42562:1 42566:1 42581:1 42617:1 43067:1 43112:1 43126:1 43574:1 43646:1 43677:1 43906:1 44173:1 44580:1 44590:1 44591:1 45493:1 45532:1 45580:1 45615:1 46349:1 46402:1 46929:1 47586:1 48222:1 48302:1 48315:1 48537:1 48688:1 48871:1 49317:1 49380:1 49420:1 49508:1 52305:1 52327:1 52742:1 52765:1 53151:1 53269:1 53273:1 53538:1 53565:1 53606:1 53708:1 53899:1 53921:1 53924:1 53927:1 53931:1 54294:1 54560:1 54566:1 54806:1 54872:1 54893:1 54947:1 54994:1 55321:1 55501:1 55621:1 55637:1 55721:1 55848:1 56344:1 56401:1 56438:1 56770:1 57034:1 57049:1 57744:1 57897:1 57925:1 57933:1 58506:1 58516:1 58531:1 58540:1 59005:1 60480:1 61086:1 61433:1 61618:1 61699:1 61932:1 62506:1 62514:1 62641:1 62906:1 63500:1 63583:1 63635:1 63636:1 63648:1 63702:1 64071:1 64115:1 64424:1 64437:1 65323:1 65573:1 66044:1 66233:1 66243:1 66305:1 66529:1 66554:1 66564:1 66613:1 66628:1 67033:1 67312:1 67410:1 67595:1 67753:1 68146:1 68411:1 69061:1 69082:1 69207:1 70111:1 70158:1 71000:1 71028:1 71781:1 72219:1 72235:1 72246:1 73110:1 74808:1 74987:1 75309:1 75355:1 75373:1 75451:1 75503:1 75522:1 75527:1 75547:1 75596:1 75641:1 75649:1 75671:1 75692:1 76052:1 76065:1 76067:1 76083:1 76106:1 76109:1 76112:1 76771:1 76787:1 76804:1 79677:1 79700:1 79708:1 79865:1 80264:1 80354:1 80410:1 80415:1 80416:1 80471:1 80808:1 81609:1 81957:1 83164:1 83798:1 84458:1 84851:1 85493:1 85818:1 86328:1 86436:1 86437:1 86457:1 88610:1 88842:1 88851:1 88856:1 89001:1 89147:1 89594:1 89864:1 91058:1 91094:1 91304:1 91341:1 91517:1 91930:1 91948:1 92924:1 93094:1 93096:1 93120:1 93152:1 93238:1 93330:1 93705:1 94737:1 94743:1 95041:1 95134:1 95552:1 95600:1 96211:1 96559:1 96589:1 96651:1 96660:1 96868:1 96912:1 97039:1 97046:1 97074:1 97570:1 97623:1 97894:1 97947:1 98037:1 98039:1 98821:1 98879:1 99369:1 99410:1 99506:1 99542:1 99549:1 99577:1 99667:1 99790:1 99860:1 99918:1 99954:1 99986:1 99994:1 99995:1 99996:1 100000:1 100008:1 100265:1 100292:1 100305:1 100415:1 100488:1 100508:1 100524:1 100737:1 100739:1 100765:1 100784:1 100861:1 100886:1 101016:1 101063:1 101138:1 101257:1 101302:1 101315:1 101366:1 101401:1 101461:1 101504:1 101594:1 #
0.00034036664543071878594182599897522 19:1 30:1 137:1 780:1 4200:1 4592:1 10573:1 10575:1 10849:1 16783:1 21833:1 25579:1 34961:1 41279:1 54506:1 57993:1 63111:1 69088:1 76124:1 86128:1 90435:1 90470:1 91344:1 92610:1 97629:1 99624:1 #
0.00033272527841639255776623462779185 17:1 19:1 28:1 30:1 10494:1 10573:1 10575:1 11069:1 11148:1 11162:1 12992:1 13193:1 13243:1 13860:1 14068:1 15456:1 21750:1 27585:1 33377:1 36098:1 36347:1 38698:1 41279:1 41465:1 46318:1 46769:1 48300:1 49049:1 49907:1 50012:1 54350:1 58172:1 60771:1 64195:1 64811:1 65147:1 65685:1 66427:1 67106:1 67598:1 68113:1 72046:1 72828:1 78412:1 81355:1 82412:1 82710:1 82770:1 83615:1 85196:1 85551:1 90435:1 90448:1 90470:1 90647:1 90720:1 91095:1 91439:1 94858:1 97312:1 97419:1 97629:1 98464:1 98731:1 100609:1 100642:1 #
0.00038616536877649930079026141527265 28:1 29:1 30:1 1933:1 2274:1 5765:1 7591:1 8089:1 8844:1 10075:1 10494:1 10499:1 10573:1 10575:1 10582:1 11050:1 11148:1 11399:1 13860:1 15069:1 15456:1 16573:1 17832:1 19924:1 21750:1 21833:1 22599:1 23129:1 24070:1 27415:1 28277:1 30197:1 33377:1 35878:1 35880:1 40369:1 41279:1 42330:1 42430:1 46318:1 46769:1 49099:1 49907:1 50640:1 51118:1 51287:1 51338:1 51421:1 51664:1 52061:1 52237:1 52271:1 59310:1 61437:1 66044:1 66435:1 68053:1 68126:1 68238:1 68480:1 68483:1 68553:1 69786:1 70082:1 72418:1 74560:1 82396:1 82412:1 82710:1 82718:1 82758:1 82770:1 85196:1 87052:1 87221:1 87921:1 90470:1 90708:1 90857:1 91095:1 91439:1 92149:1 92194:1 94831:1 96310:1 97232:1 97629:1 100609:1 100642:1 #
0.0015578230589185057715362336949738 30:1 10573:1 10575:1 41279:1 62923:1 68581:1 72046:1 79107:1 82710:1 #
-0.0039145967415797639638030958053605 10574:1 10575:1 13616:1 18130:1 18133:1 19532:1 #
-0.00067600391760899020132669079430343 23:1 28:1 30:1 31:1 5245:1 8842:1 10574:1 10575:1 14215:1 23726:1 39906:1 39907:1 39914:1 42061:1 44220:1 45103:1 46929:1 48455:1 49907:1 50587:1 53457:1 57762:1 58003:1 58167:1 64502:1 65132:1 65685:1 73970:1 74919:1 80871:1 82437:1 84270:1 90435:1 90470:1 91095:1 91439:1 94222:1 94751:1 94757:1 94858:1 95179:1 98095:1 99531:1 100609:1 #
0.00086922611927607140291235365836542 23:1 28:1 30:1 10573:1 10575:1 10582:1 10856:1 11162:1 12992:1 13243:1 13860:1 15070:1 15456:1 17832:1 18174:1 21602:1 26746:1 27483:1 30027:1 36528:1 39414:1 41279:1 42287:1 42744:1 44388:1 45961:1 46785:1 47341:1 48864:1 49185:1 49907:1 50400:1 52061:1 52237:1 55081:1 56580:1 57762:1 58670:1 59018:1 64131:1 64778:1 64813:1 66044:1 67106:1 67262:1 67598:1 68581:1 69884:1 70795:1 74634:1 76856:1 77531:1 78789:1 79877:1 82958:1 87732:1 89690:1 90448:1 90470:1 90720:1 91439:1 97545:1 98464:1 100393:1 100609:1 100642:1 #
-0.00085260507556987304503270941324899 17:1 19:1 23:1 28:1 29:1 30:1 31:1 773:1 1697:1 6256:1 7063:1 8844:1 9501:1 9674:1 10494:1 10574:1 10575:1 11872:1 11908:1 12992:1 13738:1 13860:1 14774:1 15456:1 15888:1 17832:1 18014:1 18040:1 21207:1 21840:1 22111:1 25444:1 27088:1 29472:1 30323:1 31326:1 31430:1 31750:1 31870:1 34788:1 36975:1 37342:1 38139:1 41279:1 41848:1 43263:1 44351:1 46318:1 47869:1 49049:1 52051:1 52061:1 52237:1 55081:1 59310:1 60143:1 61433:1 63279:1 65251:1 66865:1 67106:1 67173:1 67598:1 68053:1 68553:1 69730:1 71993:1 71999:1 72828:1 73276:1 73982:1 74248:1 74944:1 77101:1 77978:1 78543:1 78596:1 79575:1 80871:1 85374:1 85454:1 85551:1 89780:1 89934:1 90260:1 90470:1 90720:1 91439:1 94831:1 97400:1 98464:1 100328:1 100609:1 100642:1 #
0.00023631072178572238304608554848585 28:1 30:1 10573:1 10575:1 32757:1 32762:1 36347:1 43533:1 46318:1 55081:1 56777:1 60771:1 63493:1 67106:1 70615:1 70622:1 75138:1 77693:1 82020:1 91095:1 91439:1 91507:1 98134:1 100609:1 #
0.00040334822358032654948667428129738 28:1 29:1 4939:1 5831:1 6186:1 10499:1 10573:1 10575:1 13860:1 15698:1 22076:1 22438:1 24519:1 40357:1 57721:1 61596:1 61935:1 62018:1 70787:1 77951:1 87494:1 #
-0.0091427984194731911488096542939275 30:1 10494:1 10574:1 10575:1 16027:1 33436:1 52061:1 76804:1 100642:1 #
-0.00077544705746328517880633368619669 20:1 29:1 30:1 31:1 32:1 1541:1 2140:1 5007:1 5245:1 9501:1 9849:1 10494:1 10499:1 10574:1 10575:1 10998:1 13860:1 15069:1 16918:1 26080:1 27909:1 30052:1 34601:1 36060:1 43657:1 48390:1 52061:1 53839:1 57940:1 66012:1 67106:1 67630:1 71975:1 74001:1 82437:1 82481:1 87494:1 88900:1 90470:1 90586:1 90786:1 91095:1 91439:1 97545:1 97629:1 97632:1 98095:1 99548:1 99624:1 #
-0.00014849828511968204188681275113026 30:1 10574:1 10575:1 13325:1 15888:1 16258:1 17240:1 17391:1 26182:1 27871:1 28648:1 28693:1 31400:1 34198:1 34263:1 38754:1 39937:1 41383:1 41426:1 42009:1 47616:1 47632:1 49702:1 50048:1 51672:1 52024:1 56217:1 58448:1 61192:1 61896:1 64811:1 65015:1 67456:1 70219:1 71369:1 72637:1 73762:1 76915:1 78269:1 82133:1 84468:1 85154:1 85280:1 90992:1 #
0.0041465531176950913908041407296423 20:1 30:1 5245:1 10573:1 10575:1 13860:1 25385:1 42343:1 62033:1 65015:1 65935:1 67106:1 67212:1 68553:1 77095:1 79460:1 81088:1 90470:1 97629:1 #
0.0021358955707322306409590151332623 30:1 10494:1 10573:1 10575:1 44498:1 47277:1 52237:1 56953:1 76804:1 87560:1 #
-0.00014722371508330651598828175963263 30:1 1190:1 10494:1 10574:1 10575:1 11200:1 12096:1 12940:1 13421:1 13583:1 13666:1 14862:1 15240:1 15888:1 16827:1 17118:1 19436:1 19438:1 21320:1 21550:1 22132:1 22204:1 22630:1 22868:1 23016:1 23420:1 23762:1 24265:1 24730:1 24784:1 25033:1 25254:1 25601:1 25662:1 25722:1 26031:1 26048:1 27608:1 27658:1 28222:1 28449:1 29098:1 29935:1 30175:1 30802:1 30913:1 31680:1 32171:1 32751:1 32832:1 33130:1 33407:1 33492:1 34124:1 34472:1 36207:1 36217:1 36448:1 36636:1 36748:1 37285:1 37518:1 37526:1 37702:1 39034:1 39540:1 39778:1 40401:1 40594:1 41363:1 41743:1 41766:1 42445:1 42511:1 42991:1 43951:1 43997:1 46565:1 46671:1 46719:1 46809:1 47290:1 47846:1 47938:1 49706:1 49758:1 49873:1 50255:1 50354:1 51250:1 51789:1 51926:1 52020:1 53476:1 53503:1 54532:1 55909:1 56967:1 57270:1 57927:1 58213:1 58768:1 60574:1 60771:1 61370:1 61421:1 61638:1 61730:1 61772:1 61784:1 62277:1 62433:1 62888:1 63152:1 63354:1 64007:1 64213:1 64555:1 65740:1 67194:1 67548:1 67727:1 67769:1 67920:1 68344:1 68616:1 68771:1 68877:1 69305:1 69410:1 69457:1 70376:1 71202:1 71265:1 71584:1 71617:1 71640:1 71721:1 71921:1 72161:1 72557:1 73350:1 73442:1 73746:1 74103:1 74470:1 75053:1 75062:1 76658:1 76977:1 77675:1 77847:1 78332:1 78648:1 79332:1 80551:1 81688:1 81784:1 81950:1 82064:1 82670:1 83441:1 84222:1 84338:1 84507:1 85237:1 85297:1 85449:1 85495:1 86094:1 86858:1 86863:1 86968:1 87221:1 87324:1 87333:1 87399:1 88061:1 88260:1 88460:1 89830:1 90720:1 90829:1 90945:1 91439:1 91490:1 92501:1 92797:1 92994:1 93082:1 93284:1 93795:1 93799:1 94089:1 94097:1 94182:1 94184:1 94298:1 94308:1 94360:1 94375:1 94432:1 94475:1 94491:1 94522:1 95775:1 97342:1 97429:1 98541:1 100365:1 101386:1 101419:1 #
-0.00060235725307522590236952719777719 29:1 30:1 919:1 1427:1 2277:1 2291:1 5499:1 5520:1 5708:1 7835:1 10494:1 10572:1 10574:1 10575:1 12021:1 13529:1 18045:1 19643:1 21685:1 22094:1 23726:1 25796:1 27511:1 29297:1 29443:1 33876:1 36098:1 38454:1 40681:1 44941:1 48507:1 48630:1 55254:1 55932:1 56671:1 62682:1 63148:1 63378:1 65015:1 67618:1 69566:1 71266:1 72816:1 75100:1 75905:1 78712:1 80180:1 83366:1 83420:1 84837:1 84873:1 85917:1 89105:1 91012:1 91095:1 92166:1 93168:1 96134:1 97508:1 #
-0.0020662042446125987102401033723709 28:1 30:1 31:1 10574:1 10575:1 12992:1 14215:1 15735:1 26080:1 33377:1 36085:1 46785:1 47110:1 47921:1 49907:1 52061:1 52237:1 54423:1 58167:1 60218:1 65132:1 67598:1 70598:1 79013:1 79014:1 79865:1 80533:1 84733:1 90435:1 90470:1 90543:1 91095:1 91439:1 98731:1 99531:1 99624:1 100325:1 100609:1 100642:1 #
-0.0019251483101696436651961708008685 17:1 10494:1 10574:1 10575:1 15644:1 29301:1 42287:1 42508:1 67106:1 91838:1 95083:1 98966:1 100629:1 #
-0.0010308499894953414809106728711185 25:1 28:1 30:1 10494:1 10574:1 10575:1 11647:1 24283:1 42508:1 46769:1 50011:1 53260:1 54061:1 55549:1 60535:1 72340:1 73916:1 91279:1 91415:1 93519:1 97096:1 #
0.001132772476540579338621927973918 8:1 20:1 23:1 24:1 25:1 28:1 29:1 30:1 31:1 32:1 1192:1 2257:1 2275:1 7061:1 10438:1 10494:1 10497:1 10499:1 10573:1 10575:1 10582:1 10789:1 10849:1 11421:1 12267:1 12992:1 13123:1 13243:1 13738:1 13860:1 14774:1 15069:1 15456:1 16095:1 16466:1 16624:1 17830:1 17832:1 17960:1 19011:1 20275:1 21602:1 23276:1 23708:1 25254:1 25261:1 26080:1 26127:1 26406:1 26437:1 27549:1 27806:1 29072:1 29099:1 32320:1 33451:1 34150:1 34788:1 34904:1 34932:1 35139:1 36714:1 37286:1 38218:1 39363:1 39991:1 40266:1 40875:1 41279:1 42000:1 42061:1 42469:1 44220:1 44835:1 44845:1 46084:1 46318:1 46329:1 48352:1 48390:1 49185:1 49782:1 49907:1 52061:1 53826:1 57165:1 57243:1 57580:1 57762:1 58222:1 59310:1 59332:1 59350:1 61190:1 62895:1 64358:1 64811:1 65147:1 66044:1 67106:1 67148:1 67162:1 67598:1 67700:1 68053:1 68113:1 68245:1 68553:1 68581:1 70604:1 71295:1 71319:1 71463:1 71873:1 72046:1 74122:1 74138:1 74367:1 76019:1 76601:1 76804:1 76856:1 77094:1 78152:1 78464:1 81660:1 81662:1 81663:1 82275:1 82286:1 82950:1 83339:1 84229:1 85041:1 85154:1 85280:1 85427:1 87221:1 87239:1 90267:1 90448:1 90470:1 90624:1 91213:1 91376:1 91439:1 91836:1 93334:1 93844:1 94640:1 94845:1 94858:1 95376:1 97629:1 98464:1 98731:1 99210:1 100152:1 100609:1 100642:1 #
0.00017730228975919147147918830675906 17:1 18:1 20:1 21:1 22:1 23:1 24:1 25:1 28:1 29:1 30:1 31:1 33:1 589:1 773:1 1029:1 1190:1 1942:1 2134:1 2268:1 2273:1 2276:1 2277:1 2967:1 3572:1 3959:1 4044:1 4168:1 4767:1 5824:1 5975:1 7092:1 8412:1 9702:1 10494:1 10497:1 10498:1 10499:1 10572:1 10573:1 10575:1 10582:1 10849:1 10863:1 11522:1 12217:1 12560:1 12601:1 12620:1 12722:1 12732:1 12789:1 12992:1 13193:1 13243:1 13454:1 13504:1 13738:1 13860:1 13968:1 14407:1 14578:1 15069:1 15606:1 15888:1 16614:1 16624:1 17005:1 17703:1 17926:1 18245:1 18557:1 18891:1 19174:1 19817:1 19976:1 20130:1 20134:1 20777:1 21548:1 21602:1 21750:1 21833:1 22094:1 22095:1 22161:1 22264:1 22373:1 22550:1 22599:1 22968:1 23483:1 23842:1 24070:1 24438:1 24473:1 24845:1 24932:1 25182:1 25254:1 25384:1 25612:1 26080:1 26104:1 26796:1 28623:1 28704:1 28737:1 28847:1 28867:1 29035:1 29767:1 29844:1 29855:1 30143:1 30231:1 30252:1 30422:1 30433:1 31070:1 31616:1 31711:1 31737:1 31750:1 32210:1 33164:1 33377:1 33403:1 33551:1 33617:1 33789:1 34150:1 34500:1 34551:1 34712:1 34788:1 36098:1 36738:1 36883:1 37626:1 38209:1 38327:1 38385:1 38435:1 38676:1 38714:1 38895:1 38938:1 39305:1 39363:1 39422:1 39424:1 39425:1 39654:1 39762:1 39828:1 40193:1 40291:1 40400:1 40424:1 40621:1 40843:1 41022:1 41024:1 41153:1 41279:1 41588:1 41848:1 41947:1 42061:1 42430:1 42469:1 42511:1 42960:1 43533:1 43534:1 43888:1 44322:1 44388:1 44702:1 44835:1 45264:1 45976:1 46318:1 46505:1 46550:1 46785:1 46929:1 47295:1 47466:1 48099:1 48115:1 48152:1 48175:1 48203:1 48390:1 48705:1 48877:1 49185:1 49469:1 49471:1 49540:1 49907:1 49975:1 50061:1 50062:1 50395:1 50640:1 51309:1 51547:1 52061:1 52118:1 52237:1 52250:1 52505:1 52603:1 53118:1 53826:1 54662:1 55724:1 55874:1 56130:1 56509:1 56549:1 56586:1 56860:1 57321:1 57420:1 57596:1 57652:1 57762:1 58125:1 58172:1 58222:1 58326:1 58421:1 58448:1 58466:1 59223:1 59227:1 59310:1 59350:1 59423:1 59428:1 60531:1 60809:1 61167:1 61169:1 61420:1 61596:1 61852:1 61963:1 61972:1 62096:1 63148:1 63593:1 64738:1 65147:1 65190:1 65251:1 65441:1 65456:1 65641:1 66044:1 66161:1 66174:1 66518:1 66585:1 66958:1 66977:1 67106:1 67126:1 67140:1 67152:1 67598:1 67618:1 67700:1 68010:1 68053:1 68277:1 68480:1 68553:1 68581:1 68630:1 68976:1 69143:1 69151:1 70343:1 70598:1 71868:1 71993:1 72046:1 72274:1 72828:1 73756:1 73913:1 73916:1 74199:1 74201:1 74248:1 74367:1 74944:1 75142:1 75911:1 76585:1 76845:1 77094:1 77101:1 77729:1 78087:1 78391:1 78631:1 78721:1 78723:1 78786:1 79161:1 79250:1 79468:1 79478:1 80091:1 80093:1 80281:1 80304:1 80308:1 80342:1 80599:1 80871:1 81088:1 81095:1 81233:1 81524:1 81940:1 82385:1 82412:1 82437:1 82581:1 82770:1 82950:1 83055:1 83304:1 83693:1 83755:1 84014:1 84378:1 85154:1 85454:1 85472:1 85852:1 86147:1 86491:1 86768:1 86821:1 87732:1 87748:1 87793:1 88127:1 88188:1 88555:1 89053:1 89702:1 90428:1 90448:1 90470:1 90647:1 90699:1 90720:1 90785:1 90857:1 90970:1 91095:1 91439:1 91926:1 91999:1 92004:1 92077:1 92352:1 92356:1 92357:1 92364:1 92372:1 92437:1 92585:1 93185:1 93192:1 93219:1 94118:1 94229:1 94493:1 94621:1 94640:1 94831:1 95198:1 95368:1 95618:1 95644:1 96318:1 96454:1 97312:1 97327:1 97419:1 97463:1 97629:1 97771:1 98095:1 98140:1 98160:1 98166:1 98177:1 98464:1 98707:1 98731:1 98788:1 99133:1 99531:1 99587:1 100609:1 100642:1 100673:1 101602:1 #
0.0010709762793640570203990147746254 23:1 28:1 29:1 30:1 6095:1 8842:1 10499:1 10573:1 10575:1 10582:1 12992:1 13243:1 13860:1 14002:1 14425:1 15576:1 16783:1 17832:1 17926:1 19049:1 21602:1 24005:1 27909:1 29536:1 33377:1 33617:1 40276:1 41279:1 41539:1 43888:1 46227:1 46318:1 46465:1 48864:1 49907:1 51779:1 52237:1 55134:1 56181:1 57420:1 57762:1 59423:1 63148:1 64242:1 67106:1 68553:1 69343:1 73507:1 76124:1 80871:1 81034:1 82574:1 83762:1 86128:1 89053:1 90426:1 90470:1 90529:1 90702:1 91439:1 91608:1 92791:1 97312:1 97629:1 98464:1 98731:1 100609:1 #
0.0001863611562322941238561274657215 23:1 24:1 25:1 30:1 9502:1 10496:1 10573:1 10575:1 10582:1 11983:1 13025:1 14899:1 15456:1 17047:1 21658:1 21750:1 22158:1 22867:1 27927:1 30231:1 30252:1 30404:1 34395:1 34727:1 35773:1 39991:1 42061:1 46929:1 49051:1 49907:1 52061:1 57375:1 62241:1 63172:1 64358:1 65685:1 67106:1 67700:1 68553:1 69812:1 73030:1 78001:1 78877:1 81547:1 82621:1 82691:1 86673:1 89053:1 89214:1 90101:1 90470:1 90586:1 91439:1 91478:1 92047:1 92159:1 94831:1 95000:1 95963:1 97419:1 97629:1 97928:1 98095:1 98464:1 98976:1 100328:1 #
-0.0051728425463773595668892646415316 10574:1 10575:1 23842:1 57243:1 98971:1 100642:1 #
9.2954600937658255258543016363859e-05 25:1 28:1 29:1 30:1 773:1 2274:1 4043:1 10494:1 10573:1 10575:1 10582:1 13860:1 15074:1 15456:1 16873:1 17832:1 18159:1 26356:1 27415:1 30404:1 36273:1 38710:1 39762:1 40357:1 41279:1 44388:1 45083:1 46465:1 46929:1 48864:1 49907:1 51508:1 51509:1 52061:1 52189:1 55803:1 56155:1 60398:1 62211:1 64131:1 64921:1 64929:1 68480:1 70012:1 72470:1 72785:1 74165:1 75793:1 90448:1 90470:1 95363:1 95933:1 96111:1 97771:1 98166:1 98731:1 99121:1 #
-0.0011553638013803561347681014837008 19:1 28:1 30:1 2274:1 2291:1 5615:1 10572:1 10574:1 10575:1 15888:1 16218:1 21750:1 23483:1 26080:1 35246:1 36098:1 38418:1 51342:1 52198:1 53227:1 61169:1 65048:1 65205:1 68053:1 68553:1 72418:1 73029:1 73913:1 78520:1 82770:1 82958:1 87793:1 90720:1 91439:1 94493:1 96211:1 96454:1 97419:1 100642:1 #
-0.00046011559138511392945403155607664 17:1 10499:1 10574:1 10575:1 13794:1 13860:1 14682:1 16745:1 19524:1 22190:1 22264:1 27266:1 30829:1 31815:1 32188:1 48135:1 49907:1 53396:1 54144:1 55081:1 57668:1 65351:1 70768:1 74682:1 80352:1 85604:1 89488:1 90470:1 92798:1 94832:1 99076:1 100609:1 #
0.00010951139387294320129244418193792 29:1 30:1 31:1 33:1 774:1 1029:1 1842:1 4043:1 5245:1 5365:1 5748:1 6329:1 9501:1 10573:1 10575:1 30404:1 40942:1 40944:1 41279:1 56155:1 61510:1 65685:1 65778:1 97077:1 #
-0.00011986135773809268535630007113113 23:1 27:1 28:1 29:1 30:1 32:1 4043:1 5880:1 6095:1 7968:1 8842:1 9501:1 10494:1 10498:1 10499:1 10574:1 10575:1 10582:1 11278:1 11565:1 11880:1 13243:1 13293:1 13860:1 15456:1 16032:1 16054:1 17832:1 18014:1 19013:1 19515:1 21250:1 21257:1 21750:1 22264:1 23120:1 23276:1 25537:1 25704:1 26080:1 27489:1 27495:1 27534:1 27738:1 28138:1 28383:1 28706:1 29753:1 31071:1 31771:1 34788:1 35254:1 37555:1 41175:1 41279:1 41452:1 41453:1 42061:1 45638:1 46051:1 46227:1 46479:1 48314:1 48864:1 49259:1 49852:1 49907:1 50504:1 50640:1 51079:1 51290:1 51406:1 52061:1 52237:1 54757:1 59310:1 60398:1 61433:1 61437:1 63148:1 65322:1 67106:1 67262:1 67598:1 67700:1 68113:1 68480:1 73714:1 74266:1 76835:1 77095:1 78142:1 80871:1 80978:1 80985:1 82437:1 82713:1 82935:1 82942:1 83055:1 85280:1 85475:1 89012:1 89235:1 90335:1 90448:1 90470:1 90624:1 90720:1 91439:1 96415:1 96905:1 98134:1 98731:1 100642:1 #
0.00038471359527983390409408559484916 22:1 29:1 31:1 1029:1 1190:1 10494:1 10573:1 10575:1 12230:1 12775:1 16072:1 17050:1 34788:1 35773:1 37122:1 49544:1 62833:1 64818:1 65307:1 69378:1 69812:1 70058:1 71011:1 77091:1 93119:1 #
0.0025583107394980438009657319753387 10573:1 10575:1 15983:1 16027:1 31071:1 40537:1 56953:1 60022:1 82437:1 #
-1.3920608743842044158016933719235e-05 28:1 29:1 30:1 773:1 5245:1 6095:1 8842:1 9437:1 9485:1 10499:1 10574:1 10575:1 10753:1 11850:1 12423:1 12431:1 12689:1 12691:1 12822:1 12841:1 14037:1 14854:1 14910:1 15210:1 16741:1 16772:1 17792:1 17793:1 18651:1 18769:1 19258:1 19323:1 20343:1 20544:1 21086:1 21146:1 21714:1 21733:1 21787:1 21828:1 23318:1 23347:1 24993:1 29108:1 29133:1 29172:1 29328:1 29563:1 29718:1 29869:1 30021:1 30314:1 30340:1 32662:1 33215:1 33948:1 33960:1 33961:1 34277:1 34669:1 34679:1 34762:1 35325:1 35461:1 35573:1 35717:1 37142:1 37488:1 38490:1 38591:1 39113:1 40606:1 40675:1 42503:1 43075:1 43100:1 43871:1 44570:1 45638:1 46460:1 46929:1 47118:1 47171:1 47508:1 48341:1 48845:1 49139:1 49140:1 49387:1 49508:1 51818:1 52087:1 52174:1 52354:1 52359:1 52392:1 52432:1 52464:1 52787:1 52807:1 53193:1 53226:1 53252:1 53558:1 53563:1 53882:1 54272:1 54382:1 55120:1 55346:1 55622:1 56123:1 56387:1 56394:1 56773:1 57176:1 57795:1 57921:1 57933:1 58514:1 58526:1 58595:1 58698:1 58951:1 58955:1 59002:1 59012:1 59030:1 59772:1 61433:1 62594:1 62838:1 63614:1 64336:1 64639:1 64684:1 64713:1 64723:1 65567:1 65661:1 65736:1 66044:1 66236:1 66274:1 66287:1 66545:1 66549:1 66556:1 66635:1 67316:1 67580:1 67664:1 67774:1 68545:1 68704:1 69207:1 69795:1 71009:1 71814:1 71840:1 73156:1 73913:1 74821:1 75289:1 75299:1 75422:1 75523:1 76084:1 76095:1 76118:1 76795:1 78400:1 79275:1 79495:1 79737:1 80437:1 80517:1 80759:1 80783:1 80784:1 80809:1 80815:1 81612:1 83059:1 84118:1 84566:1 86314:1 88125:1 88855:1 89049:1 89560:1 91944:1 92383:1 93272:1 93488:1 93510:1 93537:1 93540:1 93575:1 93585:1 93624:1 94878:1 95127:1 95142:1 95165:1 95179:1 95567:1 95758:1 96027:1 96211:1 96564:1 96662:1 96920:1 96938:1 97020:1 98269:1 98347:1 98800:1 98869:1 99503:1 99623:1 99624:1 99727:1 99773:1 99777:1 99868:1 99926:1 99931:1 100035:1 100113:1 100136:1 100295:1 100381:1 100404:1 100494:1 100783:1 101144:1 101148:1 101473:1 101496:1 101559:1 101572:1 #
0.0037493354466141743698559540831639 29:1 2278:1 3606:1 10573:1 10575:1 15888:1 22121:1 22805:1 30231:1 58164:1 67598:1 93235:1 #
-0.0019907808982210606178753220518729 30:1 10494:1 10574:1 10575:1 12501:1 40050:1 42571:1 48262:1 58504:1 58916:1 61639:1 76804:1 86427:1 89053:1 90355:1 93509:1 95581:1 96031:1 #
-0.0091427984194731911488096542939275 10574:1 10575:1 #
-0.000648428076093477811364662599658 23:1 28:1 29:1 30:1 31:1 3718:1 10494:1 10497:1 10499:1 10574:1 10575:1 10582:1 10849:1 12992:1 15069:1 15888:1 18040:1 18632:1 22264:1 24070:1 25385:1 26080:1 30231:1 38172:1 38194:1 39048:1 40400:1 41279:1 42469:1 46493:1 47453:1 48357:1 48390:1 49185:1 52061:1 56990:1 58471:1 59437:1 64901:1 65147:1 66174:1 66435:1 67598:1 68010:1 68553:1 68581:1 69754:1 74266:1 74427:1 77109:1 77540:1 78652:1 80871:1 81523:1 86494:1 86723:1 89270:1 90426:1 90470:1 90513:1 91095:1 91439:1 91478:1 95618:1 98095:1 98731:1 100609:1 100642:1 #
0.00073022235339415843529548011403563 23:1 29:1 30:1 33:1 348:1 3020:1 3606:1 3718:1 4043:1 6421:1 6610:1 6789:1 8842:1 10499:1 10573:1 10575:1 38490:1 43714:1 52580:1 53537:1 72194:1 89738:1 #
0.0036992787129426015109434633387764 10573:1 10575:1 11525:1 18014:1 24233:1 30404:1 41279:1 46227:1 66427:1 79118:1 86232:1 88758:1 #
-0.00088897820729640021804318639198073 10494:1 10574:1 10575:1 13176:1 14234:1 14624:1 15359:1 17566:1 20962:1 26703:1 32619:1 34024:1 36214:1 44390:1 44738:1 48864:1 50777:1 52939:1 55081:1 56995:1 62122:1 64811:1 66960:1 76804:1 90786:1 97136:1 98095:1 100609:1 #
-0.0014449306814882868950367100779886 10494:1 10499:1 10501:1 10504:1 10505:1 10506:1 10507:1 10509:1 10574:1 10575:1 65065:1 65147:1 74458:1 94650:1 #
-0.0015863391193879309432057667095251 30:1 10574:1 10575:1 10582:1 12114:1 15888:1 18557:1 18576:1 33040:1 41279:1 46329:1 63279:1 64811:1 67106:1 72043:1 73756:1 74138:1 82754:1 85667:1 88231:1 90260:1 90470:1 91439:1 95376:1 97629:1 100642:1 #
-0.0042544943711375444658773226080939 23:1 30:1 2081:1 10494:1 10574:1 10575:1 12992:1 15069:1 15888:1 25657:1 25847:1 42508:1 46929:1 48864:1 49907:1 59018:1 66044:1 85193:1 94581:1 #
0.0009889201814242134461890865182454 23:1 28:1 30:1 31:1 2931:1 3306:1 8509:1 10572:1 10573:1 10575:1 10849:1 12039:1 12215:1 12992:1 13362:1 18014:1 21602:1 26080:1 26354:1 40369:1 42061:1 43822:1 43823:1 46059:1 46321:1 47175:1 48864:1 49907:1 52609:1 53826:1 55081:1 55970:1 56932:1 58395:1 59562:1 60771:1 66585:1 72046:1 76920:1 79575:1 89053:1 90448:1 90699:1 90792:1 91439:1 97313:1 97476:1 98140:1 98731:1 100152:1 100609:1 #
-0.00020122608627346429848760378522599 17:1 18:1 19:1 20:1 23:1 24:1 25:1 26:1 28:1 29:1 30:1 33:1 160:1 773:1 2275:1 3436:1 3606:1 4043:1 4052:1 5245:1 5658:1 8608:1 8844:1 8998:1 9304:1 10494:1 10574:1 10575:1 10582:1 11069:1 11399:1 13860:1 14620:1 16072:1 18014:1 22111:1 22599:1 25006:1 25254:1 27088:1 27683:1 28224:1 29476:1 29753:1 32798:1 33377:1 36098:1 36939:1 38756:1 41175:1 41608:1 41848:1 41983:1 42469:1 43533:1 46318:1 46929:1 47205:1 48596:1 49185:1 49604:1 49907:1 50019:1 51058:1 52061:1 53739:1 57375:1 57472:1 57762:1 59739:1 60398:1 62357:1 63067:1 65065:1 65685:1 66044:1 67106:1 67140:1 67152:1 67598:1 67618:1 68053:1 68113:1 68553:1 68581:1 68979:1 69776:1 74165:1 74264:1 74645:1 77094:1 77097:1 77098:1 78142:1 78391:1 79575:1 80136:1 80871:1 81437:1 81754:1 82581:1 84077:1 84232:1 85852:1 87732:1 89002:1 89012:1 89214:1 90402:1 90448:1 90470:1 90624:1 90720:1 91095:1 91439:1 91478:1 94493:1 94621:1 95368:1 95370:1 98095:1 98707:1 98731:1 100609:1 100642:1 #
-1.1588231343105274495988710192762e-05 17:1 30:1 31:1 10494:1 10499:1 10574:1 10575:1 10582:1 10849:1 15069:1 15888:1 20005:1 23726:1 24070:1 34939:1 39724:1 41227:1 46769:1 48390:1 56549:1 57321:1 64811:1 65147:1 66159:1 68553:1 68581:1 71920:1 77237:1 90409:1 90410:1 90411:1 91439:1 91653:1 92585:1 97629:1 99531:1 #
-0.0017201017863913855253377160892114 17:1 6095:1 10574:1 10575:1 14662:1 31646:1 42573:1 43533:1 49507:1 65147:1 90470:1 #
-0.00039086105734173080730048388531372 20:1 22:1 28:1 30:1 8843:1 10574:1 10575:1 10789:1 14624:1 15888:1 17832:1 18194:1 20168:1 20275:1 23600:1 25384:1 27331:1 27489:1 28277:1 29275:1 29495:1 34871:1 39414:1 41279:1 41364:1 41848:1 42306:1 45705:1 46785:1 54710:1 58213:1 61200:1 64008:1 64811:1 65441:1 65507:1 66134:1 67162:1 67700:1 68581:1 72982:1 77094:1 77715:1 79563:1 79637:1 84060:1 87941:1 88127:1 89688:1 90426:1 90428:1 91182:1 94621:1 94942:1 98270:1 98561:1 98999:1 99335:1 99962:1 #
-0.00015166948397413748694274870931764 17:1 21:1 23:1 28:1 29:1 30:1 31:1 34:1 773:1 10494:1 10574:1 10575:1 10582:1 10774:1 11565:1 11872:1 12187:1 13174:1 13193:1 13860:1 14620:1 15285:1 15456:1 15910:1 16100:1 16647:1 16783:1 18557:1 19431:1 21750:1 25560:1 26080:1 26165:1 27493:1 29844:1 30231:1 30577:1 30736:1 31746:1 32259:1 32521:1 32713:1 33545:1 34140:1 35312:1 38186:1 38724:1 39051:1 39208:1 39414:1 39991:1 40412:1 41279:1 41467:1 42061:1 44102:1 44759:1 44815:1 46318:1 46465:1 47341:1 47351:1 47429:1 48390:1 48491:1 48864:1 49855:1 49907:1 50407:1 50640:1 52061:1 52961:1 55724:1 57321:1 59939:1 61168:1 63279:1 63797:1 64008:1 64185:1 64242:1 65147:1 65441:1 66635:1 67106:1 67140:1 67598:1 67618:1 67936:1 68053:1 68553:1 68686:1 68727:1 69088:1 70630:1 71181:1 72932:1 73018:1 74138:1 74401:1 76020:1 76820:1 77367:1 80535:1 82437:1 83017:1 83087:1 83197:1 83562:1 83798:1 84594:1 84700:1 84831:1 84912:1 87213:1 87435:1 87595:1 87785:1 88127:1 89093:1 90273:1 90448:1 90470:1 90691:1 90820:1 91439:1 92592:1 93192:1 93718:1 93900:1 94621:1 94673:1 94832:1 95618:1 97419:1 97476:1 97481:1 97545:1 97868:1 97910:1 97977:1 98134:1 98731:1 99076:1 99210:1 99531:1 100609:1 100642:1 #
-0.00068161459460617385142100488337746 23:1 30:1 10574:1 10575:1 10582:1 12992:1 13347:1 15069:1 15456:1 21750:1 22634:1 36489:1 37320:1 37375:1 38215:1 39991:1 41848:1 42061:1 44835:1 46084:1 46269:1 46318:1 46465:1 48864:1 59018:1 59554:1 60896:1 60940:1 62104:1 63393:1 64337:1 65147:1 66389:1 66747:1 67106:1 67674:1 67937:1 73450:1 85154:1 86074:1 90448:1 90470:1 90586:1 90691:1 90702:1 92783:1 93989:1 96355:1 99067:1 #
-0.0081947868975669364843827935374065 29:1 10574:1 10575:1 10582:1 41279:1 46318:1 51892:1 65147:1 97175:1 100609:1 #
1.1218558100406573791070485857091e-05 18:1 20:1 21:1 23:1 24:1 25:1 28:1 29:1 30:1 31:1 32:1 773:1 1697:1 2038:1 2140:1 2274:1 2291:1 2514:1 4043:1 5245:1 6095:1 6096:1 6241:1 6335:1 6421:1 6529:1 7535:1 7968:1 9186:1 9187:1 9501:1 9777:1 10494:1 10573:1 10575:1 10582:1 10849:1 10856:1 11148:1 11525:1 11691:1 11723:1 12187:1 12992:1 13798:1 13860:1 14624:1 14754:1 14817:1 15069:1 15456:1 15756:1 15888:1 16512:1 16515:1 17230:1 17781:1 17832:1 18014:1 18122:1 18179:1 18184:1 18632:1 19847:1 20894:1 21343:1 21602:1 21665:1 21750:1 22111:1 22264:1 22373:1 23546:1 24326:1 24327:1 26127:1 27240:1 27258:1 28277:1 28300:1 28734:1 28845:1 28990:1 29073:1 29753:1 29966:1 30246:1 31126:1 31832:1 32188:1 32311:1 33378:1 33584:1 33789:1 33901:1 34136:1 34259:1 35593:1 35842:1 36521:1 36601:1 36919:1 37314:1 37326:1 37863:1 37865:1 38172:1 38209:1 38215:1 38672:1 38674:1 38710:1 39257:1 39414:1 40492:1 40521:1 40537:1 41279:1 41320:1 41325:1 41983:1 42474:1 42635:1 42898:1 43004:1 43263:1 43282:1 43533:1 43556:1 44220:1 44312:1 45773:1 45837:1 46084:1 46227:1 46318:1 46549:1 47242:1 47247:1 47266:1 48165:1 48215:1 49185:1 49764:1 49794:1 49907:1 50153:1 50640:1 50805:1 52061:1 52237:1 52308:1 52603:1 56187:1 56911:1 56990:1 57328:1 57420:1 58230:1 58313:1 58448:1 58455:1 59939:1 60402:1 60588:1 60809:1 62589:1 63148:1 64008:1 64552:1 64738:1 65147:1 65251:1 66044:1 66063:1 66174:1 66427:1 66599:1 67106:1 67598:1 67700:1 68053:1 68480:1 68553:1 68581:1 68727:1 68976:1 69728:1 70637:1 71940:1 72078:1 72940:1 73375:1 73376:1 73377:1 73647:1 73756:1 73762:1 74120:1 74125:1 76358:1 76601:1 76695:1 76815:1 76835:1 77109:1 77464:1 77573:1 77691:1 77716:1 77978:1 78400:1 78784:1 79460:1 79563:1 79567:1 80871:1 81034:1 81682:1 82437:1 82469:1 82723:1 83055:1 83736:1 83762:1 83835:1 84406:1 85154:1 85454:1 86049:1 86768:1 87052:1 87234:1 87401:1 87572:1 87831:1 87973:1 87998:1 88100:1 88322:1 89612:1 90260:1 90426:1 90448:1 90470:1 90513:1 90543:1 90586:1 90691:1 90693:1 90720:1 90857:1 91095:1 91439:1 91653:1 93334:1 93901:1 94123:1 94229:1 94621:1 94676:1 96211:1 97234:1 97320:1 97362:1 97545:1 97629:1 97669:1 98095:1 98464:1 98645:1 98668:1 98731:1 99067:1 99100:1 99178:1 99210:1 100328:1 100338:1 100388:1 #
0.0091427984194731911488096542939275 30:1 10573:1 10575:1 15698:1 57580:1 70553:1 78520:1 100642:1 #
-0.0091427984194731911488096542939275 10574:1 10575:1 #
-0.00024336517315241341279444253764552 20:1 23:1 24:1 25:1 28:1 29:1 30:1 31:1 33:1 773:1 774:1 1697:1 2097:1 2103:1 2126:1 2151:1 2153:1 2179:1 2184:1 2206:1 2274:1 3020:1 4043:1 5170:1 5696:1 6095:1 6096:1 7061:1 7347:1 7869:1 9503:1 9849:1 9850:1 10494:1 10574:1 10575:1 10582:1 11522:1 11541:1 12217:1 12992:1 13243:1 13738:1 13860:1 14407:1 15069:1 15456:1 15459:1 15888:1 17367:1 17610:1 18014:1 18557:1 18632:1 20198:1 20281:1 21151:1 21564:1 21602:1 21658:1 21750:1 22264:1 23546:1 24437:1 25830:1 25955:1 26080:1 28872:1 29476:1 29479:1 30143:1 30160:1 30412:1 32259:1 33849:1 34795:1 39757:1 40400:1 41227:1 41279:1 41588:1 42061:1 43556:1 43897:1 44319:1 45810:1 45961:1 46059:1 46227:1 46318:1 46785:1 46793:1 47725:1 47818:1 47898:1 48352:1 48390:1 49782:1 49907:1 50273:1 50277:1 51153:1 51712:1 52061:1 52266:1 52271:1 53826:1 55081:1 56570:1 57369:1 58448:1 59765:1 62484:1 63063:1 63279:1 63550:1 64522:1 65359:1 65360:1 65685:1 67106:1 67148:1 67598:1 67618:1 67700:1 68053:1 68113:1 68126:1 68480:1 68553:1 68581:1 69088:1 69858:1 70553:1 71427:1 71675:1 71998:1 72046:1 72637:1 72839:1 73756:1 73762:1 75146:1 75770:1 76545:1 76920:1 77691:1 77780:1 78316:1 80046:1 80053:1 80072:1 80871:1 81088:1 81511:1 84437:1 84861:1 85387:1 85454:1 85852:1 90428:1 90435:1 90437:1 90470:1 90586:1 90624:1 90647:1 90720:1 91095:1 91439:1 95933:1 95987:1 97312:1 97481:1 97545:1 97629:1 97771:1 97928:1 98284:1 98464:1 98707:1 98731:1 98978:1 99531:1 99770:1 100328:1 100609:1 100642:1 100669:1 #
-0.00026531918889239280122394060157376 17:1 23:1 24:1 25:1 28:1 29:1 30:1 31:1 784:1 2274:1 7062:1 9563:1 10494:1 10574:1 10575:1 10582:1 10856:1 11565:1 13243:1 13860:1 15888:1 16466:1 17832:1 18298:1 21638:1 21750:1 22264:1 25254:1 25419:1 25702:1 29753:1 30252:1 33377:1 36738:1 36919:1 39363:1 39991:1 41175:1 41279:1 42061:1 46318:1 47953:1 48390:1 49185:1 52061:1 53826:1 57321:1 59146:1 61167:1 62886:1 67306:1 67598:1 68053:1 68165:1 71427:1 71447:1 72046:1 72846:1 72847:1 77095:1 77693:1 78391:1 82710:1 84232:1 85154:1 89053:1 89214:1 90470:1 90720:1 91439:1 94621:1 95297:1 95618:1 96402:1 96454:1 96464:1 97629:1 97689:1 98166:1 98464:1 98731:1 99531:1 100609:1 100642:1 100673:1 #
-0.00017789035738253569413243326824414 21:1 30:1 7535:1 10574:1 10575:1 12992:1 15652:1 17085:1 18923:1 19399:1 22664:1 23878:1 24192:1 25940:1 33319:1 34864:1 38551:1 39379:1 41279:1 42035:1 45436:1 48195:1 52034:1 52265:1 52890:1 59571:1 59960:1 62998:1 63001:1 65147:1 65182:1 65838:1 67126:1 74854:1 75760:1 76807:1 77985:1 78695:1 84427:1 84555:1 85280:1 85658:1 86245:1 87481:1 88512:1 89080:1 93290:1 94596:1 94869:1 97827:1 98143:1 100389:1 #
-0.0091427984194731911488096542939275 30:1 10574:1 10575:1 40258:1 49782:1 78521:1 #
-7.2183840913013020204602732121657e-05 23:1 28:1 30:1 10495:1 10574:1 10575:1 13738:1 13860:1 16845:1 17832:1 22264:1 22373:1 24535:1 27534:1 28377:1 28705:1 28948:1 32206:1 38218:1 39352:1 40537:1 44220:1 46059:1 46329:1 46540:1 49062:1 49185:1 49907:1 52061:1 52237:1 56155:1 56932:1 57243:1 58343:1 67106:1 67598:1 67604:1 67618:1 67674:1 71105:1 73018:1 80871:1 90470:1 91439:1 92772:1 93158:1 95618:1 97629:1 98731:1 99187:1 100609:1 100642:1 #
-0.0013722289602638817248431157835853 17:1 20:1 30:1 773:1 4043:1 9849:1 10574:1 10575:1 25347:1 28700:1 39144:1 39153:1 41279:1 43556:1 45638:1 52237:1 53826:1 57935:1 66174:1 67598:1 76804:1 82437:1 84844:1 85981:1 89235:1 89822:1 91439:1 100629:1 #
-0.00026159560825198886107115225918562 17:1 28:1 30:1 10574:1 10575:1 13362:1 13860:1 40679:1 41279:1 42000:1 42061:1 47175:1 47818:1 48864:1 52061:1 52628:1 56155:1 58222:1 61718:1 64131:1 64358:1 65147:1 71319:1 82437:1 97696:1 97713:1 98731:1 100609:1 #
-0.00029828663584289519163789128342046 20:1 21:1 23:1 24:1 25:1 28:1 29:1 30:1 31:1 33:1 34:1 774:1 2275:1 2873:1 3484:1 6095:1 6097:1 7969:1 10494:1 10574:1 10575:1 10582:1 11054:1 11148:1 11297:1 13642:1 13860:1 14407:1 14684:1 14772:1 15069:1 15735:1 15780:1 16605:1 17367:1 17514:1 17832:1 19976:1 21750:1 22264:1 22783:1 24049:1 25579:1 25932:1 25967:1 26281:1 26402:1 26961:1 27614:1 27909:1 28277:1 31096:1 31640:1 32582:1 33551:1 34395:1 34788:1 36098:1 38702:1 39273:1 39586:1 39741:1 40357:1 40622:1 40844:1 41279:1 41428:1 41550:1 42061:1 42330:1 42957:1 46318:1 47726:1 48390:1 48541:1 48864:1 48947:1 49601:1 49746:1 49907:1 50407:1 50561:1 50617:1 50640:1 51242:1 51552:1 51755:1 52061:1 54753:1 56953:1 58213:1 59156:1 59310:1 60771:1 61433:1 62033:1 62164:1 62713:1 62947:1 63493:1 64039:1 64131:1 64195:1 64778:1 65435:1 65797:1 66044:1 66104:1 66427:1 67106:1 67212:1 67598:1 67700:1 67847:1 68053:1 68480:1 68581:1 68727:1 70706:1 70795:1 72046:1 72785:1 73916:1 74293:1 74634:1 77086:1 77977:1 78056:1 78116:1 78784:1 80871:1 82396:1 82455:1 82718:1 82958:1 83244:1 85370:1 85472:1 86768:1 87448:1 88067:1 89880:1 90435:1 90448:1 90470:1 90720:1 90796:1 91095:1 91225:1 91439:1 91804:1 92020:1 92149:1 92194:1 92352:1 93020:1 93151:1 93590:1 94229:1 94790:1 94831:1 97629:1 98166:1 98464:1 98731:1 99531:1 100609:1 100642:1 100669:1 100673:1 #
-0.0009034452180455878863088448049723 17:1 21:1 28:1 29:1 30:1 775:1 8412:1 10574:1 10575:1 10582:1 10789:1 10849:1 12217:1 13860:1 15069:1 17832:1 18323:1 22264:1 25254:1 28435:1 28436:1 29489:1 31601:1 32259:1 38460:1 39363:1 41175:1 41426:1 42061:1 43533:1 46318:1 46929:1 53826:1 57243:1 57580:1 59332:1 61893:1 67126:1 67146:1 67598:1 67966:1 68010:1 68553:1 68581:1 68727:1 72046:1 72415:1 72416:1 72418:1 74635:1 76048:1 81511:1 83055:1 87052:1 90470:1 91439:1 91478:1 94621:1 96211:1 97629:1 98140:1 98731:1 100609:1 100642:1 #
-0.00021596831885525462129890583717895 18:1 20:1 22:1 23:1 28:1 29:1 30:1 31:1 773:1 774:1 1277:1 2140:1 2274:1 3050:1 5245:1 6095:1 6984:1 7061:1 8842:1 10494:1 10572:1 10574:1 10575:1 10582:1 12187:1 12992:1 13362:1 13738:1 13860:1 15069:1 15888:1 16496:1 16783:1 17832:1 17953:1 18040:1 19401:1 21241:1 22934:1 23386:1 24319:1 26061:1 26080:1 32435:1 33685:1 34143:1 34913:1 36098:1 36939:1 37028:1 38178:1 38460:1 41279:1 41418:1 41848:1 42061:1 46059:1 46227:1 46486:1 47242:1 47393:1 47952:1 48145:1 48390:1 48444:1 49907:1 50406:1 51741:1 56175:1 56193:1 57243:1 57580:1 57595:1 59340:1 60875:1 61168:1 63983:1 64008:1 64541:1 65147:1 65441:1 66583:1 67106:1 69786:1 69854:1 70522:1 72194:1 73471:1 73756:1 74118:1 76124:1 76895:1 77238:1 77706:1 78152:1 78153:1 78535:1 80478:1 81564:1 83784:1 85359:1 85644:1 87401:1 87732:1 90402:1 90470:1 90513:1 90634:1 90720:1 90916:1 90917:1 91061:1 91439:1 91608:1 92614:1 93091:1 97077:1 97545:1 97629:1 98464:1 98731:1 99059:1 99076:1 99753:1 100592:1 100609:1 #
-0.00054497416532470503366947234269446 21:1 23:1 28:1 30:1 31:1 8843:1 10494:1 10574:1 10575:1 10580:1 10582:1 11775:1 13860:1 15888:1 18179:1 21495:1 21498:1 21750:1 22264:1 23276:1 23633:1 27972:1 28203:1 29198:1 33617:1 33697:1 33868:1 38172:1 38938:1 41279:1 42061:1 42508:1 43294:1 43533:1 44220:1 44312:1 46318:1 46929:1 49185:1 49907:1 50062:1 52142:1 52237:1 54347:1 57762:1 59089:1 59133:1 59310:1 59746:1 61800:1 62096:1 64811:1 65685:1 67082:1 67126:1 67162:1 68245:1 73750:1 76804:1 79468:1 82437:1 84378:1 85277:1 85280:1 87315:1 89053:1 90470:1 90529:1 90720:1 91261:1 91439:1 94621:1 100609:1 100642:1 #
0.00096394510396677964437356367355392 17:1 28:1 10499:1 10573:1 10575:1 10582:1 11069:1 13860:1 15456:1 15888:1 24437:1 27759:1 31889:1 34395:1 37130:1 39028:1 41279:1 41443:1 41999:1 45911:1 46318:1 46329:1 46735:1 46861:1 54350:1 56960:1 62682:1 63148:1 65685:1 67106:1 68053:1 68567:1 71970:1 79370:1 87221:1 90470:1 90591:1 90788:1 91439:1 92034:1 92047:1 96034:1 97321:1 97629:1 98134:1 98522:1 #
0.0091427984194731911488096542939275 23:1 30:1 10573:1 10575:1 41539:1 46929:1 57472:1 80871:1 90470:1 #
-0.0015779163865973883876941963322338 20:1 29:1 31:1 1697:1 2274:1 7061:1 10494:1 10574:1 10575:1 17832:1 21833:1 37403:1 46113:1 49907:1 50941:1 56911:1 62194:1 65147:1 73958:1 89103:1 89381:1 90426:1 90470:1 92791:1 94858:1 #
-3.5154494158289133480966431877235e-05 23:1 28:1 30:1 10574:1 10575:1 10582:1 10849:1 12992:1 13738:1 13860:1 18245:1 29684:1 33617:1 38218:1 40400:1 41279:1 48145:1 48780:1 50587:1 52061:1 55095:1 57164:1 59554:1 63148:1 65190:1 66081:1 67106:1 68374:1 68581:1 73756:1 78087:1 84521:1 89053:1 90426:1 90470:1 94786:1 95368:1 98095:1 98270:1 98435:1 #
-0.0058921679680080992630442082713671 17:1 29:1 10574:1 10575:1 26654:1 40400:1 41848:1 43533:1 48203:1 52237:1 68581:1 91439:1 #
-0.00099075963460980211866546696342084 24:1 25:1 28:1 29:1 30:1 31:1 1071:1 7137:1 9877:1 10499:1 10574:1 10575:1 11906:1 11914:1 13738:1 14425:1 15069:1 16054:1 21513:1 22111:1 22264:1 25890:1 29366:1 32521:1 32523:1 36098:1 38508:1 48864:1 49185:1 49975:1 51338:1 52061:1 57321:1 59950:1 60771:1 62876:1 63066:1 66044:1 67598:1 68053:1 70057:1 72046:1 77693:1 78391:1 78596:1 82621:1 84232:1 90720:1 91439:1 94832:1 97732:1 99210:1 100609:1 100642:1 #
-0.00039667516869891516779339513121272 17:1 23:1 24:1 25:1 28:1 29:1 30:1 31:1 2039:1 7061:1 10494:1 10497:1 10499:1 10572:1 10574:1 10575:1 11142:1 11572:1 14407:1 14446:1 20034:1 21564:1 24049:1 25254:1 26080:1 27464:1 32505:1 36098:1 46318:1 46929:1 48084:1 49185:1 49907:1 50062:1 50640:1 53278:1 53420:1 55081:1 56932:1 59310:1 59332:1 63148:1 64811:1 67106:1 67126:1 67212:1 68113:1 72046:1 74138:1 74357:1 75911:1 76804:1 78087:1 78732:1 81095:1 82710:1 82942:1 82958:1 86516:1 87732:1 88325:1 89702:1 91439:1 94831:1 97689:1 99691:1 100609:1 100642:1 #
-0.00097036589159087225514577212948097 18:1 22:1 24:1 25:1 28:1 29:1 30:1 31:1 32:1 773:1 9413:1 10497:1 10498:1 10574:1 10575:1 10577:1 12992:1 13089:1 13446:1 15888:1 20445:1 21601:1 23390:1 23960:1 24685:1 24999:1 28350:1 30052:1 30404:1 31131:1 32710:1 32982:1 38215:1 38760:1 40824:1 41993:1 42181:1 46047:1 46929:1 47242:1 52142:1 56953:1 57508:1 59765:1 60971:1 61344:1 62746:1 63148:1 63983:1 65147:1 65251:1 66889:1 68110:1 69207:1 73794:1 80871:1 81451:1 82749:1 83531:1 85477:1 85479:1 85550:1 85680:1 86183:1 89270:1 89487:1 90428:1 90490:1 91439:1 96250:1 96596:1 97855:1 99059:1 99076:1 99644:1 101389:1 101395:1 #
-0.00051029924902203614711648782531483 28:1 29:1 30:1 8729:1 9093:1 9796:1 10494:1 10574:1 10575:1 13738:1 13860:1 14407:1 15888:1 16096:1 16464:1 20168:1 20275:1 21750:1 21840:1 22047:1 24437:1 25482:1 27464:1 29405:1 29663:1 30122:1 38451:1 41279:1 41752:1 42061:1 42469:1 43533:1 43897:1 44220:1 45991:1 46318:1 49185:1 50640:1 51335:1 52271:1 60398:1 60877:1 66635:1 67106:1 67140:1 68053:1 68581:1 69088:1 69207:1 70795:1 72046:1 73916:1 75911:1 76585:1 81233:1 82770:1 84852:1 84886:1 90470:1 90543:1 90720:1 91439:1 94621:1 94832:1 94858:1 97419:1 97732:1 98707:1 98757:1 100609:1 100673:1 #
0.00014881909834993216085879952359505 17:1 18:1 23:1 28:1 30:1 10499:1 10573:1 10575:1 10582:1 10849:1 11386:1 13860:1 15456:1 15582:1 15888:1 16105:1 16624:1 18014:1 20262:1 21022:1 21548:1 22264:1 24173:1 25319:1 32155:1 38172:1 41279:1 42123:1 43411:1 43533:1 46318:1 46321:1 46329:1 46465:1 48203:1 48864:1 49907:1 52237:1 56541:1 57321:1 57762:1 63063:1 63193:1 63493:1 66686:1 67106:1 67162:1 67618:1 68727:1 73627:1 74391:1 75927:1 75939:1 76804:1 78387:1 78820:1 80564:1 80871:1 81576:1 83388:1 84346:1 85454:1 86731:1 87263:1 89053:1 90470:1 91439:1 97077:1 97178:1 97928:1 98095:1 98209:1 98318:1 99210:1 100393:1 100609:1 #
0.0037311918712679735879444997692644 28:1 29:1 30:1 31:1 10494:1 10572:1 10573:1 10575:1 15888:1 17155:1 26080:1 35498:1 36098:1 39360:1 41848:1 48390:1 48559:1 53370:1 57478:1 57580:1 57584:1 68976:1 86144:1 86723:1 91439:1 94493:1 99335:1 99531:1 100629:1 100642:1 #
0.00083209820407809359076728439319481 28:1 30:1 10494:1 10572:1 10573:1 10575:1 11565:1 15888:1 26080:1 28110:1 35404:1 36098:1 42469:1 60771:1 64131:1 65147:1 66063:1 72046:1 82710:1 86525:1 90435:1 91439:1 91478:1 100170:1 #
-9.8232952809477439189145275832971e-05 17:1 30:1 9501:1 10499:1 10574:1 10575:1 10689:1 11831:1 12093:1 12187:1 16149:1 17120:1 17138:1 17832:1 18129:1 18557:1 18854:1 20059:1 21513:1 21883:1 22218:1 22264:1 22582:1 23392:1 23470:1 23800:1 24379:1 24928:1 26652:1 28468:1 28943:1 28980:1 29720:1 29993:1 30880:1 32088:1 32657:1 41518:1 45103:1 49442:1 50022:1 55125:1 56860:1 57134:1 59666:1 60267:1 65152:1 65401:1 67635:1 68346:1 74097:1 75116:1 75900:1 77488:1 79644:1 83673:1 86082:1 86878:1 87052:1 87848:1 90470:1 91439:1 93091:1 97083:1 97476:1 100609:1 #
0.0036026576840238991490672493256398 30:1 10573:1 10575:1 42287:1 46929:1 52061:1 52237:1 54006:1 94806:1 #
-0.00020947268704262240871828704147362 17:1 23:1 28:1 30:1 10494:1 10574:1 10575:1 10582:1 10984:1 11522:1 12237:1 12992:1 13860:1 15069:1 15456:1 15636:1 17832:1 17909:1 18074:1 18122:1 18179:1 20148:1 20302:1 20464:1 20715:1 21495:1 21602:1 21750:1 23842:1 24487:1 25069:1 26127:1 26153:1 26362:1 26927:1 27394:1 28141:1 28355:1 30767:1 30863:1 30864:1 31067:1 32273:1 32970:1 33476:1 33617:1 34140:1 36601:1 36686:1 36799:1 36939:1 36948:1 38209:1 39178:1 39414:1 39443:1 39550:1 40537:1 41245:1 41279:1 41875:1 42061:1 42508:1 44085:1 44220:1 44226:1 44619:1 44815:1 45147:1 46053:1 46227:1 46318:1 46465:1 46468:1 46903:1 46992:1 47453:1 48091:1 48864:1 49185:1 49907:1 50016:1 50260:1 50872:1 50910:1 52061:1 52237:1 52308:1 52593:1 55081:1 55970:1 56095:1 56495:1 56549:1 56550:1 57243:1 57551:1 57668:1 57693:1 59554:1 61200:1 61437:1 64008:1 65130:1 65251:1 65695:1 66044:1 67106:1 67262:1 67439:1 67598:1 67618:1 68053:1 68480:1 68483:1 68976:1 69858:1 70335:1 70522:1 70600:1 71466:1 72698:1 72815:1 73018:1 73193:1 74608:1 76870:1 78027:1 78689:1 78866:1 80871:1 81194:1 83762:1 85154:1 85472:1 87412:1 89053:1 89815:1 90426:1 90448:1 90470:1 90513:1 90529:1 90647:1 90688:1 90720:1 91439:1 94203:1 94284:1 94858:1 95618:1 96111:1 97327:1 97419:1 97629:1 97868:1 97977:1 98134:1 98140:1 98270:1 98464:1 98619:1 98695:1 98707:1 98731:1 98976:1 98989:1 98999:1 100609:1 100629:1 #
